1.650138571858406067e-02
-2.756516449153423309e-03
-1.660336740314960480e-02
5.012447386980056763e-02
-1.085512712597846985e-02
-2.589372172951698303e-02
-5.708877928555011749e-03
-2.071393467485904694e-02
-2.349723596125841141e-03
-1.708452962338924408e-02
-1.246060058474540710e-02
2.968627214431762695e-02
-9.428582154214382172e-03
4.732085019350051880e-02
-3.083846904337406158e-02
-2.952852286398410797e-02
-1.215875614434480667e-02
-1.515241526067256927e-02
7.340010721236467361e-03
-6.266212090849876404e-03
2.640599198639392853e-02
1.028547342866659164e-02
-1.414409279823303223e-02
-2.779666148126125336e-02
1.004014611244201660e-01
-1.116044935770332813e-03
-2.127947285771369934e-03
-6.937922909855842590e-03
-1.697090826928615570e-02
-1.731977611780166626e-02
-2.411241829395294189e-02
-2.935200184583663940e-02
-7.454240228980779648e-03
6.475328118540346622e-04
-3.528505191206932068e-02
6.932656466960906982e-02
3.364581149071455002e-03
5.746830627322196960e-02
-1.227254513651132584e-02
-3.085162118077278137e-02
-1.163724809885025024e-02
-4.167202394455671310e-03
-1.103407330811023712e-02
-1.083916518837213516e-02
-2.885240130126476288e-02
1.339783519506454468e-02
7.759653963148593903e-03
-3.245060145854949951e-02
-1.715756021440029144e-02
-1.241270173341035843e-02
-1.655666716396808624e-02
-1.097018923610448837e-02
-1.478760968893766403e-03
-2.185141481459140778e-02
-2.239113859832286835e-02
-1.288294885307550430e-02
-1.625590585172176361e-02
-1.896955445408821106e-02
6.224991288036108017e-03
-2.933291252702474594e-03
-3.054077364504337311e-02
2.117125503718852997e-02
-1.445898879319429398e-02
-2.975999005138874054e-02
