-4.056966304779052734e-02
6.838473025709390640e-03
-2.507542259991168976e-02
-9.282382205128669739e-03
2.260769018903374672e-03
-3.100861236453056335e-02
-1.241755206137895584e-02
-1.158273499459028244e-02
-4.138428252190351486e-03
-3.421286121010780334e-02
-1.553315389901399612e-02
-5.825373344123363495e-03
-1.123051904141902924e-02
-1.653343997895717621e-02
-8.020213805139064789e-03
6.170314154587686062e-04
4.015478491783142090e-02
-1.854514703154563904e-03
-9.956779889762401581e-03
8.749112021178007126e-04
-4.083743318915367126e-03
-9.511845186352729797e-03
-1.279923971742391586e-02
-6.385408923961222172e-04
-2.053270488977432251e-02
6.720114499330520630e-03
3.393534570932388306e-02
-2.134265005588531494e-02
-2.325939014554023743e-02
-1.123455073684453964e-02
-2.698438987135887146e-02
2.033481933176517487e-02
-1.212188694626092911e-02
-2.157522365450859070e-03
-4.631882067769765854e-03
-2.716215327382087708e-02
1.595507748425006866e-02
-7.131174672394990921e-03
-1.036913227289915085e-02
5.707385949790477753e-03
-7.592000067234039307e-03
-2.796300873160362244e-02
-2.079263515770435333e-02
-7.177129387855529785e-03
2.815473638474941254e-02
1.533527858555316925e-02
-2.681370638310909271e-02
4.203333705663681030e-02
-1.796855404973030090e-02
-6.095010321587324142e-03
1.272720843553543091e-02
-2.261447720229625702e-02
5.480099469423294067e-03
-4.690988920629024506e-03
-2.526232600212097168e-02
-1.676961593329906464e-02
-5.413619801402091980e-03
-2.079616970149800181e-04
-1.546516455709934235e-02
-1.228693313896656036e-02
-7.203089538961648941e-03
-1.222593709826469421e-03
-3.823866695165634155e-02
-1.536998152732849121e-02
