-5.650558043271303177e-03
4.645796120166778564e-02
-1.710757985711097717e-02
-2.411382086575031281e-02
5.192840844392776489e-02
-6.931857671588659286e-03
-1.324900239706039429e-02
-1.165621727705001831e-02
-2.341768518090248108e-02
-2.547915652394294739e-02
2.278492227196693420e-02
4.709178954362869263e-02
-4.475841298699378967e-03
-4.635544493794441223e-03
-5.771334748715162277e-03
-5.728518590331077576e-03
-8.779278956353664398e-03
-2.857278846204280853e-02
-1.759023219347000122e-02
1.914900913834571838e-02
-6.266530137509107590e-03
-3.537311404943466187e-02
-7.716719410382211208e-04
-1.710675843060016632e-02
2.197294961661100388e-03
-1.086466666311025620e-02
-3.386942669749259949e-02
-1.836541108787059784e-02
-1.076109241694211960e-02
-4.351854696869850159e-02
-6.305556744337081909e-02
-1.190674025565385818e-02
-2.060471102595329285e-02
3.702281042933464050e-02
1.203901246190071106e-01
-4.408442601561546326e-02
-2.942726574838161469e-02
8.228489011526107788e-02
-2.841038629412651062e-02
-2.286201901733875275e-02
-9.957063011825084686e-03
-1.802884601056575775e-02
-2.384082600474357605e-02
-5.931368842720985413e-02
-2.064329944550991058e-02
-2.484345808625221252e-02
2.834646776318550110e-02
6.585860159248113632e-03
-1.825168728828430176e-02
-3.045499511063098907e-02
-3.415484726428985596e-02
-9.376047179102897644e-03
4.972527176141738892e-02
-1.234344672411680222e-02
-2.310159057378768921e-02
-3.613915666937828064e-02
-2.009098418056964874e-02
-4.140220209956169128e-02
8.931695483624935150e-03
6.008994579315185547e-02
-1.768126338720321655e-02
6.331187672913074493e-03
-9.858023375272750854e-03
-1.804214529693126678e-02
