[[[[-0.13899551 -0.00187263 -0.08156614]
   [ 0.02385726  0.14923239 -0.07009862]
   [ 0.21189371  0.17659296  0.20590356]]]


 [[[-0.07956764 -0.10930155 -0.1155116 ]
   [ 0.01952285  0.00463958  0.05463098]
   [-0.00624814 -0.0740876  -0.08987198]]]


 [[[ 0.02368621  0.07576424  0.00536581]
   [ 0.12594023 -0.04538835 -0.18260044]
   [-0.1594009  -0.09276371  0.1410773 ]]]


 [[[ 0.1663666  -0.07310384  0.01459387]
   [-0.1028398  -0.0880783  -0.08082912]
   [-0.13660374  0.13513635  0.18185498]]]


 [[[ 0.07422931 -0.13117109 -0.12425402]
   [ 0.04743855  0.04230376 -0.21359342]
   [ 0.20004775  0.19963543 -0.1201542 ]]]


 [[[ 0.17777945  0.1312135  -0.03070835]
   [ 0.02138539  0.08770894  0.16022278]
   [-0.0391078   0.04494184 -0.07106885]]]


 [[[ 0.02095458  0.22542807  0.16402909]
   [ 0.10484247 -0.00295103  0.15284109]
   [ 0.1396017   0.18616875  0.05362276]]]


 [[[ 0.15943715  0.18359832 -0.07594848]
   [ 0.0130294  -0.08391499  0.04378653]
   [ 0.13358518 -0.0227895   0.04067899]]]


 [[[ 0.08313036  0.02205856 -0.04053217]
   [ 0.19305678  0.16015247  0.00070267]
   [ 0.22685452  0.21855892  0.11430208]]]


 [[[ 0.07706002  0.1341967   0.11938345]
   [ 0.00994406 -0.00914509 -0.02542464]
   [-0.0010918  -0.16998287 -0.12845728]]]


 [[[-0.0163733   0.12233148  0.19339319]
   [ 0.16325209  0.25234836  0.07289451]
   [ 0.15091585  0.0199927   0.04895201]]]


 [[[ 0.15793927 -0.01127107  0.12606171]
   [ 0.11408433  0.11120048 -0.04006034]
   [ 0.118526   -0.07701021 -0.04310846]]]


 [[[ 0.20763832 -0.02436233 -0.0556191 ]
   [-0.09199665  0.05166427 -0.05132383]
   [-0.13099113 -0.12319916 -0.13920455]]]


 [[[ 0.17732134 -0.10550869 -0.01930122]
   [-0.00556778 -0.04166544 -0.02210688]
   [ 0.1920309  -0.00360394 -0.19654055]]]


 [[[-0.11120081 -0.1372586   0.14825796]
   [-0.17127326  0.00936157 -0.02423391]
   [ 0.01574891 -0.01643638  0.14140862]]]


 [[[-0.03383605  0.12749755  0.17400153]
   [ 0.03684646  0.10430243  0.20063344]
   [ 0.03873534  0.19944863 -0.02661261]]]


 [[[-0.06272076  0.06382918 -0.13249604]
   [-0.04957019 -0.01016106 -0.0495574 ]
   [-0.07122081  0.04868115  0.17087561]]]


 [[[-0.11280645 -0.00591145 -0.0041613 ]
   [-0.15938881  0.02247891  0.20213266]
   [-0.01437697  0.1419351   0.15735207]]]


 [[[-0.02862564  0.03993879 -0.06043822]
   [ 0.23948006 -0.11048879 -0.08193434]
   [ 0.11628822 -0.0582933  -0.13873538]]]


 [[[ 0.04886295  0.15378313  0.11302003]
   [ 0.15243018 -0.0780197  -0.01848616]
   [ 0.02629995 -0.10414745 -0.0996258 ]]]


 [[[ 0.0078664  -0.1587368  -0.04482336]
   [ 0.03036831 -0.11314773  0.07566461]
   [-0.17823254  0.12144734  0.05173357]]]


 [[[-0.05450012  0.20353591  0.15908626]
   [-0.060314    0.02900095 -0.09390014]
   [-0.13357842 -0.02500373 -0.07829887]]]


 [[[ 0.18308994  0.18613735  0.05532065]
   [-0.07012538 -0.0149023  -0.00567112]
   [-0.07914273 -0.14103357 -0.11564142]]]


 [[[ 0.19003186  0.25000942  0.03272291]
   [-0.03365673 -0.00361068 -0.05657963]
   [-0.06442653 -0.18451098 -0.13053165]]]


 [[[-0.01316137 -0.20502327  0.01402325]
   [-0.033849   -0.09128623 -0.09115752]
   [ 0.02491893  0.05945254  0.22941422]]]


 [[[-0.00855542  0.09104544  0.14245324]
   [-0.11326242 -0.04963673  0.06943699]
   [-0.25025073 -0.06988063 -0.02997824]]]


 [[[-0.04019337 -0.12665968  0.0101014 ]
   [ 0.13106067 -0.12571803 -0.03099814]
   [ 0.18501703  0.12089792 -0.0038155 ]]]


 [[[-0.00867652 -0.20788114 -0.06532802]
   [-0.00850893 -0.07125396  0.01509574]
   [ 0.19866899  0.04996972  0.07856562]]]


 [[[ 0.01154429  0.22454777  0.09535348]
   [-0.02399401  0.00604034 -0.11458765]
   [ 0.01436819 -0.20081085 -0.10607211]]]


 [[[-0.0160683  -0.03802661 -0.00573145]
   [-0.19109087  0.06905804  0.17671727]
   [-0.18774581 -0.0089885   0.18046032]]]


 [[[ 0.12815984 -0.07100338 -0.14762779]
   [-0.09768512  0.08213039  0.02381359]
   [-0.08567941 -0.07916412 -0.17362322]]]


 [[[ 0.05787388 -0.07849545  0.22415957]
   [ 0.1460222  -0.08829748 -0.05937951]
   [-0.18109226 -0.0444729  -0.0334251 ]]]]