[[[[ 0.06145582 -0.13946238  0.03811531]
   [ 0.03429213  0.00455762  0.13841294]
   [-0.07022891 -0.02882069 -0.01711402]]

  [[ 0.01056671 -0.02618184 -0.05518398]
   [ 0.01602739  0.03510789  0.02669007]
   [ 0.02209542 -0.04922545  0.07434314]]

  [[ 0.02984897  0.02570758  0.13977543]
   [-0.03000324  0.15959461 -0.00024242]
   [ 0.07922845 -0.0426253  -0.00388756]]

  ...

  [[-0.11566659  0.00536471  0.15940906]
   [-0.08960483  0.09182805  0.12225214]
   [-0.00035059  0.12466737  0.08753809]]

  [[-0.03163933  0.07193097 -0.07636765]
   [-0.06146576  0.03086573 -0.02818682]
   [ 0.03634401  0.10627173  0.00066453]]

  [[-0.1267302   0.00320477  0.10069382]
   [-0.02708045  0.08661127  0.0999027 ]
   [-0.03839185  0.12049603 -0.00146685]]]


 [[[ 0.01754329 -0.09759223 -0.12089492]
   [ 0.07847556  0.0707873   0.01545376]
   [ 0.09267224  0.05392455 -0.0223108 ]]

  [[-0.07134999 -0.02458897 -0.0291682 ]
   [-0.07698701 -0.00225319  0.03953569]
   [ 0.00832482 -0.07921942  0.05932581]]

  [[-0.01527932 -0.08809179 -0.02553329]
   [-0.04102676 -0.02823276 -0.05148825]
   [-0.07251593  0.04804669 -0.0439526 ]]

  ...

  [[ 0.01749076 -0.02186536 -0.10019122]
   [ 0.05686096 -0.08520033  0.05592542]
   [ 0.11619635  0.0577785  -0.01561575]]

  [[-0.13308316  0.10233588  0.02400003]
   [-0.15391232 -0.04496437  0.06850431]
   [-0.07643815  0.00402402  0.04128995]]

  [[-0.07938627 -0.02405612  0.07473151]
   [-0.13267936 -0.06684317 -0.04638521]
   [-0.06911179  0.05645888  0.10270933]]]


 [[[ 0.03391829  0.10204131  0.00526668]
   [-0.04844029  0.00100335  0.07521461]
   [-0.06032279 -0.02174076 -0.02550524]]

  [[-0.00756959 -0.08971351 -0.08599856]
   [ 0.08649836  0.05379057 -0.0107767 ]
   [-0.03076729  0.03554681  0.02649113]]

  [[ 0.09213515  0.02463495  0.02437669]
   [-0.01847401 -0.0995161  -0.05485831]
   [-0.1120747  -0.07167949 -0.10836615]]

  ...

  [[ 0.05080406  0.03394819  0.06359062]
   [ 0.01841949  0.09221545 -0.07992789]
   [ 0.05969    -0.10793733 -0.03847197]]

  [[ 0.01376946 -0.02777397 -0.07928139]
   [ 0.00036991  0.04005655 -0.05122656]
   [-0.07467736 -0.05332316 -0.10050621]]

  [[-0.07682451  0.03730076 -0.09663792]
   [-0.06470633 -0.08340088 -0.06239472]
   [-0.08768222 -0.15188141 -0.01216887]]]


 ...


 [[[-0.00561424  0.00359901  0.14159639]
   [-0.01410146  0.00655601  0.01644412]
   [-0.05034133 -0.01237821 -0.03144233]]

  [[ 0.01993132 -0.04591477  0.02827603]
   [ 0.08109931 -0.04242212 -0.02460747]
   [ 0.07474425  0.08813359  0.00404945]]

  [[-0.08824871  0.02309095  0.07296766]
   [ 0.02346676  0.06658556  0.06716931]
   [ 0.04339949  0.04542912  0.03954394]]

  ...

  [[-0.09013565  0.10912994  0.05675308]
   [ 0.05596715  0.10044329  0.15756509]
   [ 0.13829114  0.14578374  0.11371827]]

  [[-0.0518968   0.02296202 -0.02745865]
   [ 0.0756933  -0.05373679 -0.10840035]
   [ 0.03657111  0.00368023 -0.11443211]]

  [[ 0.12693226  0.06467254 -0.02270188]
   [ 0.0079995   0.10980369  0.09235379]
   [-0.06391988  0.01934349  0.00916864]]]


 [[[-0.02598932 -0.01440878 -0.02403882]
   [-0.06447598 -0.01893391  0.02226771]
   [ 0.01211789 -0.05517028  0.06422377]]

  [[ 0.02032737  0.06066509 -0.00672597]
   [-0.05702798 -0.07629815  0.05906015]
   [-0.04562249  0.07709541 -0.06935851]]

  [[-0.04521172  0.04194706 -0.03198444]
   [-0.01072038  0.13424131  0.07781009]
   [ 0.08340525  0.01764297 -0.06134285]]

  ...

  [[ 0.02693569  0.01292809  0.04958064]
   [-0.14305392  0.05227079  0.04402383]
   [-0.06647258 -0.04351003  0.10468005]]

  [[-0.18438357 -0.14822021 -0.09324066]
   [ 0.0420135   0.00842098  0.04857819]
   [ 0.16561465 -0.02360889 -0.07158401]]

  [[ 0.07317142 -0.04826903 -0.01885024]
   [ 0.02460377  0.04843033  0.14085163]
   [ 0.0563495   0.01534927 -0.00092956]]]


 [[[ 0.07932235  0.04027013  0.0726283 ]
   [ 0.03738438  0.05210093  0.10338233]
   [ 0.00597754 -0.01825198  0.08447815]]

  [[-0.01650445  0.06722821 -0.0172772 ]
   [-0.02020386  0.0482096  -0.02535664]
   [-0.05694058 -0.07272779 -0.0050039 ]]

  [[ 0.01136995  0.05630396 -0.00399674]
   [-0.0014545   0.05087938 -0.1364402 ]
   [-0.09696516 -0.03514387 -0.0739262 ]]

  ...

  [[-0.02527796 -0.08444586  0.02135365]
   [ 0.02850877 -0.07645801 -0.03309078]
   [-0.00309954 -0.02624273  0.02570326]]

  [[ 0.03517014  0.01768601 -0.05542061]
   [-0.05327919 -0.0560706  -0.13092825]
   [-0.0805627  -0.10909356 -0.05374888]]

  [[-0.05479027  0.03644531 -0.01839322]
   [-0.01309962 -0.1175622  -0.07926629]
   [-0.02037374 -0.08136205 -0.00349468]]]]