[[[[-0.03958803  0.1516457   0.02031215]
   [-0.02113958  0.06230211  0.07221283]
   [-0.02450812  0.10043509 -0.05160818]]

  [[-0.07013679  0.09379567  0.01370603]
   [ 0.05050015  0.01084885  0.02358253]
   [ 0.02146549 -0.0062083   0.03173757]]

  [[ 0.00089613 -0.05339127 -0.00530784]
   [-0.09587968 -0.08048832 -0.01023616]
   [ 0.06749547 -0.0181222   0.00667618]]

  ...

  [[-0.04554024  0.03271354  0.09837254]
   [ 0.04845393  0.04073582 -0.00656004]
   [ 0.01267516 -0.0919322  -0.03777824]]

  [[ 0.05257372 -0.02509704  0.07380772]
   [-0.00921415 -0.10782316  0.08368859]
   [ 0.01687551  0.02039925  0.10567699]]

  [[-0.03166319 -0.04332596 -0.06575441]
   [ 0.10035136  0.00733731  0.01425486]
   [-0.0333348   0.08269073 -0.05074689]]]


 [[[-0.00431498  0.05013367 -0.01090006]
   [ 0.02168407 -0.04212569 -0.00599911]
   [ 0.00285724 -0.09467098 -0.05465573]]

  [[ 0.06554245  0.06825624  0.12385309]
   [ 0.06511265  0.14754727  0.01621284]
   [ 0.07294348  0.14478384  0.01073149]]

  [[ 0.05685714  0.00566179 -0.0661419 ]
   [ 0.04885729 -0.00796265 -0.06764574]
   [ 0.19339825  0.10904609  0.05793169]]

  ...

  [[-0.11784516 -0.00683677  0.04825404]
   [-0.02361589 -0.07706784  0.05594771]
   [ 0.04842595  0.02304082 -0.0606152 ]]

  [[ 0.05792359  0.01313277 -0.10763004]
   [ 0.07439759  0.18855529  0.0600783 ]
   [ 0.04427228  0.18128677  0.06771018]]

  [[ 0.05410424  0.01336769  0.08343256]
   [ 0.06850982  0.10100757  0.10889284]
   [ 0.05605588  0.16125658  0.08427123]]]


 [[[-0.1219281  -0.07812402  0.05059616]
   [-0.13004017 -0.0303207   0.02728885]
   [-0.17236069 -0.08467937  0.0106604 ]]

  [[-0.06315994  0.0206334   0.01075892]
   [-0.22405396  0.01346157  0.04563138]
   [-0.15920821  0.02562392 -0.05085428]]

  [[ 0.01188796  0.00275177  0.01334137]
   [-0.00247781 -0.1115837  -0.06668148]
   [-0.10579585  0.03724586 -0.04205996]]

  ...

  [[-0.02720273  0.12861368 -0.02837167]
   [-0.00177437  0.01509725 -0.14629437]
   [ 0.04839587  0.08060185 -0.03654119]]

  [[ 0.02338427 -0.02577416 -0.11491663]
   [-0.03931328  0.0548313  -0.11577304]
   [-0.07596692  0.06119457 -0.01832821]]

  [[-0.0929656  -0.06092971 -0.08050346]
   [-0.11622438 -0.01204899 -0.01740059]
   [-0.19006288  0.06537706  0.08275468]]]


 ...


 [[[ 0.06854624  0.0140155   0.0238927 ]
   [-0.04434122  0.04610513  0.08821853]
   [ 0.12219724  0.07407418 -0.04296171]]

  [[ 0.11960068  0.01503387 -0.02081455]
   [ 0.00410276  0.03997585 -0.11449019]
   [ 0.12195632 -0.11121117 -0.02532397]]

  [[-0.00051297  0.10970082  0.16249186]
   [-0.04509085  0.04789106  0.00661621]
   [ 0.01042852  0.02223395 -0.0272282 ]]

  ...

  [[-0.14425167  0.00499274  0.06861906]
   [-0.00966604  0.03697953  0.00787172]
   [-0.00427711  0.01931705  0.12789415]]

  [[ 0.10294338 -0.11373635  0.12625442]
   [-0.07353155 -0.10395011  0.05607662]
   [-0.08494316 -0.07785816 -0.05612247]]

  [[ 0.08494719 -0.04432322  0.01211734]
   [ 0.11255621 -0.0171562  -0.07117622]
   [-0.01438429  0.03608483 -0.04827213]]]


 [[[ 0.02511152 -0.04423846 -0.05088683]
   [-0.05232354 -0.02995183  0.00354473]
   [-0.05410109 -0.03020137  0.0367616 ]]

  [[-0.01996159  0.04099466  0.03761767]
   [ 0.04280951  0.03004065 -0.07518478]
   [-0.04975956 -0.01908113 -0.04635281]]

  [[ 0.0194717  -0.01878639 -0.05126921]
   [-0.01945422  0.00354577 -0.08315861]
   [-0.08512258 -0.02353955 -0.06147085]]

  ...

  [[-0.03818593 -0.08070654 -0.03183593]
   [ 0.05763448  0.00488508 -0.00611771]
   [-0.08645394 -0.00820725 -0.00651583]]

  [[-0.06417403  0.07395891 -0.07078942]
   [ 0.03573565 -0.04293869  0.02245423]
   [ 0.03322259  0.00129419 -0.00164987]]

  [[ 0.04367345 -0.00796533 -0.01907346]
   [-0.04232525 -0.0659052  -0.05889351]
   [ 0.04755558 -0.00884929  0.0429072 ]]]


 [[[ 0.04727361  0.0108084  -0.04130523]
   [ 0.07203899 -0.00727067 -0.06536889]
   [-0.0847196   0.06809599  0.01484443]]

  [[ 0.04631225  0.05949217  0.08036269]
   [ 0.05521423 -0.08454187  0.05928839]
   [-0.00201754  0.0295721   0.0438848 ]]

  [[-0.01467278 -0.04414071  0.02557731]
   [-0.02107807 -0.02214158  0.03669631]
   [ 0.06295318 -0.0912968  -0.03752457]]

  ...

  [[-0.06478635 -0.00471023 -0.07328704]
   [-0.03454188 -0.05905517 -0.07796799]
   [ 0.03675036  0.0591767  -0.03834295]]

  [[-0.03766564 -0.05588535 -0.03308786]
   [-0.0764451   0.0084469  -0.03287253]
   [ 0.01500977 -0.00578105 -0.04923816]]

  [[-0.08198545 -0.08808292 -0.00778197]
   [-0.03963363  0.037298    0.04539048]
   [-0.04097737 -0.03701989 -0.04910814]]]]