9.563444182276725769e-03
-1.820319741964340210e-01
-1.049489900469779968e-01
-3.127892035990953445e-03
-9.836614131927490234e-02
-8.845228701829910278e-02
1.095757260918617249e-01
-9.011265821754932404e-03
1.599131710827350616e-02
1.522883623838424683e-01
1.665822118520736694e-01
-1.726232916116714478e-01
4.823150113224983215e-03
2.705452591180801392e-02
-9.952851384878158569e-02
1.831329427659511566e-02
1.574834436178207397e-02
-1.075157150626182556e-01
7.774021476507186890e-02
-1.307342052459716797e-01
4.723571240901947021e-02
1.612039655447006226e-01
-1.019118726253509521e-01
3.792329132556915283e-02
1.385623961687088013e-01
6.213063001632690430e-02
-9.851496666669845581e-02
1.288213431835174561e-01
1.404800415039062500e-01
2.180612683296203613e-01
-5.224004387855529785e-02
1.638170480728149414e-01
1.706252247095108032e-01
1.759445071220397949e-01
7.745146285742521286e-03
5.881345644593238831e-02
-1.729718595743179321e-01
1.444391310214996338e-01
-7.422601431608200073e-02
-1.307244598865509033e-01
1.213083416223526001e-02
5.912042409181594849e-02
-2.033071815967559814e-01
1.944790929555892944e-01
8.267101645469665527e-02
5.177278444170951843e-02
-2.740126289427280426e-02
4.372550547122955322e-02
1.705977618694305420e-01
1.505402624607086182e-01
4.957038909196853638e-02
2.063153684139251709e-01
2.216401249170303345e-01
5.348376184701919556e-02
-1.204458847641944885e-01
-3.455032408237457275e-02
-1.298082061111927032e-04
-1.827651262283325195e-01
-1.037947759032249451e-01
1.723708063364028931e-01
-7.951090484857559204e-02
3.740508481860160828e-02
2.443059980869293213e-01
-2.175420373678207397e-01
-9.591056965291500092e-03
-7.939959317445755005e-02
-6.382595747709274292e-02
-7.852102862671017647e-04
5.636976286768913269e-02
-3.854691982269287109e-02
3.635905310511589050e-02
1.207178682088851929e-01
3.831514343619346619e-02
-1.733448542654514313e-02
-1.561694145202636719e-01
5.737314000725746155e-02
8.395043550990521908e-04
-1.375299394130706787e-01
1.967161148786544800e-01
2.379391193389892578e-01
1.343256980180740356e-01
-1.998950690031051636e-01
5.897956714034080505e-02
-2.493223361670970917e-02
-1.627623736858367920e-01
-6.157403066754341125e-02
-6.551541388034820557e-02
-3.947950899600982666e-02
1.741410195827484131e-01
2.402440756559371948e-01
4.751874133944511414e-02
-3.730567917227745056e-02
1.451631635427474976e-02
7.557950168848037720e-02
1.570856869220733643e-01
1.668087244033813477e-01
1.595851778984069824e-01
1.857434064149856567e-01
3.559260070323944092e-02
-5.362783744931221008e-02
-9.229143708944320679e-02
-2.307146042585372925e-01
1.733123660087585449e-01
-8.563122898340225220e-02
-6.213262677192687988e-02
1.861399412155151367e-01
3.327265009284019470e-02
5.422675982117652893e-02
-1.016904711723327637e-01
1.605579406023025513e-01
9.000745415687561035e-02
-9.809203445911407471e-02
-5.446283891797065735e-02
-7.739873230457305908e-02
8.300410956144332886e-02
-9.550426900386810303e-02
7.857743650674819946e-02
7.918131351470947266e-02
-1.365658342838287354e-01
5.876906961202621460e-02
-1.437833458185195923e-01
-1.315338909626007080e-01
-1.490021795034408569e-01
7.799042761325836182e-02
2.899811230599880219e-02
1.770944446325302124e-01
-7.521840743720531464e-03
-2.983104623854160309e-02
1.711638569831848145e-01
-1.440317332744598389e-01
1.298900544643402100e-01
-1.157184597104787827e-02
1.159993186593055725e-01
1.509538590908050537e-01
2.128011137247085571e-01
-1.259080171585083008e-01
-4.771761968731880188e-02
3.428708761930465698e-02
-5.990667268633842468e-02
-9.721878170967102051e-02
1.356915086507797241e-01
-1.479132566601037979e-02
-3.831977397203445435e-02
1.439917981624603271e-01
2.184098772704601288e-02
4.110508412122726440e-02
-2.441200427711009979e-02
1.458721905946731567e-01
1.252262890338897705e-01
1.926177442073822021e-01
2.815103717148303986e-02
1.597422361373901367e-02
7.493487745523452759e-02
-8.663249015808105469e-02
-1.065636649727821350e-01
1.604698896408081055e-01
-9.693563729524612427e-02
9.719170629978179932e-02
5.830001085996627808e-03
-1.431507617235183716e-01
-4.096518829464912415e-02
1.828843802213668823e-01
1.121255569159984589e-02
1.575474143028259277e-01
2.400610446929931641e-01
-1.283126622438430786e-01
-6.894762068986892700e-02
9.920836240053176880e-02
-1.821257323026657104e-01
-1.485183835029602051e-01
-3.482774645090103149e-02
-8.358313888311386108e-02
1.837198585271835327e-01
4.587013274431228638e-02
-2.335724532604217529e-01
4.158644471317529678e-03
2.002264559268951416e-01
-6.623265892267227173e-02
-1.450366573408246040e-03
-7.284826040267944336e-02
6.043624877929687500e-02
-4.018531367182731628e-02
-6.149477139115333557e-02
1.284443289041519165e-01
1.377214640378952026e-01
1.081759110093116760e-01
1.941753178834915161e-01
1.348095238208770752e-01
-6.150705739855766296e-02
-6.541985087096691132e-03
2.029164321720600128e-02
-7.592616975307464600e-02
9.511203318834304810e-02
3.419959172606468201e-02
1.850939095020294189e-01
6.675586104393005371e-02
6.715743988752365112e-02
-1.145534366369247437e-01
1.506706932559609413e-03
1.774474382400512695e-01
1.846970319747924805e-01
-1.210084371268749237e-02
1.739163696765899658e-01
-9.470652043819427490e-02
8.319017291069030762e-02
2.342937514185905457e-02
-5.144034046679735184e-03
1.674932986497879028e-01
-3.644193708896636963e-02
1.345755755901336670e-01
1.544159948825836182e-01
1.641358062624931335e-02
-4.636653512716293335e-02
-1.418098658323287964e-01
-1.944021284580230713e-01
-4.734642803668975830e-02
2.997327037155628204e-02
7.030554860830307007e-02
-2.127029746770858765e-02
1.994840428233146667e-02
5.425629764795303345e-02
2.285385578870773315e-01
6.626407802104949951e-02
1.655609607696533203e-01
1.557035446166992188e-01
1.931503415107727051e-01
5.661290884017944336e-02
1.117995530366897583e-01
1.111244484782218933e-01
-1.089834272861480713e-01
-1.722411960363388062e-01
7.999756187200546265e-02
-1.150554865598678589e-01
-1.533308327198028564e-01
8.151561021804809570e-02
3.958025947213172913e-02
6.448058411478996277e-03
1.995133906602859497e-01
6.978481262922286987e-02
4.233120381832122803e-02
1.962330937385559082e-01
5.256009846925735474e-02
4.704499617218971252e-02
4.459771886467933655e-02
6.390279531478881836e-02
9.042063355445861816e-02
-9.376535192131996155e-03
-1.297401729971170425e-02
1.813602000474929810e-01
4.807792603969573975e-03
1.765040606260299683e-01
1.936145126819610596e-01
2.347000390291213989e-01
1.993767321109771729e-01
-8.480867743492126465e-02
2.128327824175357819e-02
2.714062295854091644e-02
-1.424674540758132935e-01
-1.559580415487289429e-01
-1.816044151782989502e-01
-1.584104448556900024e-01
-1.391134262084960938e-01
-9.281434118747711182e-02
1.890255021862685680e-03
-1.722686141729354858e-01
-9.636101871728897095e-02
1.728140413761138916e-01
6.013184040784835815e-02
-2.350858412683010101e-02
1.332073807716369629e-01
6.576700508594512939e-02
1.687278598546981812e-01
1.884327083826065063e-01
1.962701976299285889e-01
1.962732374668121338e-01
1.589930057525634766e-01
-6.076196208596229553e-02
1.624467670917510986e-01
-8.777257055044174194e-03
1.279895938932895660e-02
3.007463179528713226e-02
3.814014419913291931e-02
1.919543743133544922e-01
-1.214909702539443970e-01
-1.293773651123046875e-01
7.440371066331863403e-02
9.602800756692886353e-02
-1.920989304780960083e-01
