[[[[-0.06648619 -0.06071125 -0.00270282 ...  0.01025927  0.06081112
    -0.01277892]
   [-0.05340643  0.01461301  0.06612345 ... -0.04391395  0.05320963
    -0.03941828]
   [ 0.03411974  0.06234228  0.12653995 ...  0.01229275 -0.00822147
    -0.02835107]
   ...
   [-0.0281606   0.08692434  0.03986296 ... -0.06262866  0.03418276
     0.05160593]
   [ 0.06528864 -0.00281349  0.00854876 ... -0.06457441  0.02238655
     0.02815645]
   [ 0.00767314  0.03233797  0.08452468 ...  0.0632254  -0.05089057
     0.07116277]]

  [[ 0.03771964  0.07753237  0.03726305 ...  0.06729154  0.06841107
    -0.05432   ]
   [-0.0541553  -0.07116848 -0.10805944 ... -0.0401924   0.05854988
     0.07529014]
   [-0.01572157  0.07188993  0.1307354  ...  0.02420735 -0.05115813
    -0.13299468]
   ...
   [-0.06145943 -0.12281439  0.02237313 ... -0.07469743  0.05800545
     0.04575122]
   [-0.02811692  0.05239178 -0.04910804 ... -0.03655484 -0.10532999
     0.026661  ]
   [ 0.0549361  -0.12587279 -0.01219443 ...  0.00441757 -0.07119147
     0.11247479]]

  [[ 0.03335295  0.0310945  -0.04085575 ... -0.07787513 -0.00530794
    -0.05344782]
   [ 0.06845824  0.03017493 -0.09761521 ... -0.08683698 -0.05211865
     0.13286422]
   [-0.06970938  0.02228028 -0.01552476 ... -0.00068527  0.06754754
    -0.08064129]
   ...
   [ 0.06061215  0.01316536 -0.15431835 ... -0.0310722  -0.06005752
     0.02455921]
   [-0.04068704  0.05984199 -0.14898086 ... -0.04857786 -0.07576051
     0.04812983]
   [ 0.04629993 -0.098699   -0.10930315 ... -0.07888138  0.07084986
     0.01323676]]]


 [[[-0.03343057 -0.01266275 -0.0568562  ... -0.04095675  0.03995647
    -0.04422164]
   [ 0.00084494  0.02482868  0.01004775 ...  0.01721953 -0.00166255
    -0.15907168]
   [ 0.00969899 -0.01279998  0.12746799 ...  0.02945679  0.06985854
    -0.07151991]
   ...
   [-0.05971814 -0.02870218 -0.04844659 ...  0.04093118  0.03907155
     0.03088102]
   [-0.02973315  0.02670608  0.07380246 ... -0.03647445 -0.10413816
    -0.13744941]
   [-0.04536506 -0.02583685 -0.02437225 ... -0.0785678   0.0215935
     0.00286013]]

  [[-0.06458443 -0.03468604 -0.01488483 ... -0.01062306 -0.06781258
     0.02449529]
   [ 0.03756079 -0.03693346 -0.01542002 ... -0.02429522 -0.06596247
    -0.02656955]
   [-0.01250724 -0.03353336  0.01793596 ...  0.07674862  0.0295559
    -0.06228923]
   ...
   [ 0.01731947 -0.06938738  0.01841    ... -0.05812711 -0.04758507
    -0.06294269]
   [-0.09893572  0.03958145 -0.04588221 ... -0.00456241 -0.07929352
    -0.00132979]
   [ 0.05804813 -0.05903563 -0.06310165 ...  0.00073995 -0.03611029
     0.00648147]]

  [[ 0.01066012  0.03760168  0.05075154 ...  0.064114    0.07641258
    -0.04769139]
   [ 0.00515653  0.04642029 -0.09495632 ... -0.07736451 -0.03993632
    -0.07776768]
   [ 0.00958128 -0.07079443  0.04754737 ... -0.05858216 -0.01922012
    -0.05587416]
   ...
   [ 0.01299389  0.07127934 -0.16531926 ... -0.02156438 -0.04246627
    -0.05607098]
   [-0.06788218 -0.04320212 -0.04103878 ... -0.07900907  0.0351672
    -0.09082075]
   [ 0.06159318  0.06545521 -0.07534495 ... -0.02693548 -0.04798129
     0.05569098]]]


 [[[-0.0075535   0.06853075 -0.03428629 ... -0.04816505 -0.01737682
    -0.01665184]
   [-0.04529756 -0.09584592 -0.00793238 ...  0.05825064 -0.00246583
    -0.00816887]
   [-0.00222266 -0.00208654  0.09554947 ...  0.04030368 -0.09129182
    -0.09574752]
   ...
   [ 0.02086574 -0.05760967  0.00893599 ...  0.03311076 -0.04808736
    -0.04394796]
   [-0.03848555  0.1092599   0.06952891 ...  0.02694264 -0.11166819
    -0.02917133]
   [ 0.05762682 -0.15320967  0.02080052 ...  0.06498399  0.01995352
    -0.00361182]]

  [[-0.00638053  0.06604044  0.0075308  ...  0.01866468 -0.00245001
    -0.01065533]
   [ 0.02230209 -0.03942339  0.03564669 ... -0.06190201 -0.11608421
    -0.04960141]
   [ 0.05264457 -0.05754635 -0.0962716  ... -0.0728073   0.04099731
     0.05793312]
   ...
   [-0.06814183 -0.08915637  0.00716524 ...  0.04662701 -0.0565035
    -0.0591117 ]
   [-0.0242436   0.08334376  0.13149208 ... -0.04671526  0.03363069
     0.10545312]
   [ 0.04977577 -0.06930255  0.01079141 ... -0.03789015 -0.02834835
    -0.18271759]]

  [[ 0.02393333  0.00110117  0.0009929  ...  0.00748901 -0.03406222
     0.01077352]
   [ 0.03703807 -0.03444468  0.12760805 ... -0.00922538 -0.07606697
    -0.03097666]
   [ 0.04496309 -0.02099846 -0.04841613 ... -0.06020793 -0.01608972
    -0.0066223 ]
   ...
   [ 0.05380367  0.04089293  0.04125842 ... -0.06377796 -0.08070849
     0.05550074]
   [ 0.03065797  0.07099364  0.06051636 ...  0.03424001 -0.02640563
     0.04733118]
   [-0.00381004 -0.0423445   0.05580036 ... -0.04650544 -0.00033237
    -0.08191383]]]]