-2.868267707526683807e-02
-2.600605227053165436e-02
6.049697985872626305e-04
1.250233594328165054e-02
-6.100792437791824341e-02
-2.376615628600120544e-02
1.245653111254796386e-04
1.056984346359968185e-02
1.032299734652042389e-02
3.960260748863220215e-02
1.834384351968765259e-02
-8.259506896138191223e-03
5.118072032928466797e-02
-3.638583794236183167e-02
3.447835892438888550e-02
-1.354541257023811340e-02
-1.114049702882766724e-01
-7.182372361421585083e-02
-1.597591675817966461e-02
3.804702311754226685e-02
3.884619846940040588e-02
-1.575321657583117485e-03
6.437453627586364746e-02
2.158426865935325623e-02
4.160590469837188721e-02
-5.855070427060127258e-02
5.861666798591613770e-02
3.445850312709808350e-02
8.334373682737350464e-02
-4.057464003562927246e-02
-3.655313327908515930e-02
4.109990224242210388e-02
1.152106793597340584e-03
2.477376721799373627e-02
3.540139272809028625e-02
2.949501946568489075e-02
-7.131118327379226685e-02
-5.014186725020408630e-02
-2.413327619433403015e-02
-1.919765956699848175e-02
-3.562190011143684387e-02
6.270307302474975586e-02
2.827341668307781219e-02
-4.040659219026565552e-02
-6.982687860727310181e-02
-9.466047585010528564e-02
1.833639107644557953e-02
-1.022876948118209839e-01
-4.676866158843040466e-02
-3.882985189557075500e-02
-4.436834529042243958e-02
-4.672190174460411072e-02
-3.860930353403091431e-02
-3.015247918665409088e-02
-3.078986890614032745e-02
3.590963408350944519e-02
-3.460123017430305481e-02
-4.712576046586036682e-03
2.921591326594352722e-02
-3.099290095269680023e-02
-1.272295974195003510e-02
8.123686164617538452e-02
5.334210000000894070e-04
-7.927015423774719238e-02
2.390987426042556763e-02
4.823361709713935852e-02
2.165496163070201874e-02
-2.474494278430938721e-02
-7.913167774677276611e-02
2.766990661621093750e-02
-4.422545060515403748e-02
-6.267351657152175903e-02
-1.141013205051422119e-01
6.445106863975524902e-02
-3.588968887925148010e-02
-4.448983818292617798e-02
-5.082049965858459473e-02
4.961817339062690735e-02
-3.011731605511158705e-04
-5.175824277102947235e-03
-3.652805089950561523e-02
-1.435602009296417236e-01
-4.885052796453237534e-03
1.434385124593973160e-02
7.118599116802215576e-02
-1.568390056490898132e-02
-4.884886741638183594e-02
1.175149576738476753e-03
1.626178994774818420e-02
-5.621658638119697571e-02
-9.546540677547454834e-03
-4.579465836286544800e-02
4.548211768269538879e-02
4.714631289243698120e-02
5.763722583651542664e-02
5.367653444409370422e-02
6.109609454870223999e-02
2.735318616032600403e-02
3.118873201310634613e-02
4.205153882503509521e-02
3.645844757556915283e-02
-7.485648989677429199e-02
-6.982026994228363037e-02
-2.429100871086120605e-02
3.953319042921066284e-02
6.110352650284767151e-02
-4.377169907093048096e-02
3.710325434803962708e-02
9.788135997951030731e-03
-8.504032343626022339e-02
-4.573290422558784485e-02
-1.039277687668800354e-01
1.926979236304759979e-02
-3.922876715660095215e-02
2.481725253164768219e-02
5.158597603440284729e-02
-5.736995860934257507e-02
3.922400623559951782e-02
3.754766890779137611e-03
-6.810940802097320557e-02
3.743240376934409142e-03
-1.990393921732902527e-02
1.902649644762277603e-03
-7.316860835999250412e-03
-8.989880792796611786e-03
6.462095677852630615e-02
-3.304284065961837769e-02
5.509329214692115784e-02
9.424256160855293274e-03
-3.776755183935165405e-02
4.395221173763275146e-02
-4.417342320084571838e-02
-9.089999645948410034e-02
-1.479311753064393997e-02
1.087879575788974762e-02
4.511541873216629028e-02
-4.156635329127311707e-02
-7.699790876358747482e-03
4.568505287170410156e-02
5.686293169856071472e-02
-4.007253795862197876e-03
-3.352108225226402283e-02
5.213023349642753601e-02
-4.930717125535011292e-02
-1.121717914938926697e-01
-1.241869628429412842e-01
-4.464520141482353210e-02
-8.733265101909637451e-02
2.411518245935440063e-02
1.839688047766685486e-02
5.627482756972312927e-02
-5.204985663294792175e-02
2.901843748986721039e-02
-1.012291945517063141e-02
-1.036740243434906006e-01
-5.919371172785758972e-02
9.347710013389587402e-02
-3.062690421938896179e-02
6.435907632112503052e-02
-4.186500236392021179e-02
6.635177135467529297e-02
-4.026800394058227539e-02
4.319509956985712051e-03
-5.284289363771677017e-03
-5.659192800521850586e-02
-8.109541982412338257e-02
-7.783796638250350952e-02
1.681174337863922119e-02
2.212508767843246460e-02
2.486947923898696899e-02
-2.816254459321498871e-02
3.093757852911949158e-02
-3.833165019750595093e-02
-4.781362414360046387e-02
-6.038423255085945129e-02
-7.816264033317565918e-02
-2.527920994907617569e-03
2.013592980802059174e-03
-1.428921073675155640e-01
5.701676011085510254e-02
-8.543131500482559204e-02
1.021027751266956329e-02
-1.516170613467693329e-02
-1.113743241876363754e-02
3.020862862467765808e-02
1.438651978969573975e-02
-5.365393310785293579e-02
-7.314237952232360840e-02
3.554331511259078979e-02
2.878203243017196655e-02
-2.346760779619216919e-02
3.685361146926879883e-02
-1.830770075321197510e-02
1.434458326548337936e-02
-7.217402569949626923e-03
4.764608293771743774e-02
-6.019672378897666931e-02
5.063548684120178223e-02
-1.943809725344181061e-02
2.801321446895599365e-02
-4.040857404470443726e-02
-1.483960449695587158e-01
-3.831746429204940796e-02
6.381144374608993530e-02
-5.031312629580497742e-02
1.026919297873973846e-02
4.025714844465255737e-02
-2.352199703454971313e-02
-5.464869365096092224e-02
-9.891718626022338867e-02
4.382419586181640625e-02
-9.513967484235763550e-02
2.351466566324234009e-02
-6.006268039345741272e-02
-4.442689195275306702e-02
-2.059185132384300232e-02
-2.058942988514900208e-02
-5.632197111845016479e-02
-1.686748266220092773e-01
3.254825994372367859e-02
2.053780667483806610e-02
-2.940373308956623077e-02
2.573381364345550537e-02
-1.136472821235656738e-01
-1.292541716247797012e-02
-4.143119975924491882e-02
-3.066628985106945038e-02
5.173631012439727783e-02
3.244668617844581604e-02
-6.219891086220741272e-02
-5.018527060747146606e-02
2.499931678175926208e-02
4.813704267144203186e-02
3.748769313097000122e-02
-3.958607837557792664e-02
-2.681403607130050659e-02
-2.982405945658683777e-02
-7.976439595222473145e-02
-2.991575747728347778e-02
5.247406288981437683e-02
3.306038305163383484e-02
-9.310984611511230469e-02
-1.449281573295593262e-01
6.129406392574310303e-02
-1.152631454169750214e-02
-1.033970061689615250e-02
-5.532334744930267334e-02
-5.740373954176902771e-02
-1.234860271215438843e-01
4.701201245188713074e-02
2.720690704882144928e-02
-1.831996440887451172e-02
-1.252254191786050797e-02
-5.883388966321945190e-02
-4.959397763013839722e-02
-3.592506796121597290e-02
3.328294679522514343e-02
-5.887002218514680862e-03
-1.618076860904693604e-02
-4.702689871191978455e-02
-6.673625856637954712e-02
5.537035316228866577e-02
1.102368719875812531e-02
6.592251360416412354e-02
3.830013051629066467e-02
-1.223539840430021286e-02
5.870037898421287537e-02
8.056217432022094727e-02
1.610403135418891907e-02
-3.566460311412811279e-02
-2.540153823792934418e-02
-5.810772255063056946e-02
-2.577486261725425720e-02
-3.066636621952056885e-02
7.446108758449554443e-02
8.610000833868980408e-03
1.625634916126728058e-02
-6.650364398956298828e-02
8.257438987493515015e-02
9.596008807420730591e-03
2.634660154581069946e-02
5.864092707633972168e-02
-9.407672286033630371e-02
-1.443989668041467667e-02
7.327961176633834839e-02
-3.089070087298750877e-03
-1.361082587391138077e-02
-4.713933542370796204e-02
3.574745357036590576e-02
-1.363807730376720428e-02
-7.118766009807586670e-02
5.554959923028945923e-02
-7.541014999151229858e-02
-1.875725202262401581e-02
-3.403869643807411194e-02
7.264321297407150269e-02
-8.030030876398086548e-03
-5.858555436134338379e-03
2.805909840390086174e-03
-9.995501488447189331e-03
-8.335243910551071167e-04
1.046905945986509323e-02
-2.239817939698696136e-02
-3.435938060283660889e-02
9.340179152786731720e-03
-6.430007982999086380e-03
-9.295674413442611694e-02
2.849271707236766815e-02
-4.039718955755233765e-02
-4.593697935342788696e-02
-7.735037803649902344e-02
-6.003442779183387756e-02
-5.479023791849613190e-03
-3.914981707930564880e-02
-4.146334156394004822e-02
-1.271303743124008179e-01
5.027610436081886292e-02
-4.270479083061218262e-02
4.096201807260513306e-02
-9.620975703001022339e-03
6.372772157192230225e-02
6.127035617828369141e-02
2.070043422281742096e-02
3.586590662598609924e-02
1.449578534811735153e-02
-2.915051067247986794e-03
6.348732113838195801e-02
1.846699789166450500e-02
-6.375336647033691406e-02
-3.584007546305656433e-02
-2.865010872483253479e-02
-8.786232210695743561e-03
1.174495741724967957e-02
3.832172229886054993e-02
-2.204878814518451691e-02
-4.444754496216773987e-02
-9.284720756113529205e-03
-1.062310300767421722e-02
-5.707751493901014328e-03
-7.841254025697708130e-02
2.043394558131694794e-02
1.959455758333206177e-02
1.265778439119458199e-03
-3.183396765962243080e-03
-2.383514866232872009e-02
-1.652847789227962494e-02
1.928545534610748291e-02
4.484079778194427490e-02
-5.989490449428558350e-02
4.511715471744537354e-02
2.708123810589313507e-02
3.441234678030014038e-02
1.702842488884925842e-02
2.837576344609260559e-02
3.281762823462486267e-02
-2.391442656517028809e-02
-4.068766534328460693e-02
-4.468372464179992676e-02
-4.663759842514991760e-02
2.806750312447547913e-02
6.953387707471847534e-02
-3.814988210797309875e-02
-2.291220799088478088e-02
9.226498194038867950e-03
-3.372522816061973572e-02
-6.381270941346883774e-03
-2.286368422210216522e-02
-4.458938166499137878e-02
-5.907747545279562473e-04
3.374191746115684509e-02
1.582450419664382935e-02
1.024572271853685379e-02
-2.241178043186664581e-02
-5.739376693964004517e-02
-8.591165393590927124e-02
-5.484120175242424011e-02
4.765076190233230591e-02
-7.510493160225450993e-04
5.018598865717649460e-03
-9.247897565364837646e-02
2.739896625280380249e-02
-6.304992735385894775e-02
1.280505303293466568e-02
-4.036649316549301147e-02
3.245356678962707520e-02
1.875554397702217102e-02
-4.186638444662094116e-02
2.622575499117374420e-02
-5.977612454444169998e-03
-5.358788743615150452e-02
6.181272864341735840e-02
4.685672000050544739e-02
-6.911645829677581787e-02
-4.395522177219390869e-02
-4.715324193239212036e-02
-4.102851077914237976e-02
1.944562420248985291e-02
-1.125552356243133545e-01
2.688195928931236267e-02
3.248057514429092407e-02
-7.796408608555793762e-03
1.761400885879993439e-02
2.655166015028953552e-02
-4.473116993904113770e-02
6.075300276279449463e-02
3.056932613253593445e-02
-1.175041198730468750e-01
2.270165830850601196e-02
-6.608847528696060181e-02
-1.835544680943712592e-04
-8.643338084220886230e-02
-8.744363673031330109e-03
-1.492278929799795151e-02
6.111890077590942383e-02
-7.939944416284561157e-02
-8.015470951795578003e-02
-9.924287907779216766e-03
-3.662038594484329224e-02
-3.247041255235671997e-02
-1.582972519099712372e-02
-2.726472541689872742e-02
-4.588504880666732788e-02
-2.050830051302909851e-03
-3.694244101643562317e-02
1.640496402978897095e-02
-8.107346296310424805e-02
-6.842133123427629471e-03
4.496761038899421692e-02
-5.210057646036148071e-02
6.072827428579330444e-02
9.201068431138992310e-02
-3.703794628381729126e-02
-4.926511645317077637e-02
-2.603315003216266632e-02
-1.200120057910680771e-02
-7.671406120061874390e-02
4.119356628507375717e-03
-5.585731193423271179e-02
-1.257622893899679184e-02
-9.400158189237117767e-03
-2.643543668091297150e-02
-2.292048744857311249e-02
-5.455734953284263611e-02
-1.491143461316823959e-02
-1.906646229326725006e-02
-3.541731089353561401e-02
-1.227009519934654236e-01
3.575447201728820801e-02
-2.133633382618427277e-02
3.227920085191726685e-02
1.129121240228414536e-02
-7.233845535665750504e-03
-6.163704395294189453e-02
-6.310787517577409744e-03
-5.043000727891921997e-02
-4.324222728610038757e-02
1.483325846493244171e-02
-6.371609121561050415e-02
3.334396705031394958e-02
-1.342561561614274979e-02
-2.937569841742515564e-02
-5.496122874319553375e-03
-1.875684596598148346e-02
-1.127190366387367249e-01
-1.013906002044677734e-01
-1.527768671512603760e-01
5.689441040158271790e-02
-6.569200009107589722e-02
-3.710640221834182739e-02
4.391266405582427979e-02
-3.489415720105171204e-02
6.149997934699058533e-02
-9.674893319606781006e-02
-5.543541535735130310e-02
-9.081054478883743286e-02
-1.039044000208377838e-02
-7.373728603124618530e-02
-1.070424765348434448e-01
-8.621847629547119141e-02
2.994304057210683823e-03
-1.764542050659656525e-02
-7.646662741899490356e-02
3.418201580643653870e-02
-4.637196287512779236e-02
-2.946136333048343658e-02
-2.921142848208546638e-03
-8.727279491722583771e-03
6.099037826061248779e-02
5.122485756874084473e-02
-3.455568850040435791e-02
-1.205548457801342010e-02
-4.871143028140068054e-02
9.307247400283813477e-02
1.921660639345645905e-02
4.506175220012664795e-02
-1.087530329823493958e-02
-4.937016218900680542e-02
-2.899193391203880310e-02
-1.124114394187927246e-01
-1.363804470747709274e-02
7.506263256072998047e-02
-1.665324717760086060e-02
1.255432702600955963e-02
-2.065640315413475037e-02
-1.047587208449840546e-02
5.212179571390151978e-02
1.986593753099441528e-02
4.334384948015213013e-02
-2.147370483726263046e-03
-5.917168781161308289e-02
-2.155360765755176544e-02
-3.191066905856132507e-02
7.554927840828895569e-03
-9.695689193904399872e-03
-6.151631847023963928e-02
-3.433106699958443642e-03
-1.270480155944824219e-01
-3.189945220947265625e-02
-3.603048995137214661e-02
-6.493496894836425781e-02
-1.169517543166875839e-02
-1.161032393574714661e-01
-2.311755903065204620e-02
2.096180245280265808e-02
-4.433803260326385498e-02
-3.315582126379013062e-02
-5.687182769179344177e-03
-5.581464990973472595e-02
-5.157253146171569824e-02
-1.737395375967025757e-01
2.070873044431209564e-02
-1.416206657886505127e-01
8.801507763564586639e-03
-3.195892646908760071e-02
-1.164025366306304932e-01
3.305859863758087158e-02
-1.071967557072639465e-02
-2.592351660132408142e-02
-9.138439595699310303e-02
-3.124275244772434235e-02
-4.389479383826255798e-02
-3.102868609130382538e-02
-2.376814186573028564e-02
-1.031528487801551819e-01
-5.393484607338905334e-02
6.957660894840955734e-03
-5.403065681457519531e-02
-7.335001975297927856e-02
1.913013122975826263e-02
-5.003391951322555542e-02
1.545882318168878555e-02
8.558170497417449951e-02
9.131457656621932983e-03
-3.939830511808395386e-02
6.426232308149337769e-02
-6.655558012425899506e-03
9.266312420368194580e-02
2.798778750002384186e-02
7.643698249012231827e-03
-1.142827607691287994e-02
5.727761238813400269e-02
-1.487057749181985855e-02
-6.700002402067184448e-02
-7.205057889223098755e-02
-3.529798984527587891e-02
-6.861318647861480713e-02
-4.273117519915103912e-03
-6.344375759363174438e-02
-1.055375188589096069e-01
2.270395308732986450e-02
-5.788045004010200500e-02
-6.401192396879196167e-02
-2.195721119642257690e-02
-1.065214350819587708e-01
-6.214936822652816772e-02
3.267677873373031616e-02
1.397461909800767899e-02
-2.648709714412689209e-02
-4.189884290099143982e-02
-9.092819876968860626e-03
-1.593679785728454590e-01
-4.971854016184806824e-02
6.238697096705436707e-02
5.082932300865650177e-03
1.200697943568229675e-01
-9.335450828075408936e-02
1.129527762532234192e-02
3.434811532497406006e-02
5.231264606118202209e-02
-4.124577343463897705e-02
-5.193293094635009766e-02
-6.287927180528640747e-02
-8.452311903238296509e-02
-1.659286022186279297e-01
-4.359650984406471252e-02
-1.207342371344566345e-01
-1.546985469758510590e-02
4.554922226816415787e-03
-3.357470734044909477e-03
1.213173568248748779e-02
-5.335591733455657959e-02
-6.106411665678024292e-02
7.280157413333654404e-03
-6.605172157287597656e-02
-1.525101251900196075e-02
-1.619837433099746704e-01
2.623955532908439636e-02
-3.717972338199615479e-02
-1.489719841629266739e-02
-4.521578922867774963e-02
-8.538041263818740845e-03
-1.489439234137535095e-02
-8.361232280731201172e-02
-2.095846645534038544e-02
-2.054591290652751923e-02
1.050169244408607483e-01
3.769865259528160095e-02
-2.552563883364200592e-02
-5.546780303120613098e-02
9.506259113550186157e-03
1.156237944960594177e-01
-8.313782513141632080e-02
-3.987083211541175842e-02
6.232982128858566284e-02
-3.278448246419429779e-03
7.412151899188756943e-03
-7.155983895063400269e-02
5.515161529183387756e-02
4.669451341032981873e-02
-7.111731171607971191e-02
1.367350295186042786e-02
4.198297858238220215e-02
-3.775584325194358826e-02
8.193257451057434082e-02
-2.948836237192153931e-02
-6.260851025581359863e-02
5.634916946291923523e-02
-6.209752336144447327e-02
-1.279450370930135250e-03
-5.675929598510265350e-03
1.248248293995857239e-02
3.798712790012359619e-02
3.237155079841613770e-02
2.454403229057788849e-02
3.761299699544906616e-02
5.609318986535072327e-02
-2.712593041360378265e-02
3.302441537380218506e-02
-4.037101566791534424e-02
3.355317562818527222e-02
-4.175996407866477966e-02
3.881553933024406433e-02
8.348437957465648651e-03
-8.598406612873077393e-02
-6.361303478479385376e-02
3.711389005184173584e-02
2.620988339185714722e-02
4.044622555375099182e-02
3.907426446676254272e-02
-6.857114285230636597e-02
-7.077217102050781250e-02
-1.439417246729135513e-02
4.958448559045791626e-02
-7.420177012681961060e-02
5.888820439577102661e-02
6.002197414636611938e-02
-1.100641954690217972e-02
-5.274232104420661926e-02
2.594625204801559448e-02
5.441059358417987823e-03
-1.036375109106302261e-02
1.956493593752384186e-02
-2.874213457107543945e-02
-5.173305422067642212e-02
-4.417131096124649048e-02
2.297028340399265289e-02
2.268374711275100708e-02
-2.896179258823394775e-02
8.892156183719635010e-02
-5.391291901469230652e-02
-1.104813627898693085e-02
-3.527749329805374146e-02
-6.295105069875717163e-02
-6.528911739587783813e-02
-5.674291774630546570e-02
2.240155078470706940e-02
1.213953644037246704e-02
-8.072296530008316040e-02
5.256411060690879822e-02
-1.868569961516186595e-04
6.777573726139962673e-04
2.790243737399578094e-02
-6.176752597093582153e-02
2.857601083815097809e-02
-3.336388990283012390e-02
-4.008434712886810303e-02
-5.012205615639686584e-02
-5.166140943765640259e-02
2.770053595304489136e-02
2.704264968633651733e-02
-7.411348819732666016e-02
-2.798082306981086731e-02
-1.155809313058853149e-02
7.047611474990844727e-02
-3.996395319700241089e-02
-6.836065649986267090e-02
2.047396264970302582e-02
-2.038882859051227570e-02
3.964845091104507446e-02
2.839576080441474915e-02
1.082236506044864655e-02
-2.847723662853240967e-02
-1.306110918521881104e-01
-8.129319176077842712e-03
-1.006372570991516113e-01
-6.565874814987182617e-02
-3.332983702421188354e-02
-1.217411458492279053e-01
3.688690066337585449e-02
2.124385721981525421e-02
-3.703428059816360474e-02
2.756916731595993042e-02
-1.762371137738227844e-02
-3.077045269310474396e-02
-6.231032311916351318e-02
2.497232891619205475e-02
5.333920475095510483e-03
-9.189727157354354858e-02
-1.380637474358081818e-02
-1.843372127041220665e-03
-4.258230328559875488e-03
-4.773118719458580017e-02
-1.037928313016891479e-01
7.220399379730224609e-02
-9.294316172599792480e-03
-5.234760418534278870e-02
-5.847887694835662842e-02
1.142219360917806625e-02
-3.335708752274513245e-02
-7.161162048578262329e-02
6.592502444982528687e-02
3.042995929718017578e-03
7.469809055328369141e-02
-1.316020488739013672e-01
4.750950902234762907e-04
-4.653394594788551331e-02
-5.839039012789726257e-02
4.947834461927413940e-02
-9.394429624080657959e-02
4.026770591735839844e-02
2.228191867470741272e-02
-1.171651333570480347e-01
5.053093656897544861e-03
4.374897107481956482e-02
1.115655247122049332e-02
-9.053316712379455566e-02
1.715918816626071930e-02
1.880963705480098724e-02
1.884867437183856964e-02
4.359624162316322327e-02
-1.049495488405227661e-01
-1.330796033143997192e-01
2.562700025737285614e-02
-3.250152245163917542e-02
-4.259204119443893433e-02
-4.123738408088684082e-02
2.371870167553424835e-02
5.030672997236251831e-02
-5.262723565101623535e-02
-2.428832650184631348e-02
-1.303000152111053467e-01
-4.070413857698440552e-02
-3.959745168685913086e-02
-1.080518811941146851e-01
-3.850522264838218689e-02
8.844342082738876343e-03
-1.419032216072082520e-01
-1.376759111881256104e-01
-8.135344833135604858e-02
-1.310940235853195190e-01
1.966442540287971497e-02
-3.166395798325538635e-02
-1.194033026695251465e-02
-3.926653787493705750e-02
-4.131881147623062134e-02
1.604960858821868896e-02
-1.235082820057868958e-01
-2.565235272049903870e-02
-6.271701306104660034e-02
-6.065324321389198303e-02
-1.216746792197227478e-01
8.117695897817611694e-02
-1.444154083728790283e-01
1.480560656636953354e-02
-1.366305816918611526e-02
1.487173791974782944e-02
-5.591891333460807800e-02
-3.452775999903678894e-02
-8.965734392404556274e-02
1.724866963922977448e-02
-1.072371453046798706e-01
-3.448219969868659973e-03
3.783040493726730347e-02
-6.302542984485626221e-02
-6.694110576063394547e-03
-1.730771549046039581e-02
7.827272638678550720e-04
-1.382289081811904907e-01
1.883280463516712189e-02
-9.755354374647140503e-02
1.225713826715946198e-02
5.304176732897758484e-02
-1.260970383882522583e-01
7.836682721972465515e-03
-6.529623270034790039e-02
-9.281427413225173950e-02
2.165168523788452148e-02
9.416710585355758667e-02
-2.450333163142204285e-02
-1.232492923736572266e-01
3.025505505502223969e-02
8.806019905023276806e-04
-5.959066376090049744e-02
-5.204099044203758240e-02
-6.439443677663803101e-02
-4.666299745440483093e-02
-4.368504509329795837e-02
6.917842198163270950e-03
-1.322741359472274780e-01
-7.946027070283889771e-02
-6.891199946403503418e-02
-5.617682635784149170e-02
-1.078952848911285400e-01
-4.901055991649627686e-02
-1.498735696077346802e-02
-5.674337595701217651e-02
4.330237861722707748e-03
-1.321457028388977051e-01
-1.421347856521606445e-01
-2.965607866644859314e-02
-6.327648460865020752e-02
-9.063496440649032593e-02
-9.551792591810226440e-02
-7.923831045627593994e-02
5.920525640249252319e-03
-6.401573121547698975e-02
-7.740424014627933502e-03
-9.790459275245666504e-02
-1.142457127571105957e-01
-2.869789116084575653e-02
-1.316054016351699829e-01
-6.814031302928924561e-02
1.260725222527980804e-02
4.648090526461601257e-02
-2.211905084550380707e-02
-4.487783834338188171e-02
-8.672395348548889160e-02
4.929245915263891220e-03
-3.717276453971862793e-02
-4.762628674507141113e-02
-8.247508853673934937e-02
-3.273195028305053711e-02
-7.912561297416687012e-02
2.796738408505916595e-02
-4.821350425481796265e-02
9.009169414639472961e-03
-1.551596447825431824e-02
-7.606422901153564453e-02
2.512051165103912354e-02
-7.105012424290180206e-03
2.499733678996562958e-02
-1.019005328416824341e-01
-4.118277877569198608e-02
-4.457186162471771240e-02
3.122135438024997711e-02
5.243137106299400330e-02
-9.712768346071243286e-02
1.653575897216796875e-02
-3.953267354518175125e-03
-3.090935945510864258e-02
-4.850456491112709045e-03
4.075988382101058960e-02
-3.759857639670372009e-02
-1.355009227991104126e-01
-7.107470650225877762e-03
1.203495264053344727e-02
-3.557514399290084839e-02
-5.842480808496475220e-02
-5.213733389973640442e-02
-1.018211320042610168e-01
3.848746791481971741e-02
2.332775108516216278e-02
-1.154082864522933960e-01
-4.130498692393302917e-02
-8.727142214775085449e-02
-5.491568893194198608e-02
-6.521791964769363403e-02
1.591925881803035736e-02
-7.913565635681152344e-02
-4.824568331241607666e-02
-6.511080265045166016e-02
-5.587820708751678467e-02
-2.708780951797962189e-02
-5.988698080182075500e-02
8.193010836839675903e-02
7.383111515082418919e-04
2.662453101947903633e-03
-4.522117227315902710e-02
3.144405409693717957e-02
1.982986740767955780e-02
-2.053941227495670319e-02
-1.956878304481506348e-01
-5.801189318299293518e-02
-1.557112932205200195e-01
-3.427485004067420959e-02
-1.486765891313552856e-01
-5.915669724345207214e-02
1.009342633187770844e-02
-1.806414872407913208e-02
3.317794576287269592e-02
-5.358974263072013855e-02
-6.338822096586227417e-02
3.327972814440727234e-02
-7.339910417795181274e-02
-6.985197216272354126e-02
-7.282648235559463501e-02
-7.868278771638870239e-03
5.766086280345916748e-02
-1.965729519724845886e-02
2.682788111269474030e-02
-7.273427397012710571e-02
-2.170004509389400482e-02
-2.521735802292823792e-02
2.110666595399379730e-02
-8.439677208662033081e-02
3.636687248945236206e-02
-7.797978073358535767e-02
-3.665312007069587708e-02
1.269122306257486343e-02
6.706941872835159302e-03
6.885772198438644409e-02
-6.210779026150703430e-02
1.723918877542018890e-02
8.321279287338256836e-02
4.170472174882888794e-02
6.745213270187377930e-02
9.858371317386627197e-02
-7.672344148159027100e-02
-1.385127287358045578e-02
-2.452387288212776184e-02
-3.666050732135772705e-02
-7.633386552333831787e-02
5.167689174413681030e-02
-2.344746142625808716e-02
2.503295615315437317e-02
-8.001454174518585205e-02
-3.560786601155996323e-03
-3.328729048371315002e-02
-6.669245660305023193e-02
-3.726948797702789307e-02
7.320758700370788574e-02
-7.122828811407089233e-02
-1.389615982770919800e-02
-2.198116481304168701e-02
2.659405767917633057e-02
-2.779404260218143463e-02
2.569593675434589386e-02
1.717871800065040588e-02
-7.595582306385040283e-02
5.245178565382957458e-02
3.837401419878005981e-02
3.586006164550781250e-02
2.879026159644126892e-02
-3.448347374796867371e-02
1.147882547229528427e-02
-6.214157119393348694e-02
-3.916110843420028687e-02
-2.203793451189994812e-02
2.625446766614913940e-02
-2.746587991714477539e-02
-1.522595155984163284e-02
7.048742473125457764e-02
-4.389612376689910889e-02
3.764403983950614929e-02
-1.997847668826580048e-02
1.010556891560554504e-02
-1.046042814850807190e-01
3.063509613275527954e-02
2.235177531838417053e-02
-3.639173507690429688e-02
-1.257687620818614960e-02
2.649890631437301636e-02
2.906453236937522888e-02
-4.979136213660240173e-02
-6.744316220283508301e-02
1.975564844906330109e-02
-8.980610966682434082e-02
-4.198905825614929199e-02
7.225926965475082397e-04
-1.877872645854949951e-02
4.320071637630462646e-02
7.297316938638687134e-02
-7.372315973043441772e-02
1.242151577025651932e-02
-9.245059639215469360e-02
-3.839357197284698486e-02
5.404638126492500305e-02
-1.569531671702861786e-02
-3.836540132761001587e-02
-9.183282405138015747e-02
-2.626257948577404022e-02
-1.530982367694377899e-02
-8.528668433427810669e-02
1.289030723273754120e-02
1.094604190438985825e-02
-6.423749960958957672e-03
-2.538079395890235901e-02
-3.433534502983093262e-02
-3.247195482254028320e-02
-3.904365934431552887e-03
3.677887842059135437e-02
1.902993768453598022e-02
9.030722081661224365e-03
5.706165358424186707e-02
1.118641160428524017e-02
-2.465362846851348877e-02
-1.786524080671370029e-04
-1.323609321843832731e-04
-1.675536483526229858e-02
-9.755292907357215881e-03
5.089449114166200161e-04
3.172630816698074341e-02
-1.347201466560363770e-01
-6.098681315779685974e-02
-7.317865639925003052e-02
-4.178412200417369604e-04
3.296911343932151794e-02
-5.683239921927452087e-02
-5.010250583291053772e-02
-2.718525379896163940e-02
-4.249092563986778259e-02
-5.813781917095184326e-02
3.119529038667678833e-02
3.197401389479637146e-02
2.270160429179668427e-02
-1.120377145707607269e-02
-8.319944888353347778e-02
3.998732939362525940e-02
4.507067799568176270e-02
1.080975215882062912e-02
-1.425811797380447388e-01
-5.501634627580642700e-02
-5.030390992760658264e-02
-1.555658318102359772e-02
-9.438842535018920898e-02
8.060340769588947296e-03
-5.171723291277885437e-02
-6.558216176927089691e-03
3.355751745402812958e-03
3.244682028889656067e-02
-4.508337005972862244e-03
-4.401176050305366516e-02
9.100859612226486206e-02
-2.266299910843372345e-02
5.919177830219268799e-02
3.101926483213901520e-02
-5.401346459984779358e-02
3.703095018863677979e-02
-1.257718205451965332e-01
2.252944186329841614e-02
-5.597510561347007751e-02
-1.119121238589286804e-01
-3.306569904088973999e-02
6.115762516856193542e-03
-4.075691476464271545e-02
-3.918503411114215851e-03
-6.722661107778549194e-02
-2.791402116417884827e-02
-8.693374693393707275e-02
4.348895326256752014e-02
-1.478917896747589111e-01
-4.491624981164932251e-02
-5.667010694742202759e-02
-4.398795589804649353e-02
-9.418708086013793945e-02
1.268459483981132507e-02
-9.949152357876300812e-03
8.469795435667037964e-02
-7.644127309322357178e-02
-8.288564532995223999e-02
-3.472389653325080872e-02
-1.778629794716835022e-02
8.221051841974258423e-02
-1.177805885672569275e-01
-1.491333357989788055e-02
-7.340633869171142578e-02
4.710453748703002930e-02
-6.181446090340614319e-02
5.414905026555061340e-03
-1.261123716831207275e-01
-8.736824616789817810e-03
2.095032297074794769e-02
1.158031634986400604e-02
-4.061670601367950439e-02
2.468204125761985779e-02
-7.684618700295686722e-03
-1.192937120795249939e-01
-8.041329681873321533e-02
4.888849332928657532e-02
-2.733918465673923492e-02
-6.103083118796348572e-02
-1.359220035374164581e-02
-4.634955897927284241e-02
-3.509638085961341858e-02
-9.385974146425724030e-03
2.183831483125686646e-02
-1.535236388444900513e-01
-4.833339527249336243e-02
-1.254296600818634033e-01
-3.941320255398750305e-02
-9.433065354824066162e-02
-5.309196934103965759e-02
5.706890486180782318e-03
-8.228556066751480103e-02
3.793652169406414032e-03
-1.134448796510696411e-01
-1.234779506921768188e-02
-8.446308970451354980e-02
6.983821280300617218e-03
-1.332642883062362671e-01
2.673099935054779053e-02
-1.484519615769386292e-02
-9.092600643634796143e-02
-5.574717186391353607e-03
-5.440929532051086426e-02
4.334901273250579834e-02
-4.488391801714897156e-03
-4.116057977080345154e-02
4.051627963781356812e-02
-9.196244180202484131e-02
1.301523181609809399e-03
3.165723383426666260e-02
-3.241252526640892029e-02
-2.806688845157623291e-02
2.485999092459678650e-02
-7.912666350603103638e-02
-1.520703919231891632e-02
-1.656726934015750885e-02
-4.722769558429718018e-02
-6.298857182264328003e-02
-5.590728670358657837e-02
-2.660697512328624725e-02
-4.434373974800109863e-02
-6.841944903135299683e-02
-8.005952090024948120e-02
3.845062479376792908e-02
1.838689111173152924e-02
-9.210759401321411133e-02
-4.463052377104759216e-02
-9.641323983669281006e-02
4.740089923143386841e-02
7.039389759302139282e-02
-5.829348415136337280e-02
-1.650939732789993286e-01
2.504126355051994324e-02
1.365993730723857880e-02
-5.542304739356040955e-02
-9.188549220561981201e-02
1.908303983509540558e-02
-3.914679959416389465e-02
-1.461328864097595215e-01
-3.913037851452827454e-02
-4.245130345225334167e-02
-2.088828012347221375e-02
1.968879019841551781e-03
6.319474778138101101e-04
-6.849385052919387817e-02
-6.897039711475372314e-02
7.759607583284378052e-02
-2.527621574699878693e-02
-8.453569561243057251e-02
-1.597355678677558899e-02
-4.994392022490501404e-02
-3.177089244127273560e-02
3.593641519546508789e-02
7.455042097717523575e-03
1.777667365968227386e-02
3.664178401231765747e-02
-1.221428159624338150e-02
-7.584509998559951782e-02
-1.653272286057472229e-02
-6.319648027420043945e-02
-1.594665274024009705e-02
-4.088296368718147278e-02
-5.216977745294570923e-02
2.181895263493061066e-02
-4.164373502135276794e-02
6.102625653147697449e-02
7.020346820354461670e-03
-3.308535367250442505e-02
-4.509403929114341736e-02
-6.056353915482759476e-03
1.398788485676050186e-02
-1.145238801836967468e-01
6.835875660181045532e-02
-2.262198366224765778e-02
-3.126697614789009094e-02
1.551344897598028183e-02
5.543608963489532471e-02
-1.240400075912475586e-01
4.815647378563880920e-02
-5.286387354135513306e-02
-8.084503561258316040e-02
3.161747753620147705e-02
-9.220891445875167847e-02
-4.424965009093284607e-02
2.644579298794269562e-02
-5.948287993669509888e-02
1.682516001164913177e-02
-4.235497489571571350e-02
-4.145247116684913635e-02
-4.598250985145568848e-02
-6.858099997043609619e-02
-5.241604056209325790e-03
-3.878464549779891968e-02
-8.508717641234397888e-03
-5.539194867014884949e-02
-7.155302911996841431e-02
-1.966147124767303467e-02
2.444532141089439392e-02
-1.491376571357250214e-02
-7.153023779392242432e-02
-2.496101893484592438e-02
-3.296752925962209702e-03
-1.224553678184747696e-02
-5.949484929442405701e-02
-2.906955964863300323e-02
-4.201086238026618958e-02
5.982536356896162033e-03
-5.324229598045349121e-02
1.336036808788776398e-02
3.710079239681363106e-03
7.973854988813400269e-02
3.727992624044418335e-02
-7.375866919755935669e-02
-8.822265267372131348e-02
4.984932392835617065e-02
3.927238751202821732e-03
4.029048234224319458e-02
4.736788943409919739e-02
2.470172010362148285e-02
-2.979577146470546722e-02
-5.281610414385795593e-03
-7.258564233779907227e-02
-6.572733819484710693e-02
-7.971228659152984619e-02
-2.948979381471872330e-03
6.437198817729949951e-02
4.518550261855125427e-02
-3.643902763724327087e-02
-4.219245165586471558e-02
-3.661351650953292847e-02
-4.341537132859230042e-02
-4.943943768739700317e-02
-2.713030762970447540e-02
5.841821432113647461e-02
1.487702596932649612e-02
6.989260669797658920e-03
-5.140383541584014893e-02
1.369872409850358963e-02
-4.009586945176124573e-02
-1.576752215623855591e-02
9.717459231615066528e-02
-1.025760471820831299e-01
-5.389091745018959045e-02
-4.993553087115287781e-02
-6.406963616609573364e-02
3.751783818006515503e-02
-9.293170273303985596e-02
-8.340980112552642822e-02
-2.269617840647697449e-02
4.028122499585151672e-02
2.077131718397140503e-02
-6.288760900497436523e-02
1.745612546801567078e-02
1.737960055470466614e-02
6.688604503870010376e-02
4.933415725827217102e-02
-2.838582545518875122e-02
-6.807153671979904175e-02
-4.119591414928436279e-02
6.238443404436111450e-02
-2.386588603258132935e-03
-8.566071838140487671e-02
3.618786484003067017e-02
-1.513625145889818668e-03
-2.133549563586711884e-02
-1.874693483114242554e-02
2.160965837538242340e-02
2.523280680179595947e-02
-5.354325473308563232e-02
-6.232157722115516663e-02
-7.055678218603134155e-02
-1.425664592534303665e-02
-7.153237704187631607e-03
-1.057580485939979553e-02
-1.450332850217819214e-01
-3.824874013662338257e-02
-3.781713917851448059e-02
3.155200183391571045e-02
3.034115955233573914e-02
-6.484501063823699951e-02
-4.523900523781776428e-02
-3.897547256201505661e-03
5.888067651540040970e-03
-2.724959049373865128e-03
-1.004472523927688599e-01
-5.159097054274752736e-05
4.988246411085128784e-02
-3.479509800672531128e-02
1.488368120044469833e-02
5.701031535863876343e-02
-5.821183696389198303e-02
-2.435775473713874817e-02
-9.721811115741729736e-02
1.750925322994589806e-03
-1.826019398868083954e-02
1.198946777731180191e-02
-2.949789352715015411e-02
-2.926317788660526276e-02
-1.354743838310241699e-01
4.674705862998962402e-02
3.219976648688316345e-02
-3.757378086447715759e-02
-2.084819367155432701e-03
-2.000042237341403961e-02
-5.495771765708923340e-02
-2.566490555182099342e-03
2.481602691113948822e-02
-1.295737084001302719e-02
2.959653362631797791e-02
-4.042312875390052795e-02
6.331028789281845093e-02
-5.326038971543312073e-02
-3.492822870612144470e-02
-8.577432483434677124e-03
3.190911188721656799e-02
-4.019116982817649841e-03
-3.094156831502914429e-02
3.179953992366790771e-02
6.309442967176437378e-02
4.538841918110847473e-02
-5.387138109654188156e-03
6.067873165011405945e-02
-6.562683731317520142e-02
1.612099632620811462e-02
-6.024409458041191101e-02
3.420244529843330383e-02
-4.961963370442390442e-02
-2.621087618172168732e-02
-3.418413549661636353e-02
1.839661784470081329e-02
-5.166991427540779114e-02
5.316948890686035156e-02
9.230040945112705231e-03
-4.643262550234794617e-02
3.657788783311843872e-02
-3.996017947793006897e-02
2.988989651203155518e-02
-5.043121054768562317e-02
-5.656579881906509399e-02
-2.289148606359958649e-02
-9.143971838057041168e-03
-9.832835756242275238e-03
6.125464662909507751e-02
-1.290468722581863403e-01
3.724551945924758911e-02
-4.390250146389007568e-02
-5.910620465874671936e-02
3.262852504849433899e-02
-2.471290342509746552e-02
-3.520764410495758057e-02
6.623274832963943481e-02
-1.140908524394035339e-01
-4.350911453366279602e-02
4.327411577105522156e-02
-6.747183948755264282e-02
1.739754952723160386e-04
-1.430194228887557983e-01
7.043378800153732300e-02
2.509054914116859436e-02
-1.589719504117965698e-01
1.214622985571622849e-02
2.178679592907428741e-02
3.088156518060714006e-04
5.378604307770729065e-02
6.359691731631755829e-03
-4.757589474320411682e-02
3.633503243327140808e-02
9.978500194847583771e-03
-3.762917593121528625e-02
-6.912918388843536377e-02
1.890765130519866943e-02
8.130853995680809021e-03
2.191033400595188141e-02
-4.265211522579193115e-02
-1.594413630664348602e-02
-1.575223542749881744e-02
-6.805621832609176636e-02
-1.174422204494476318e-01
1.067410875111818314e-02
-6.987373530864715576e-02
5.613615736365318298e-02
6.673301011323928833e-02
-6.144663318991661072e-02
-3.886967897415161133e-02
5.700213834643363953e-02
5.532122030854225159e-02
-9.661405533552169800e-02
-3.884454444050788879e-02
1.587883010506629944e-02
-1.173358876258134842e-02
-4.176617413759231567e-02
5.641882494091987610e-02
-6.639256328344345093e-02
5.932623520493507385e-02
-1.609132289886474609e-01
-7.398001849651336670e-03
-3.324057534337043762e-02
-1.131104491651058197e-02
-2.469079336151480675e-04
-1.312509775161743164e-01
-3.819346055388450623e-02
-4.651646316051483154e-02
7.474895566701889038e-02
-3.045582026243209839e-02
-1.789826899766921997e-02
3.488841757643967867e-04
-9.227115660905838013e-03
3.418675065040588379e-02
-8.348859101533889771e-02
3.113174997270107269e-02
-6.167813204228878021e-03
1.326683629304170609e-02
-5.613379180431365967e-03
-1.273899525403976440e-01
1.316232606768608093e-02
-1.021009013056755066e-01
-1.259064078330993652e-01
-1.080883853137493134e-02
-3.924141824245452881e-02
-5.172003433108329773e-02
-8.951054513454437256e-02
-2.702831104397773743e-02
-7.129757106304168701e-02
-8.015322685241699219e-02
-2.156756818294525146e-02
2.409857884049415588e-02
4.207231476902961731e-02
-7.834094762802124023e-02
-6.979112327098846436e-02
1.612405106425285339e-02
-5.916529148817062378e-02
-1.000980101525783539e-02
1.232531294226646423e-02
-4.562388360500335693e-02
2.402218244969844818e-02
-1.077458355575799942e-02
-8.110967278480529785e-02
6.032559648156166077e-02
-2.587439119815826416e-02
-1.138859335333108902e-02
-1.245781779289245605e-02
8.371288888156414032e-03
1.036871522665023804e-01
2.944614738225936890e-03
-2.821088023483753204e-02
-2.739719115197658539e-02
-1.095988154411315918e-01
-1.113495379686355591e-01
-3.059772215783596039e-02
4.306215047836303711e-02
9.793498553335666656e-03
-6.559615582227706909e-02
5.969289317727088928e-02
3.822395950555801392e-02
-6.805551052093505859e-02
2.662495151162147522e-02
-9.594252705574035645e-02
1.992447488009929657e-02
-8.152864873409271240e-02
-1.480429898947477341e-02
3.934369236230850220e-02
-7.670148275792598724e-03
4.096649214625358582e-02
-6.171133741736412048e-02
1.467617461457848549e-03
1.856603100895881653e-02
1.733845286071300507e-02
3.022321499884128571e-02
1.814961992204189301e-02
5.839596968144178391e-03
6.925937533378601074e-02
4.859143495559692383e-02
-3.821413591504096985e-02
-1.016134489327669144e-02
-6.651791930198669434e-02
-3.666074201464653015e-02
-7.230123877525329590e-02
2.291882969439029694e-02
-8.948919177055358887e-02
-1.323861181735992432e-01
1.600033417344093323e-02
2.613314054906368256e-02
-6.515604257583618164e-02
5.847123265266418457e-02
-7.250712066888809204e-02
-3.290791064500808716e-02
2.556920610368251801e-02
-1.268323212862014771e-01
-2.543054288253188133e-03
-6.257288157939910889e-02
9.345648810267448425e-03
2.443245425820350647e-02
-5.657802801579236984e-03
1.421477366238832474e-02
-5.246918182820081711e-03
-6.309188157320022583e-02
-2.734115161001682281e-02
-7.464407384395599365e-02
2.238642983138561249e-02
-4.231046885251998901e-02
-1.346301585435867310e-01
5.084705771878361702e-04
-2.866925112903118134e-02
-9.367202967405319214e-02
-2.334802970290184021e-02
-2.201144956052303314e-02
5.718254670500755310e-02
-3.992585092782974243e-02
2.587887644767761230e-02
2.254976192489266396e-03
1.447509508579969406e-03
-8.127017319202423096e-02
-5.596286058425903320e-02
-2.683869795873761177e-03
-1.252539106644690037e-03
1.116277463734149933e-02
3.233215585350990295e-02
3.630891814827919006e-02
-4.842856153845787048e-02
-5.672016646713018417e-03
-1.347933709621429443e-01
3.623180463910102844e-02
3.985410556197166443e-02
-8.397704362869262695e-02
1.109944581985473633e-01
-6.898616999387741089e-02
-1.488087419420480728e-02
8.835367113351821899e-02
4.639288783073425293e-02
-4.817852377891540527e-02
9.948642691597342491e-04
-3.131883591413497925e-02
-2.100760862231254578e-02
4.533300176262855530e-03
1.683409354882314801e-04
-2.131228148937225342e-02
4.483289550989866257e-03
-1.575516653247177601e-03
-3.376082703471183777e-02
3.874729573726654053e-02
1.511876587755978107e-03
-7.655423134565353394e-03
1.230683270841836929e-02
-7.690582424402236938e-02
6.811064481735229492e-02
-4.971048235893249512e-02
-8.217165246605873108e-03
-3.226859122514724731e-02
-1.055750846862792969e-01
-3.887281566858291626e-02
-1.952117308974266052e-02
-1.435613930225372314e-01
-4.571762308478355408e-02
1.368323620408773422e-02
5.421597138047218323e-02
4.416786506772041321e-02
4.117745161056518555e-02
-4.988883808255195618e-02
-3.922402113676071167e-02
4.257528483867645264e-02
2.583465352654457092e-02
5.142718181014060974e-02
4.244538955390453339e-03
-7.090273778885602951e-03
2.661181613802909851e-02
6.781172007322311401e-02
-1.027022581547498703e-02
6.579576432704925537e-02
-1.238015592098236084e-01
-1.029649674892425537e-01
-6.827448308467864990e-02
-5.124837532639503479e-02
-2.905410341918468475e-02
-4.433116875588893890e-03
-1.403484195470809937e-01
-9.597556293010711670e-02
2.777368994429707527e-03
1.577924564480781555e-02
3.909021988511085510e-02
-6.682024151086807251e-02
5.511968210339546204e-02
6.779412925243377686e-02
-4.347563534975051880e-02
4.668709263205528259e-02
-3.334287181496620178e-02
3.675419464707374573e-02
-1.490694582462310791e-01
2.629688568413257599e-02
-3.679472208023071289e-02
-4.126621875911951065e-03
2.612911397591233253e-03
-1.112325787544250488e-01
-1.052685431204736233e-03
-1.975348591804504395e-02
3.728507459163665771e-02
4.187356308102607727e-02
-7.595352083444595337e-02
-5.551170930266380310e-02
-8.369478397071361542e-03
-2.783431857824325562e-02
-4.508913680911064148e-02
-5.629506707191467285e-02
-4.138448834419250488e-02
-4.821510054171085358e-03
8.101527392864227295e-02
-2.203410863876342773e-02
-2.205996075645089149e-03
-3.912619501352310181e-02
-5.091537535190582275e-02
-7.305621355772018433e-02
2.916391193866729736e-02
4.891993105411529541e-02
-6.991387903690338135e-02
7.755559869110584259e-03
-1.149995774030685425e-01
9.906777413561940193e-04
-1.240567537024617195e-03
-3.632253780961036682e-02
1.389122009277343750e-02
-1.442805826663970947e-01
-1.408560574054718018e-02
-1.350749097764492035e-02
-4.575202986598014832e-02
-4.604756087064743042e-02
4.492308944463729858e-02
-1.545071788132190704e-02
4.416646901518106461e-03
-7.841134443879127502e-03
-1.759028434753417969e-02
-5.325276777148246765e-02
-9.418896399438381195e-03
-1.295297443866729736e-01
-1.020830944180488586e-01
-9.347145259380340576e-02
-9.301702491939067841e-03
-3.927091881632804871e-02
3.009720006957650185e-03
4.793531820178031921e-02
-1.070667728781700134e-01
-4.235320165753364563e-02
-1.381373312324285507e-02
-1.535059791058301926e-02
-4.223558679223060608e-02
-9.969355911016464233e-02
-5.651618540287017822e-02
8.422853797674179077e-02
-4.110977426171302795e-02
-6.795740127563476562e-02
3.669582307338714600e-02
2.941364608705043793e-02
-8.477313816547393799e-02
5.410451442003250122e-02
-5.937737226486206055e-02
4.569584503769874573e-02
4.456544667482376099e-02
-1.620937585830688477e-01
-5.871007964015007019e-02
-4.138649255037307739e-02
1.996403001248836517e-02
9.357332601211965084e-05
1.625959016382694244e-02
-3.857441991567611694e-02
5.656998604536056519e-02
4.142667725682258606e-02
-7.615142315626144409e-02
-2.777036465704441071e-02
-3.067125193774700165e-02
2.855270914733409882e-02
-4.210034012794494629e-02
5.830401554703712463e-03
-9.195122122764587402e-02
-1.245580166578292847e-01
-1.554339975118637085e-01
5.350260436534881592e-02
-1.862290431745350361e-03
-1.605390384793281555e-02
-7.381515949964523315e-02
-3.378953039646148682e-02
-9.421274065971374512e-02
-8.374244719743728638e-02
2.165836840867996216e-02
3.192336857318878174e-02
1.229443214833736420e-02
-2.510088868439197540e-02
-3.158054128289222717e-02
-9.027332067489624023e-03
-3.787747351452708244e-03
-1.644354127347469330e-02
8.117462694644927979e-02
-1.263702362775802612e-01
2.789597492665052414e-03
-5.029083043336868286e-02
-3.171383589506149292e-02
4.814193025231361389e-02
-4.374921321868896484e-02
-1.109140738844871521e-01
2.064790204167366028e-02
-9.898140281438827515e-02
8.035872876644134521e-02
-1.545025501400232315e-02
-4.027626290917396545e-02
6.447607278823852539e-02
-1.034951806068420410e-01
-3.674691542983055115e-02
1.839214377105236053e-02
-6.390254013240337372e-03
-1.251758169382810593e-02
-3.910947963595390320e-02
2.046329155564308167e-02
4.918054118752479553e-02
1.297175604850053787e-02
-5.174438655376434326e-02
-7.986074686050415039e-02
5.918461084365844727e-02
-2.033712901175022125e-02
5.780993029475212097e-03
-1.281828731298446655e-01
-4.199462011456489563e-02
8.139392361044883728e-03
-1.289847493171691895e-01
7.762167137116193771e-03
-3.149205446243286133e-02
7.576110213994979858e-02
-2.357174456119537354e-02
4.537257552146911621e-02
-3.772999346256256104e-02
5.913163721561431885e-02
-1.197668816894292831e-02
-6.721821427345275879e-02
-4.181216657161712646e-02
1.850255019962787628e-02
5.592571571469306946e-02
-7.595825195312500000e-02
-7.135910447686910629e-03
-1.289041042327880859e-01
-2.138272970914840698e-01
-1.128066703677177429e-01
-2.712531760334968567e-02
6.417391449213027954e-02
4.737220332026481628e-02
-2.353600412607192993e-01
-1.270052194595336914e-01
-1.513595879077911377e-01
-5.020658671855926514e-02
1.752561074681580067e-03
5.525902286171913147e-02
5.521855130791664124e-02
2.573731355369091034e-02
-5.779519304633140564e-02
-2.412630990147590637e-02
-1.539995800703763962e-02
-5.310864001512527466e-02
5.404986068606376648e-02
-5.168552696704864502e-02
8.383281528949737549e-03
-7.176614366471767426e-03
-5.062760412693023682e-02
-2.527108788490295410e-02
5.391051247715950012e-02
-1.002251654863357544e-01
-5.244393646717071533e-02
-3.800357878208160400e-02
8.148042112588882446e-02
-5.248276889324188232e-02
-2.579763904213905334e-02
4.091710969805717468e-02
-7.253266870975494385e-02
4.602671787142753601e-02
1.351845357567071915e-02
1.450694818049669266e-02
1.931984536349773407e-02
-5.640705581754446030e-03
-2.373833954334259033e-02
-1.657672226428985596e-02
-2.861183881759643555e-02
1.539665507152676582e-03
-5.584737285971641541e-02
2.632556855678558350e-02
-4.737438261508941650e-02
9.609983861446380615e-02
5.271009635180234909e-03
-4.857915639877319336e-02
1.124244276434183121e-02
-6.942509114742279053e-02
1.155744306743144989e-02
-5.611544102430343628e-02
-1.005098968744277954e-02
-4.744907841086387634e-02
5.071907863020896912e-02
-4.128858819603919983e-02
7.758537679910659790e-02
4.523625224828720093e-02
-6.611860543489456177e-02
-2.148794755339622498e-02
-2.879592776298522949e-02
8.193431794643402100e-02
2.919535338878631592e-02
-4.668121039867401123e-02
-7.845208980143070221e-03
-1.809194833040237427e-01
-3.295217826962471008e-02
-1.488185580819845200e-02
1.453552860766649246e-02
-3.411766141653060913e-02
-2.519084215164184570e-01
3.655134513974189758e-02
-1.331983972340822220e-02
-1.411764025688171387e-01
-1.054982934147119522e-02
-7.293920964002609253e-02
8.410830795764923096e-02
-4.750187974423170090e-03
1.141973119229078293e-02
-4.241783171892166138e-02
-1.029934361577033997e-01
-5.751911550760269165e-02
6.512925773859024048e-02
-4.055699706077575684e-02
-1.718219928443431854e-02
1.866639591753482819e-02
-9.315440803766250610e-02
5.460936203598976135e-02
2.886094851419329643e-03
-7.417796552181243896e-02
2.359378524124622345e-02
1.780673302710056305e-02
7.279644906520843506e-02
-5.726940929889678955e-03
5.105849727988243103e-02
-2.318654395639896393e-02
-2.349045127630233765e-02
-1.397402212023735046e-02
-8.158731460571289062e-02
-3.356160223484039307e-02
2.794922702014446259e-02
-3.002438135445117950e-02
-5.812231078743934631e-02
2.222639136016368866e-02
-3.250046866014599800e-04
1.189161557704210281e-02
-1.669580489397048950e-02
2.681266516447067261e-02
-1.072609238326549530e-02
-1.940134540200233459e-02
-2.956072427332401276e-02
-5.527514033019542694e-03
-4.738675802946090698e-02
3.115117177367210388e-02
4.796887561678886414e-02
4.933698102831840515e-03
-2.674278244376182556e-02
-2.875681407749652863e-02
-4.733138903975486755e-02
1.301108207553625107e-02
1.924670883454382420e-03
-3.494097292423248291e-02
5.314766312949359417e-04
3.199026733636856079e-02
-6.324325501918792725e-02
4.084564279764890671e-03
-1.785562187433242798e-02
-9.372033923864364624e-02
1.423522271215915680e-02
-1.569319963455200195e-01
-7.042978703975677490e-02
4.975349828600883484e-02
3.200067207217216492e-03
2.500754967331886292e-02
-1.570827215909957886e-01
-3.160759061574935913e-02
-1.029131701216101646e-03
-1.328327655792236328e-01
1.305914763361215591e-02
-5.588594358414411545e-03
-2.955765835940837860e-02
-1.126384083181619644e-02
-3.621539101004600525e-02
-7.004918903112411499e-02
4.010094329714775085e-03
-1.524837873876094818e-02
1.815900020301342010e-02
-2.230700291693210602e-02
-3.517792001366615295e-02
-3.224434331059455872e-02
-2.974061109125614166e-02
3.827916458249092102e-03
1.399538852274417877e-02
1.825761608779430389e-02
1.523138303309679031e-02
-7.527296990156173706e-02
3.180718794465065002e-02
4.270676895976066589e-02
-4.093355964869260788e-03
4.878804832696914673e-02
-1.008737608790397644e-01
1.434374134987592697e-03
2.769814059138298035e-02
6.685697939246892929e-03
7.277894299477338791e-03
-1.159805804491043091e-02
1.629075035452842712e-02
2.287619933485984802e-02
-3.984829038381576538e-02
4.483634606003761292e-02
-4.641274735331535339e-02
-2.236897498369216919e-02
1.600009854882955551e-03
-1.218994054943323135e-02
8.560074493288993835e-03
5.351563170552253723e-02
-2.847293578088283539e-02
-9.036331623792648315e-02
-1.572833955287933350e-02
-1.818701624870300293e-02
4.163814708590507507e-02
-1.502451393753290176e-02
1.995340920984745026e-02
-8.811572194099426270e-02
-4.917500540614128113e-02
2.726039476692676544e-02
3.570213913917541504e-03
-2.811709977686405182e-02
1.415935251861810684e-02
8.355538360774517059e-03
1.549367047846317291e-02
-1.043289080262184143e-01
-1.601354777812957764e-02
-5.568618327379226685e-02
-6.899773329496383667e-02
-1.276712957769632339e-02
-5.052255094051361084e-02
1.963732764124870300e-02
-7.464020699262619019e-02
-6.087496504187583923e-02
-1.453636735677719116e-01
-3.063199110329151154e-02
-3.138971701264381409e-02
2.567721158266067505e-02
7.971031591296195984e-03
-5.672800168395042419e-02
-4.742425680160522461e-02
-5.527953803539276123e-02
3.762641921639442444e-02
-6.148015335202217102e-02
-8.942182175815105438e-03
-1.742345839738845825e-02
2.821636386215686798e-03
2.407780103385448456e-02
-7.313136756420135498e-02
1.098298840224742889e-02
8.073066361248493195e-03
-7.411985099315643311e-02
1.057021971791982651e-02
-6.909728795289993286e-02
3.129252232611179352e-03
-9.080758690834045410e-02
-6.972840987145900726e-03
-4.717963188886642456e-02
1.282683387398719788e-02
1.575150713324546814e-02
-1.675698347389698029e-02
8.696970529854297638e-03
-3.678151592612266541e-02
3.376793861389160156e-02
1.954296045005321503e-02
2.849936485290527344e-02
-5.662471055984497070e-02
-3.373176977038383484e-02
-1.416894048452377319e-01
-4.642179608345031738e-02
-1.741136051714420319e-02
-4.488028213381767273e-02
-6.276059150695800781e-02
2.930410765111446381e-02
5.205992609262466431e-02
6.909123063087463379e-02
2.939592674374580383e-02
-2.697936818003654480e-02
-1.974397525191307068e-02
-1.474457979202270508e-02
-5.685048177838325500e-03
-7.646949589252471924e-02
3.249884024262428284e-02
9.299020282924175262e-03
3.009656257927417755e-02
-1.413387060165405273e-02
-1.372631639242172241e-02
5.345902964472770691e-02
-6.550451368093490601e-02
-2.190496772527694702e-02
-1.022288128733634949e-01
-5.200992897152900696e-02
9.697975590825080872e-03
-1.395945716649293900e-02
-6.733476370573043823e-02
6.211317144334316254e-03
-3.577354550361633301e-02
-1.330302208662033081e-01
-7.350578159093856812e-02
-1.025162786245346069e-01
-3.466749191284179688e-02
-2.782965078949928284e-02
5.172677338123321533e-02
7.067947089672088623e-02
3.500100225210189819e-02
-5.891713127493858337e-02
-2.118949405848979950e-02
7.508970331400632858e-03
2.638358995318412781e-02
-5.667953938245773315e-02
-1.770594716072082520e-02
-9.435857832431793213e-02
-5.806852877140045166e-02
5.025753751397132874e-02
-6.776428315788507462e-03
-4.910736903548240662e-02
2.785751596093177795e-02
-4.272640496492385864e-02
8.338861167430877686e-02
1.709188520908355713e-02
-5.851545557379722595e-02
8.039291203022003174e-02
7.776962965726852417e-02
-7.701033726334571838e-03
5.106409266591072083e-02
-2.548139169812202454e-02
1.746809482574462891e-02
-1.191080175340175629e-02
3.379900753498077393e-02
-3.060495294630527496e-02
1.689294911921024323e-02
-6.225435063242912292e-02
-1.060589402914047241e-01
-5.644901096820831299e-02
-8.734351955354213715e-03
-9.405522048473358154e-02
-1.074265502393245697e-02
-6.957081705331802368e-02
-8.234349079430103302e-03
-2.393510378897190094e-02
1.907392591238021851e-02
-3.669312596321105957e-02
-1.777201145887374878e-02
-3.931833431124687195e-02
3.546038269996643066e-02
-4.511898383498191833e-02
-3.378253802657127380e-02
2.547029405832290649e-02
-1.897513680160045624e-02
2.554135024547576904e-02
-1.629843260161578655e-03
6.326080113649368286e-02
-1.039956733584403992e-01
-2.414276450872421265e-02
-1.133119091391563416e-01
-4.645183309912681580e-02
-5.955094844102859497e-02
5.728084594011306763e-02
-6.137906108051538467e-03
2.368329651653766632e-02
-5.526381731033325195e-02
-5.983641743659973145e-02
-3.789681196212768555e-02
-1.512288451194763184e-01
-2.249414473772048950e-02
-3.414958342909812927e-02
-4.646570235490798950e-02
-8.652239106595516205e-03
-1.678443746641278267e-03
-5.691953375935554504e-02
-6.402958184480667114e-02
6.028389558196067810e-02
-1.118329633027315140e-02
-4.035546630620956421e-02
-4.512445628643035889e-02
-8.369745314121246338e-02
-4.657713323831558228e-02
-7.439373061060905457e-03
5.195418745279312134e-02
-2.110338769853115082e-02
-2.806573919951915741e-02
4.314946383237838745e-02
-1.025232393294572830e-02
-7.958160340785980225e-02
-8.639743924140930176e-02
6.054493784904479980e-02
5.129187833517789841e-03
1.896776817739009857e-02
-3.812961652874946594e-02
-8.424887806177139282e-02
7.584089785814285278e-02
2.313870005309581757e-02
4.655905067920684814e-02
1.441071089357137680e-02
8.263063617050647736e-03
8.719475939869880676e-03
-5.053236708045005798e-02
-1.107068136334419250e-01
-1.050749048590660095e-02
3.909654915332794189e-03
-1.320843002758920193e-03
-3.745372220873832703e-02
5.519058927893638611e-02
-6.699009984731674194e-02
5.785208195447921753e-02
2.707047574222087860e-02
-5.781455338001251221e-02
1.524855103343725204e-02
-3.772144671529531479e-03
4.908050224184989929e-02
5.071556940674781799e-02
-1.009058803319931030e-01
-1.286743022501468658e-02
1.375908590853214264e-02
-5.727481096982955933e-02
4.838512092828750610e-02
-4.542857781052589417e-02
-3.387701883912086487e-02
-6.959377229213714600e-02
-1.161084789782762527e-02
2.515619434416294098e-02
2.155346795916557312e-02
-3.317550942301750183e-02
3.638122603297233582e-02
-3.342779725790023804e-02
-1.029983758926391602e-01
2.120784483850002289e-02
-4.424348846077919006e-02
-5.291378125548362732e-02
-5.458613857626914978e-02
-9.366293996572494507e-02
-2.001015841960906982e-02
-7.209315150976181030e-02
6.280694156885147095e-03
-7.822109013795852661e-02
5.859404802322387695e-02
-8.885955810546875000e-02
-8.587627112865447998e-02
-1.166307367384433746e-03
4.051112756133079529e-02
6.840911693871021271e-03
-3.534750640392303467e-02
1.735927723348140717e-02
2.572962827980518341e-02
-2.094187214970588684e-02
4.210247099399566650e-02
1.802670583128929138e-02
4.267052933573722839e-02
4.193000495433807373e-02
-3.049485757946968079e-02
-4.395792260766029358e-02
6.839460134506225586e-02
-1.022403761744499207e-01
-1.270536929368972778e-01
1.994648948311805725e-02
4.596399143338203430e-02
-2.179346978664398193e-03
-1.683997735381126404e-02
-4.311663657426834106e-02
-3.039015270769596100e-02
-8.802538365125656128e-02
-1.024470776319503784e-01
1.793818082660436630e-04
-7.560747116804122925e-02
-3.166177496314048767e-02
5.781794339418411255e-02
-1.750535517930984497e-02
-6.163261830806732178e-02
6.576801091432571411e-02
-2.166107483208179474e-02
-5.197536945343017578e-02
-1.583731919527053833e-02
-5.348313134163618088e-04
7.431809604167938232e-02
2.253557741641998291e-02
-2.442273125052452087e-02
3.246789798140525818e-02
-5.866890773177146912e-02
3.869929164648056030e-02
-1.842341199517250061e-02
-6.410704459995031357e-03
-5.009041354060173035e-02
-3.876230865716934204e-02
-7.005272805690765381e-02
6.170012801885604858e-02
5.396783724427223206e-02
-3.922777995467185974e-02
-2.902997285127639771e-02
-1.399580836296081543e-01
-6.687849760055541992e-02
8.146528853103518486e-04
-5.738256499171257019e-02
-6.680300831794738770e-02
-2.644425071775913239e-02
-1.367291659116744995e-01
6.063796952366828918e-02
-3.316601365804672241e-02
2.003530226647853851e-02
-2.234954386949539185e-02
1.783399097621440887e-02
-3.809399902820587158e-02
-5.465235933661460876e-02
-2.635774016380310059e-02
-8.554398268461227417e-02
-2.110595442354679108e-02
-3.910238668322563171e-02
6.321080774068832397e-02
1.164983399212360382e-02
3.844697959721088409e-03
3.540626785252243280e-04
7.039361447095870972e-02
-2.863782271742820740e-02
2.113059535622596741e-02
6.406382471323013306e-02
4.171130806207656860e-02
-5.473035946488380432e-02
2.559251151978969574e-02
4.523885622620582581e-02
-7.008391618728637695e-02
6.676477193832397461e-02
-6.278114020824432373e-02
-2.721251547336578369e-02
4.369222745299339294e-02
-6.595030426979064941e-02
-9.895704686641693115e-02
-7.592877745628356934e-02
-1.484848745167255402e-02
3.108110278844833374e-02
-5.177986342459917068e-03
-5.292093753814697266e-02
2.833743579685688019e-03
3.720561042428016663e-02
-3.599700704216957092e-02
-9.339623153209686279e-02
-3.983555361628532410e-03
1.312866713851690292e-02
-1.000007987022399902e-02
1.806234125979244709e-03
3.079410456120967865e-02
3.137200325727462769e-02
-1.495626661926507950e-02
-5.644089728593826294e-02
4.660043399780988693e-03
-2.859126031398773193e-02
-1.135926172137260437e-01
4.831851646304130554e-02
-5.108051747083663940e-02
-6.663107126951217651e-02
3.731020539999008179e-02
-3.968909755349159241e-02
-9.012064337730407715e-02
5.149100348353385925e-02
-3.424298390746116638e-02
-9.470343589782714844e-02
-7.268207520246505737e-02
1.777716539800167084e-02
1.657562702894210815e-02
-3.956893831491470337e-02
-3.003140212967991829e-03
1.656285859644412994e-02
2.317390963435173035e-02
1.062282081693410873e-02
-3.789815353229641914e-03
2.859294414520263672e-03
3.594715148210525513e-02
1.308647729456424713e-02
6.114795804023742676e-02
-3.129487112164497375e-02
-9.466468356549739838e-03
-4.212757572531700134e-03
1.893741823732852936e-02
-2.879903092980384827e-02
7.956407964229583740e-02
-6.356751918792724609e-02
6.515339761972427368e-02
-7.959576323628425598e-03
-8.662921190261840820e-02
3.704651072621345520e-02
3.789915144443511963e-02
2.008034102618694305e-02
1.709920354187488556e-02
3.614144772291183472e-02
1.450657751411199570e-02
6.758477538824081421e-02
-2.128054015338420868e-02
5.441178008913993835e-02
3.799466416239738464e-03
-8.533667027950286865e-02
9.882364422082901001e-03
-7.268097996711730957e-02
1.460078917443752289e-02
1.477573718875646591e-02
9.418004006147384644e-02
-4.673179984092712402e-02
-1.388284936547279358e-02
4.238048568367958069e-02
-1.792382635176181793e-02
-5.581905599683523178e-03
3.341594710946083069e-02
2.685317210853099823e-02
-3.535213321447372437e-02
-4.827245697379112244e-02
-5.579834058880805969e-02
-8.229204267263412476e-02
-1.808834145776927471e-03
-4.144583269953727722e-02
-8.866660296916961670e-03
1.177750620990991592e-02
1.599463820457458496e-02
-1.371980160474777222e-01
3.432623576372861862e-03
-4.064474254846572876e-03
1.998636685311794281e-02
6.602846086025238037e-02
-3.269214928150177002e-02
-1.059226132929325104e-02
-5.740513280034065247e-02
5.921868979930877686e-02
-4.991196468472480774e-02
-9.121935069561004639e-02
-3.461697604507207870e-03
-4.304676130414009094e-02
3.790193423628807068e-02
4.221025854349136353e-02
-4.004504159092903137e-02
-3.460415452718734741e-02
-1.003321707248687744e-01
1.323747821152210236e-02
2.011131495237350464e-02
3.490343317389488220e-02
-7.932689972221851349e-03
-7.656933367252349854e-02
3.979183733463287354e-02
-4.733306169509887695e-02
-1.813929155468940735e-02
-6.046598404645919800e-02
3.763628005981445312e-02
6.006408855319023132e-02
5.883221328258514404e-02
2.658149041235446930e-02
-2.435070835053920746e-02
-4.323329031467437744e-02
2.513651922345161438e-02
-2.698842249810695648e-02
2.816513925790786743e-02
-7.698193192481994629e-02
-7.939853705465793610e-03
6.514439731836318970e-02
5.597322061657905579e-02
-2.743729762732982635e-02
-2.328410372138023376e-02
-4.278278350830078125e-02
5.556934047490358353e-03
-1.715916097164154053e-01
3.351621702313423157e-02
-7.053746283054351807e-02
1.749550551176071167e-02
-4.943963140249252319e-02
1.880792342126369476e-02
-3.402148559689521790e-02
4.047952219843864441e-02
2.061377279460430145e-02
-1.538718678057193756e-02
1.388354878872632980e-02
-3.081946820020675659e-02
-2.261828444898128510e-02
-1.462235697545111179e-03
3.408704698085784912e-02
2.939657866954803467e-02
1.451750937849283218e-02
-5.917673185467720032e-02
-4.558859858661890030e-03
-6.136986985802650452e-02
-1.375928968191146851e-01
6.746760010719299316e-02
5.594003945589065552e-02
-2.417534962296485901e-02
3.956589475274085999e-02
3.867993876338005066e-02
2.371923252940177917e-02
5.472329258918762207e-02
-8.198933303356170654e-02
3.606574609875679016e-02
-3.562911972403526306e-02
-5.430057272315025330e-02
-5.328264087438583374e-02
-1.104312017560005188e-01
3.793935477733612061e-02
-4.930197820067405701e-02
-6.121771782636642456e-02
-3.534765914082527161e-02
1.739881373941898346e-02
2.753234840929508209e-02
3.622769564390182495e-02
-3.866719454526901245e-02
2.175140567123889923e-02
3.729835525155067444e-02
-4.483856633305549622e-02
-4.830386862158775330e-02
-3.315822780132293701e-02
2.742225117981433868e-02
7.867728918790817261e-02
-4.782293364405632019e-02
3.724847361445426941e-02
2.180963382124900818e-02
5.561950802803039551e-02
4.864332452416419983e-02
-4.996231873519718647e-04
1.311276946216821671e-02
-2.270712330937385559e-02
-1.739520207047462463e-02
8.091095089912414551e-02
-3.096770495176315308e-03
-4.684370011091232300e-02
2.000661334022879601e-03
-9.362725913524627686e-02
-9.856478869915008545e-02
-1.546014845371246338e-01
2.260846644639968872e-02
-5.604086071252822876e-02
1.817768556065857410e-03
-4.779954254627227783e-02
-9.207281470298767090e-02
5.290062353014945984e-02
6.878192722797393799e-02
3.825200721621513367e-02
-1.143868044018745422e-01
-1.047041639685630798e-02
-1.176397427916526794e-01
1.221276447176933289e-02
-3.425581380724906921e-02
-4.203964397311210632e-02
6.228020414710044861e-03
-1.351698674261569977e-02
4.270349815487861633e-02
1.066894643008708954e-02
5.957404524087905884e-02
3.403567150235176086e-02
2.874641213566064835e-03
3.062990307807922363e-02
2.319602482020854950e-02
5.412846058607101440e-02
-1.831132546067237854e-02
-5.131405219435691833e-02
-1.863390579819679260e-02
3.973994031548500061e-02
-1.208161120302975178e-03
-4.629737883806228638e-02
-3.104686923325061798e-02
7.273153215646743774e-02
-1.184828653931617737e-01
-4.264947399497032166e-02
-7.080020010471343994e-02
2.982392907142639160e-03
-2.359588257968425751e-02
-2.793908677995204926e-02
-3.136269003152847290e-02
-3.515063598752021790e-02
4.569349810481071472e-02
-3.378888592123985291e-02
4.691758006811141968e-02
-8.781018108129501343e-02
-1.053624041378498077e-02
1.193513907492160797e-02
-5.071584600955247879e-03
6.261556595563888550e-02
-4.535358399152755737e-02
8.726156665943562984e-04
-2.671884000301361084e-02
-6.442290544509887695e-02
-1.126305386424064636e-02
4.142190888524055481e-02
-3.894817829132080078e-02
-1.369620859622955322e-01
1.363220345228910446e-02
-4.543355479836463928e-02
-6.101061403751373291e-02
-3.577322885394096375e-02
4.732991382479667664e-02
-6.731137633323669434e-02
-7.676936686038970947e-02
-1.419317871332168579e-01
1.680376194417476654e-02
-5.787836760282516479e-02
7.410310208797454834e-02
6.214034929871559143e-02
-3.982752561569213867e-02
9.595252573490142822e-02
-1.244123652577400208e-02
-7.056519389152526855e-02
-6.312683224678039551e-02
-2.169966138899326324e-02
-1.537122428417205811e-01
-3.781754523515701294e-02
-8.764371275901794434e-02
-4.334868118166923523e-02
-1.161189284175634384e-02
-4.535943642258644104e-02
2.316954731941223145e-02
5.750413984060287476e-02
4.976267926394939423e-03
-6.475026905536651611e-02
-2.337750280275940895e-03
3.520778939127922058e-02
-6.605515256524085999e-03
-1.948385313153266907e-02
-5.085660517215728760e-02
2.861854061484336853e-02
-4.710879176855087280e-02
2.389028109610080719e-02
4.854047298431396484e-02
-3.904216364026069641e-02
5.197617039084434509e-02
3.207784518599510193e-02
-1.666487157344818115e-01
-3.790998831391334534e-02
-3.158332407474517822e-02
-6.615601945668458939e-03
-4.672143608331680298e-02
1.832672022283077240e-02
-3.604486584663391113e-02
-3.926374390721321106e-02
-5.283306911587715149e-02
6.877893581986427307e-03
-6.466098595410585403e-03
-9.784915298223495483e-02
-4.055223241448402405e-02
7.738174498081207275e-02
6.592111289501190186e-02
1.712363027036190033e-02
-1.734794490039348602e-02
-4.410227015614509583e-02
-8.112306892871856689e-02
4.173011332750320435e-02
5.882931873202323914e-02
2.493502013385295868e-02
-5.800008773803710938e-02
-4.901361465454101562e-02
5.983505025506019592e-02
-2.819351619109511375e-03
3.642652183771133423e-02
-2.987830899655818939e-02
4.716484993696212769e-02
-1.168670714832842350e-03
1.652538403868675232e-02
-7.609613239765167236e-02
7.780248671770095825e-02
-3.226552903652191162e-02
2.175167016685009003e-02
1.347070280462503433e-02
-8.591751754283905029e-02
-5.262366961687803268e-03
-3.887941315770149231e-02
-6.342979520559310913e-02
-5.150876939296722412e-02
3.970034793019294739e-02
2.831838093698024750e-02
-1.067138649523258209e-02
4.657865688204765320e-02
-1.473424583673477173e-01
-3.563222661614418030e-02
5.721144750714302063e-02
4.103064537048339844e-02
1.781244575977325439e-02
-9.289218112826347351e-03
-9.906016290187835693e-02
-7.543715834617614746e-02
-3.325383365154266357e-02
5.063785985112190247e-02
4.213109239935874939e-02
-4.439370706677436829e-03
-1.576306857168674469e-02
3.521844372153282166e-02
-1.015052758157253265e-02
-8.193553425371646881e-03
-7.813395559787750244e-02
-1.053996104747056961e-02
4.298484325408935547e-02
-1.248872131109237671e-01
-3.941314760595560074e-03
-6.922692060470581055e-02
-3.828610107302665710e-02
1.971196942031383514e-02
-2.756259962916374207e-02
-3.434425964951515198e-02
-7.103145867586135864e-02
-4.634890332818031311e-02
1.027610618621110916e-02
2.980944886803627014e-02
-2.803859859704971313e-02
3.300523757934570312e-02
5.572180077433586121e-02
3.011519834399223328e-02
-3.343216329813003540e-02
-2.292834594845771790e-02
-2.620318345725536346e-02
-3.879937157034873962e-02
-7.986637949943542480e-02
-3.491815552115440369e-02
-4.670830816030502319e-02
1.815959624946117401e-02
-1.303064376115798950e-01
1.715311221778392792e-02
-4.434257745742797852e-02
-1.383813377469778061e-02
2.703394927084445953e-02
1.558185555040836334e-02
-1.503362553194165230e-03
-6.371666491031646729e-02
-2.112559080123901367e-01
6.895781029015779495e-03
-7.239777594804763794e-02
7.058092951774597168e-02
-5.707411468029022217e-02
-7.117404788732528687e-02
3.927005827426910400e-02
9.923793375492095947e-03
-2.990537881851196289e-02
-7.225485891103744507e-02
-5.368480086326599121e-02
-2.849040320143103600e-03
-4.416873678565025330e-02
-6.148293614387512207e-02
-4.509218037128448486e-02
4.107534885406494141e-02
-1.626661792397499084e-02
-2.682425267994403839e-02
4.730587452650070190e-02
1.114819049835205078e-01
-8.843364566564559937e-02
-2.061638748273253441e-03
6.317982822656631470e-02
-2.575035206973552704e-02
-6.920476444065570831e-03
-4.279006645083427429e-02
2.927420288324356079e-02
-7.162468880414962769e-02
6.279803067445755005e-02
6.023480743169784546e-02
-7.667611539363861084e-02
-2.238059416413307190e-02
-7.803427428007125854e-02
-2.235975302755832672e-02
1.279304362833499908e-02
-1.393081340938806534e-02
-3.610074520111083984e-02
-7.470757514238357544e-02
5.254602804780006409e-02
-1.324783917516469955e-02
-5.892809852957725525e-02
4.790519177913665771e-02
-2.958573214709758759e-02
5.525582656264305115e-02
-1.448038686066865921e-02
-2.937472425401210785e-02
-3.749823570251464844e-02
-5.613144859671592712e-02
3.075133077800273895e-02
9.329020045697689056e-03
4.706156998872756958e-02
-7.749364525079727173e-02
-2.271889708936214447e-02
6.240287795662879944e-02
-3.984295949339866638e-02
-2.036582306027412415e-02
-4.950561746954917908e-02
3.384364396333694458e-02
9.469470009207725525e-03
6.358574610203504562e-03
3.910436853766441345e-02
2.449627779424190521e-02
-5.380140151828527451e-03
1.140914298593997955e-02
-1.856169402599334717e-01
-3.562398999929428101e-02
-3.075037337839603424e-02
-2.483673207461833954e-02
3.854794800281524658e-02
-7.102918624877929688e-02
-3.553512319922447205e-02
-1.559280790388584137e-02
-5.527045205235481262e-02
-5.199486017227172852e-02
-6.045328453183174133e-02
-3.625395148992538452e-02
-2.623168565332889557e-02
-8.755674585700035095e-03
1.217327918857336044e-02
1.658396422863006592e-02
5.559769272804260254e-02
-4.210340976715087891e-02
5.438871681690216064e-02
4.990436881780624390e-02
-6.397077441215515137e-02
-4.219644516706466675e-02
-3.587210923433303833e-02
3.324934467673301697e-02
2.444961294531822205e-02
3.511427901685237885e-03
5.208405479788780212e-02
-9.054011106491088867e-02
5.987279117107391357e-02
-2.596729435026645660e-03
-3.129944577813148499e-02
7.541139610111713409e-03
1.642895862460136414e-02
-8.730706572532653809e-02
-6.404110789299011230e-02
3.088280372321605682e-02
-7.420752197504043579e-02
-2.183284796774387360e-02
8.744754828512668610e-03
7.800441700965166092e-03
-8.849341422319412231e-02
-2.489554323256015778e-02
3.963246569037437439e-02
6.249745842069387436e-03
-8.858793228864669800e-02
-8.407232910394668579e-02
-7.223766297101974487e-03
-7.214316725730895996e-02
-2.638484351336956024e-02
-3.346357494592666626e-02
3.981415554881095886e-02
3.148975223302841187e-02
-1.914200931787490845e-02
-5.048171803355216980e-02
5.567927286028862000e-02
1.018317299894988537e-03
-4.580249544233083725e-03
-7.234742492437362671e-02
-9.887621738016605377e-03
4.341171309351921082e-02
4.978426266461610794e-03
1.293900143355131149e-02
4.359437897801399231e-02
5.112377926707267761e-02
-9.303490072488784790e-02
-2.164640463888645172e-02
-4.500612244009971619e-02
7.747711986303329468e-02
1.984742470085620880e-02
-6.427368521690368652e-02
5.341986194252967834e-02
4.142233636230230331e-03
1.543746050447225571e-02
-5.030812695622444153e-02
1.989923231303691864e-02
-9.269677102565765381e-02
7.791272550821304321e-02
-6.252741068601608276e-02
2.033552899956703186e-02
3.300509601831436157e-02
1.352863153442740440e-03
-2.735717967152595520e-02
-5.696719139814376831e-02
-3.139505628496408463e-03
-3.786702081561088562e-02
1.029014121741056442e-02
4.734360554721206427e-04
4.088717326521873474e-02
1.953599788248538971e-02
-6.165461614727973938e-02
6.940579507499933243e-03
-3.611016646027565002e-02
5.066144093871116638e-02
4.639189690351486206e-02
-3.840859234333038330e-02
1.537137012928724289e-02
-2.098023705184459686e-02
-1.200325638055801392e-01
-5.157312378287315369e-02
-2.386512234807014465e-02
-1.657132245600223541e-02
-2.836564742028713226e-02
4.591064155101776123e-02
-3.048743307590484619e-02
-4.719223454594612122e-02
1.790928363334387541e-04
8.429390937089920044e-02
-4.768632352352142334e-02
-1.387398242950439453e-01
-8.735531941056251526e-03
-2.375303395092487335e-02
1.701520755887031555e-02
-2.724040672183036804e-02
-3.050270676612854004e-02
-4.186604171991348267e-02
-1.686126738786697388e-02
-3.019030205905437469e-02
-1.073418091982603073e-02
-5.010163038969039917e-02
2.625257335603237152e-02
-1.273041814565658569e-01
5.116338841617107391e-03
-5.066421255469322205e-02
-2.679434418678283691e-02
1.546461321413516998e-02
-3.956427797675132751e-03
-5.296792462468147278e-02
-7.662598043680191040e-02
3.349906578660011292e-02
2.476648241281509399e-02
-3.413687692955136299e-03
2.442031726241111755e-02
-2.933328785002231598e-02
1.342436391860246658e-02
5.087985098361968994e-02
-4.547745734453201294e-02
-3.492107614874839783e-02
-1.797298528254032135e-02
1.292298268526792526e-02
-7.130597531795501709e-02
5.593067035079002380e-02
-9.415777027606964111e-02
2.213726751506328583e-02
1.327024865895509720e-02
3.026222996413707733e-02
2.278934232890605927e-02
-1.767083816230297089e-02
3.374108299612998962e-02
-9.415869414806365967e-02
6.916882097721099854e-02
-5.870008841156959534e-02
-4.091620072722434998e-02
3.525871410965919495e-02
-4.456979781389236450e-02
5.034313537180423737e-03
-8.267727494239807129e-02
5.640587210655212402e-02
-9.217132814228534698e-03
5.099419131875038147e-02
-1.265055034309625626e-02
-1.162438392639160156e-01
-1.047274842858314514e-01
-3.946691006422042847e-02
-2.614665031433105469e-02
2.828302606940269470e-02
-5.222021043300628662e-02
1.694407872855663300e-02
-9.781249798834323883e-03
-9.431351721286773682e-02
4.745868593454360962e-02
1.413193158805370331e-02
-5.280655249953269958e-02
-3.586744144558906555e-02
-1.838854514062404633e-02
6.767629086971282959e-02
-5.956310778856277466e-02
-2.708048373460769653e-02
-7.521649450063705444e-02
2.829703502357006073e-02
-4.722601547837257385e-02
3.378232009708881378e-03
-5.929867178201675415e-02
-7.116032391786575317e-02
-6.415998190641403198e-02
-2.206280827522277832e-02
2.982855541631579399e-03
2.146224305033683777e-02
-3.313151001930236816e-02
-1.894604531116783619e-03
-1.200771518051624298e-02
5.197705235332250595e-03
7.546807825565338135e-02
-1.534884795546531677e-02
-1.073306705802679062e-02
7.074051536619663239e-03
3.319140151143074036e-02
-2.773519605398178101e-03
-4.436603281646966934e-03
4.099173471331596375e-02
-1.232556998729705811e-02
-1.163260340690612793e-01
3.429174050688743591e-02
-5.162606015801429749e-02
7.728220894932746887e-03
-4.693832248449325562e-02
-6.907270103693008423e-02
-8.116298168897628784e-02
-8.614951744675636292e-03
3.611810132861137390e-02
-5.094583146274089813e-03
-6.806620210409164429e-02
4.629411548376083374e-02
1.058555208146572113e-02
3.560642478987574577e-03
3.104293346405029297e-02
-4.391366243362426758e-02
-4.057469218969345093e-02
-4.542200639843940735e-02
3.677570074796676636e-02
-6.228179670870304108e-03
1.730190962553024292e-02
-5.821770429611206055e-02
-3.716836497187614441e-02
-3.591223806142807007e-02
3.046190598979592323e-03
-1.393897458910942078e-02
-5.799054354429244995e-02
-6.471585948020219803e-03
-1.210121996700763702e-02
-2.463173121213912964e-02
4.549452103674411774e-03
-1.519962307065725327e-02
-2.636828646063804626e-02
2.572892419993877411e-02
5.421887710690498352e-02
6.432972848415374756e-02
-8.533408492803573608e-02
1.949334749951958656e-03
1.336183119565248489e-02
-1.615093834698200226e-02
-3.572716191411018372e-02
3.712612763047218323e-02
-1.428390666842460632e-02
-1.092747300863265991e-01
-7.248498499393463135e-02
-3.678084909915924072e-02
-6.481909006834030151e-02
-2.730348147451877594e-02
4.389498382806777954e-02
2.473405748605728149e-02
2.877985686063766479e-02
1.809665188193321228e-02
5.457233637571334839e-02
-6.082390621304512024e-02
-5.756528303027153015e-02
-6.457278877496719360e-02
-1.113036498427391052e-01
-1.055708825588226318e-01
-4.426458477973937988e-02
-7.538089901208877563e-02
2.583003975450992584e-02
3.845006972551345825e-02
-7.479027658700942993e-02
4.441808909177780151e-02
-1.535155475139617920e-01
1.583604700863361359e-02
1.732069067656993866e-02
2.448240481317043304e-02
4.217550158500671387e-03
5.351600050926208496e-02
9.570322930812835693e-03
-9.445335716009140015e-03
5.081457644701004028e-02
1.393720507621765137e-02
-8.200915530323982239e-03
5.775362625718116760e-02
-3.493348881602287292e-02
-9.081994742155075073e-02
-4.820390418171882629e-02
-4.166818410158157349e-02
-5.920737166889011860e-04
-4.634858295321464539e-02
-1.010660664178431034e-03
-3.870090097188949585e-02
1.023014355450868607e-02
-5.141787230968475342e-02
-5.890050902962684631e-02
-7.598726451396942139e-02
5.298565700650215149e-02
-7.587318308651447296e-03
-6.657196208834648132e-03
2.406894043087959290e-02
-7.020051777362823486e-02
-2.819500118494033813e-02
-2.815898275002837181e-03
-1.814745925366878510e-02
-1.322056502103805542e-01
-4.400194063782691956e-02
-1.196872163563966751e-02
5.820003151893615723e-02
6.146011408418416977e-03
-4.696775285992771387e-04
-2.723847515881061554e-02
1.607327535748481750e-02
1.911068521440029144e-02
4.969184100627899170e-02
2.273185551166534424e-02
-8.461996167898178101e-02
5.005488172173500061e-02
-6.539445370435714722e-02
1.851884461939334869e-02
-4.614115878939628601e-02
-1.990585401654243469e-02
1.088180695660412312e-03
-4.976084828376770020e-02
3.601458296179771423e-02
8.041090331971645355e-03
-6.042064726352691650e-02
-9.307205677032470703e-02
-1.618766486644744873e-01
-1.042339727282524109e-01
1.065950636984780431e-04
-7.337822020053863525e-02
-5.437169596552848816e-02
5.349069461226463318e-02
-3.215693682432174683e-02
-7.524614036083221436e-02
9.775482118129730225e-03
-2.450470812618732452e-02
-9.439109265804290771e-02
-2.660234645009040833e-02
-9.127181954681873322e-03
-3.376734256744384766e-02
2.688474208116531372e-02
9.705388918519020081e-03
2.740657143294811249e-02
-2.862177323549985886e-03
1.087161060422658920e-02
-2.801032550632953644e-02
-7.801029086112976074e-02
-3.287838399410247803e-02
-2.945636212825775146e-02
-1.475949436426162720e-01
-9.621815755963325500e-03
7.192000746726989746e-02
-2.530017169192433357e-03
4.743028432130813599e-02
-9.045308828353881836e-02
-3.716062754392623901e-02
1.809147000312805176e-02
2.892724797129631042e-02
4.030461981892585754e-02
-2.073095180094242096e-03
-1.243580952286720276e-01
-9.127520024776458740e-03
5.078054964542388916e-02
-2.119651623070240021e-02
-1.062090881168842316e-02
3.687512502074241638e-02
-7.462482154369354248e-02
-8.927692472934722900e-02
1.256015268154442310e-03
-9.056078270077705383e-03
-9.142208844423294067e-02
-1.486900448799133301e-02
4.614133760333061218e-02
-1.595390588045120239e-02
-2.207643166184425354e-02
5.656144395470619202e-02
-5.946358200162649155e-03
2.479360811412334442e-02
3.550133854150772095e-02
2.201746590435504913e-02
-5.233642831444740295e-02
-1.179237384349107742e-02
-7.340521365404129028e-02
-3.520638123154640198e-02
-3.938942775130271912e-02
3.478444367647171021e-02
2.293441072106361389e-02
-7.603929936885833740e-02
4.437709599733352661e-02
1.845179311931133270e-02
-6.507337838411331177e-02
2.947593666613101959e-02
5.250309407711029053e-02
5.794446542859077454e-02
-6.905547808855772018e-03
9.488834068179130554e-03
-3.109343908727169037e-02
5.367442965507507324e-02
4.305100068449974060e-02
3.442009538412094116e-02
-9.605420380830764771e-02
-3.762205690145492554e-02
-7.200784981250762939e-02
6.939078867435455322e-02
-1.702702045440673828e-02
-3.904577717185020447e-02
-2.455193549394607544e-02
-4.866071790456771851e-02
-3.853279724717140198e-02
3.512159734964370728e-02
1.621656306087970734e-02
-4.145117104053497314e-02
1.207451149821281433e-02
-7.962444424629211426e-02
4.275060445070266724e-02
-4.484435915946960449e-02
8.569416590034961700e-03
-1.662564836442470551e-02
-1.176497433334589005e-02
1.842117495834827423e-02
1.644556643441319466e-03
8.799612522125244141e-02
4.422442987561225891e-02
-5.454302206635475159e-02
-5.326694995164871216e-02
9.922442957758903503e-03
-7.467225939035415649e-02
-3.405704349279403687e-02
-5.222063511610031128e-02
-4.171343147754669189e-02
-2.746654488146305084e-02
-6.224264577031135559e-02
-3.899728413671255112e-03
1.177441794425249100e-02
-4.972435906529426575e-02
-2.243519388139247894e-02
2.198958769440650940e-02
-3.286273032426834106e-02
-9.742046892642974854e-02
-2.126076817512512207e-02
-5.827974155545234680e-02
-2.575543336570262909e-02
9.027718752622604370e-02
-5.188152939081192017e-02
3.006192669272422791e-02
-2.866545133292675018e-02
5.526404455304145813e-02
4.940680228173732758e-03
2.214084379374980927e-02
-7.609695196151733398e-02
-2.452250197529792786e-02
-1.025788392871618271e-02
3.145501017570495605e-02
1.747801899909973145e-02
2.463203109800815582e-02
7.305650413036346436e-02
-8.140956610441207886e-02
1.010673027485609055e-02
5.176791176199913025e-02
-4.642627015709877014e-02
-8.411993086338043213e-02
3.250834345817565918e-02
8.293858729302883148e-03
5.243539065122604370e-02
-3.560537239536643028e-03
1.509983651340007782e-02
-9.158378094434738159e-02
6.620682310312986374e-03
-1.086724828928709030e-02
-5.877626314759254456e-02
3.805154934525489807e-02
1.641923375427722931e-02
-7.451220601797103882e-02
-5.355209484696388245e-02
4.259914904832839966e-02
1.328811328858137131e-02
7.055944204330444336e-02
-6.635956466197967529e-02
-3.982730209827423096e-02
1.953227911144495010e-03
3.196913003921508789e-02
-1.971209235489368439e-02
3.379603102803230286e-02
5.808855406939983368e-03
-7.111515104770660400e-02
-2.438721805810928345e-02
3.027493949048221111e-04
-1.398679707199335098e-02
-2.865194715559482574e-02
-5.667536333203315735e-02
-4.551846906542778015e-02
-7.221715897321701050e-02
-3.413233906030654907e-02
5.416278541088104248e-02
-3.788655996322631836e-02
-5.785492807626724243e-02
6.494035478681325912e-03
3.209657594561576843e-02
1.109878811985254288e-02
-5.308203771710395813e-02
-9.185105562210083008e-02
-1.677972450852394104e-02
-3.689809143543243408e-02
-7.578095793724060059e-02
-7.663898169994354248e-02
-5.046573281288146973e-02
-9.054657816886901855e-02
-5.720952525734901428e-02
-9.516793489456176758e-02
-1.374985277652740479e-01
7.079736795276403427e-03
-6.613068282604217529e-02
4.850484896451234818e-03
-3.716954216361045837e-02
4.515137523412704468e-02
-8.186302334070205688e-02
-3.541411459445953369e-02
-8.172261714935302734e-02
-5.329431034624576569e-03
-1.121775805950164795e-01
-3.474943712353706360e-02
-8.498841524124145508e-02
-2.504778467118740082e-02
-7.068358361721038818e-02
-1.488318890333175659e-01
-6.668129563331604004e-02
-1.029327586293220520e-01
2.265153452754020691e-03
-9.202116727828979492e-02
5.954051855951547623e-03
-1.055271849036216736e-01
-9.996621310710906982e-02
-4.931981489062309265e-02
-1.665098220109939575e-02
4.197171330451965332e-02
-3.561984375119209290e-02
5.903425626456737518e-03
-4.385058581829071045e-02
1.105986256152391434e-02
6.088733300566673279e-02
-1.400405168533325195e-01
3.766709193587303162e-02
-1.014578342437744141e-01
3.514950163662433624e-03
3.472031280398368835e-02
-4.524448420852422714e-03
7.051435112953186035e-02
-4.384478181600570679e-02
-8.803102374076843262e-02
1.141806170344352722e-01
1.320534665137529373e-02
-2.869377657771110535e-02
-1.181284040212631226e-01
-8.258451521396636963e-02
8.299995213747024536e-03
-3.755050897598266602e-02
2.652239985764026642e-02
2.843565121293067932e-02
-1.436433382332324982e-02
7.321260869503021240e-03
-1.879415661096572876e-02
6.540777161717414856e-03
-9.335264563560485840e-02
-5.007408931851387024e-02
-7.477807253599166870e-02
-1.115371808409690857e-01
-9.425699710845947266e-02
-4.495755583047866821e-02
-3.285486891400068998e-04
-3.935521095991134644e-02
-7.464509457349777222e-02
-1.475264597684144974e-02
-6.620547920465469360e-02
-2.205865830183029175e-02
-4.092214629054069519e-02
-8.760753273963928223e-02
-1.951116323471069336e-02
3.029055520892143250e-02
2.416473254561424255e-02
2.399574778974056244e-02
1.578481681644916534e-02
-3.813088685274124146e-02
3.360658511519432068e-02
-3.956108167767524719e-02
-9.006695449352264404e-02
-5.077483877539634705e-02
-1.174656823277473450e-01
-2.242852374911308289e-02
1.448673196136951447e-02
3.170482814311981201e-02
1.800522580742835999e-02
-6.241190806031227112e-02
1.707128994166851044e-02
-5.480639636516571045e-02
2.091294340789318085e-02
-4.723727330565452576e-02
-8.089656382799148560e-02
-1.038437336683273315e-02
-2.340542338788509369e-02
2.166267670691013336e-02
8.363096974790096283e-03
-7.652303576469421387e-02
-3.779110312461853027e-02
-6.345662288367748260e-03
-8.885451406240463257e-02
2.244984172284603119e-02
-5.869778245687484741e-02
-1.706270873546600342e-02
3.017690405249595642e-02
2.666665241122245789e-02
6.250123679637908936e-02
-5.191115662455558777e-02
-3.550837561488151550e-02
1.006041020154953003e-01
-6.003974005579948425e-02
-5.867308005690574646e-03
1.934856735169887543e-02
1.881086640059947968e-02
-2.190869487822055817e-02
4.139357060194015503e-02
2.034089341759681702e-02
-7.395806256681680679e-03
-7.028188090771436691e-03
4.843595623970031738e-02
-2.137858682544901967e-04
-1.400483585894107819e-02
9.416232816874980927e-03
-3.894411772489547729e-02
-4.286590963602066040e-03
3.931335173547267914e-03
-6.845596432685852051e-02
-2.635437808930873871e-02
1.265692058950662613e-02
6.266062706708908081e-02
-8.252077549695968628e-02
-6.573899835348129272e-02
-3.924310579895973206e-02
-4.790155589580535889e-02
4.039463028311729431e-02
-1.495292410254478455e-02
-4.625931754708290100e-02
-1.173364557325839996e-02
-1.649959757924079895e-02
-5.359018221497535706e-02
6.769422441720962524e-03
-1.682236045598983765e-02
-2.945367433130741119e-02
-1.197119057178497314e-01
5.032386630773544312e-02
-9.134206175804138184e-02
-5.588746815919876099e-02
-5.668049305677413940e-02
2.919815666973590851e-02
-7.391346991062164307e-02
-6.174630951136350632e-03
-2.442087605595588684e-02
-2.320873923599720001e-02
-2.020498551428318024e-02
-2.954337187111377716e-02
-7.320421189069747925e-02
-2.724263444542884827e-02
3.833362087607383728e-02
-3.861904889345169067e-02
-3.113463521003723145e-02
7.753330748528242111e-03
-3.929850459098815918e-02
-4.346494376659393311e-02
9.911037050187587738e-03
-1.233243104070425034e-02
3.036324307322502136e-02
2.166379988193511963e-02
-3.660103306174278259e-02
-4.878484085202217102e-02
-3.596427291631698608e-02
-2.196891419589519501e-02
-5.555390939116477966e-02
-1.740117208100855350e-03
2.596466802060604095e-02
-2.119767479598522186e-02
1.523378654383122921e-03
5.943327210843563080e-03
1.875252835452556610e-02
-2.814647508785128593e-03
-4.730119556188583374e-02
-2.098412998020648956e-02
4.737768322229385376e-02
3.744693472981452942e-02
-4.227903112769126892e-02
-1.233477797359228134e-02
3.033406659960746765e-02
2.968809381127357483e-02
-5.285917222499847412e-02
-5.443756934255361557e-03
7.158754393458366394e-03
2.551399543881416321e-02
-2.773162210360169411e-03
-9.153048158623278141e-04
-5.087339878082275391e-02
-5.202039610594511032e-03
-2.977460250258445740e-02
-3.620403259992599487e-02
-2.736685238778591156e-02
1.050380896776914597e-02
2.012534765526652336e-03
5.897023715078830719e-03
4.072206839919090271e-02
-5.727627500891685486e-02
-6.873863190412521362e-02
-6.896660476922988892e-02
2.774007059633731842e-02
1.543385908007621765e-02
-1.121726408600807190e-01
2.688997611403465271e-02
-6.999445706605911255e-02
-6.933464854955673218e-02
-6.139765679836273193e-02
-2.422506920993328094e-02
-1.452010311186313629e-02
-3.064165590330958366e-03
-1.537150703370571136e-02
-7.691814750432968140e-02
-1.313737593591213226e-02
-6.168563291430473328e-02
2.085472829639911652e-02
-3.774338634684681892e-03
3.689918294548988342e-02
-5.253921262919902802e-03
3.431057557463645935e-02
-1.294614002108573914e-02
-1.675581932067871094e-02
-5.117465555667877197e-02
4.338441416621208191e-02
1.798757724463939667e-02
-1.685886457562446594e-02
2.506782300770282745e-02
1.611943915486335754e-02
-4.129488021135330200e-02
6.661739200353622437e-03
1.219720579683780670e-02
-1.583629474043846130e-02
-6.622683722525835037e-03
4.665966331958770752e-02
-3.097037039697170258e-02
-1.793977618217468262e-02
-9.741348773241043091e-02
5.057378113269805908e-02
-5.800266191363334656e-02
-4.766130447387695312e-02
-5.842865630984306335e-02
-4.723228886723518372e-02
1.305542793124914169e-02
4.100260138511657715e-02
-4.989868029952049255e-02
1.529204845428466797e-02
1.551334653049707413e-02
4.419913515448570251e-03
-5.132000520825386047e-02
-5.084269121289253235e-02
-1.132761407643556595e-02
-9.341022814624011517e-04
-1.563304569572210312e-03
-5.141180381178855896e-02
-4.085748642683029175e-02
3.449295088648796082e-02
6.324792653322219849e-02
5.216322466731071472e-02
-1.550998445600271225e-02
-7.459423691034317017e-02
-6.701869517564773560e-02
-1.626079715788364410e-02
2.052060142159461975e-02
2.142266742885112762e-02
-3.549085557460784912e-02
-9.764874354004859924e-03
-5.968687590211629868e-03
-5.906070768833160400e-02
-1.246900483965873718e-02
-7.693699002265930176e-02
-3.770696744322776794e-02
-7.473284751176834106e-02
-2.618892677128314972e-02
3.188310191035270691e-02
4.680912196636199951e-02
-5.109347030520439148e-02
-7.456336915493011475e-02
-1.001428463496267796e-03
-3.332687169313430786e-02
-8.495936542749404907e-02
-4.740630462765693665e-02
-2.235160954296588898e-02
-3.924747183918952942e-02
3.995081409811973572e-02
-3.742967173457145691e-02
-3.591905161738395691e-02
-7.222895324230194092e-02
-1.062088739126920700e-02
-4.160011187195777893e-02
-2.883035130798816681e-02
-4.927580803632736206e-02
1.142876688390970230e-02
2.829020470380783081e-02
-3.699119389057159424e-02
1.851908117532730103e-02
-1.095787286758422852e-01
2.603800594806671143e-02
2.381362579762935638e-02
-2.336779236793518066e-02
-2.805230580270290375e-02
-8.992310613393783569e-02
6.194153428077697754e-02
-2.798461914062500000e-02
1.236808765679597855e-02
-6.111911684274673462e-02
-9.745065472088754177e-04
-6.342055276036262512e-03
-2.984266541898250580e-02
-6.255359947681427002e-02
-6.583520676940679550e-03
2.341260388493537903e-02
-7.384896278381347656e-02
6.199798546731472015e-03
-3.597382165025919676e-04
-9.769497066736221313e-02
-5.656347423791885376e-02
-1.411806792020797729e-01
2.201270312070846558e-03
9.749684832058846951e-04
-7.047142088413238525e-02
-1.018469780683517456e-01
-1.139177680015563965e-01
-4.030955210328102112e-02
5.821409076452255249e-02
4.431714862585067749e-02
-1.180239319801330566e-01
9.516987949609756470e-03
-4.792573675513267517e-02
-6.493671797215938568e-03
-3.895097598433494568e-02
4.923851788043975830e-02
2.145764045417308807e-02
-1.952656507492065430e-01
8.637021481990814209e-02
-9.241240471601486206e-02
-2.687924541532993317e-02
2.030993439257144928e-02
-8.045562356710433960e-02
-1.118740513920783997e-01
-1.785664074122905731e-02
5.596544127911329269e-03
-8.325879462063312531e-03
-1.577380597591400146e-01
-1.091806814074516296e-01
-9.059213101863861084e-02
-1.514121741056442261e-01
5.544010549783706665e-03
-3.569556772708892822e-02
-2.521950192749500275e-02
-1.071658730506896973e-01
-9.224507957696914673e-02
-2.514401264488697052e-02
-1.856081560254096985e-02
1.010308740660548210e-03
-1.171928271651268005e-01
-1.438680440187454224e-01
4.231875645928084850e-04
2.379059046506881714e-02
-3.662236779928207397e-02
-8.857125043869018555e-02
-1.087299957871437073e-01
-2.729969099164009094e-02
3.447462990880012512e-02
-6.388658285140991211e-02
7.614628970623016357e-02
-2.079218178987503052e-01
-1.194053236395120621e-02
-9.005873650312423706e-02
-6.650401651859283447e-02
1.473676599562168121e-02
3.505617612972855568e-03
-6.008167192339897156e-02
-2.575751394033432007e-02
2.059680037200450897e-02
-1.151086091995239258e-01
3.200402017682790756e-03
-1.316548287868499756e-01
-9.922645986080169678e-02
-9.336514025926589966e-02
-7.766029797494411469e-03
-7.804511487483978271e-02
-6.809880584478378296e-02
1.162979193031787872e-02
-1.051610261201858521e-01
-5.936516821384429932e-02
-1.394409537315368652e-01
-1.538836117833852768e-02
-8.131264708936214447e-03
1.373055856674909592e-03
-1.193386167287826538e-01
-1.174712833017110825e-02
2.370126172900199890e-02
1.968063972890377045e-02
4.682038724422454834e-02
5.920157209038734436e-02
2.001287974417209625e-02
-7.310984283685684204e-02
-4.286821186542510986e-02
-1.509440094232559204e-01
-6.039663404226303101e-02
-7.096420228481292725e-02
-1.578544229269027710e-01
-7.108838856220245361e-02
-2.972369082272052765e-02
-6.972817331552505493e-02
7.611603476107120514e-03
-5.433534458279609680e-02
-1.519635170698165894e-01
-5.353550240397453308e-02
1.609964855015277863e-02
-6.130478531122207642e-02
3.514822944998741150e-02
5.689763650298118591e-02
-4.010200127959251404e-02
-1.000731438398361206e-02
-4.798783361911773682e-02
-8.977815508842468262e-02
-6.587668508291244507e-02
-1.052434667944908142e-01
-4.487360641360282898e-02
2.327380515635013580e-02
-3.669141232967376709e-02
4.542544949799776077e-03
-4.587438330054283142e-02
-1.380732804536819458e-01
3.214237838983535767e-02
1.773289591073989868e-02
-3.283219411969184875e-02
2.666001021862030029e-02
-6.797658652067184448e-02
-2.100430056452751160e-02
5.284929648041725159e-03
-7.747576385736465454e-02
2.763133496046066284e-02
-2.829544432461261749e-02
-6.399674713611602783e-02
1.862121187150478363e-02
2.809072379022836685e-03
-9.453950077295303345e-02
3.284463658928871155e-02
-5.077812820672988892e-02
-9.441023319959640503e-02
-2.267666906118392944e-02
-7.285712659358978271e-02
-6.366468966007232666e-02
-5.501946434378623962e-02
-5.859283357858657837e-02
2.765621291473507881e-03
-6.074677407741546631e-02
-4.794633015990257263e-02
1.236844435334205627e-02
-7.970001548528671265e-02
4.216556553728878498e-04
-2.611952461302280426e-02
-8.573900908231735229e-03
-2.255389839410781860e-02
2.987352758646011353e-02
3.582180291414260864e-02
-7.385324686765670776e-02
-5.774146318435668945e-02
5.100072361528873444e-03
-8.319731801748275757e-02
-8.916989900171756744e-03
-7.510022073984146118e-02
3.950473037548363209e-04
3.118768893182277679e-02
-1.551332045346498489e-02
-1.320623699575662613e-02
-7.764647156000137329e-02
-3.758184239268302917e-02
-9.428297728300094604e-02
-1.067462414503097534e-01
-1.008351072669029236e-01
-6.827070564031600952e-02
1.744329743087291718e-02
-4.924803599715232849e-02
-5.647923424839973450e-02
9.651946835219860077e-03
-5.454276874661445618e-02
5.223321542143821716e-02
-5.142070353031158447e-02
5.833894386887550354e-02
-1.342737697996199131e-03
-6.318289041519165039e-02
3.776897490024566650e-02
-1.717563532292842865e-02
5.306977778673171997e-02
-1.070799157023429871e-01
-6.971672922372817993e-02
8.993805199861526489e-02
-3.671181574463844299e-02
2.537975460290908813e-02
2.382308617234230042e-02
-4.399307817220687866e-02
-1.307527627795934677e-02
5.907788500189781189e-02
1.646318560233339667e-05
-1.615031808614730835e-02
2.809775434434413910e-02
5.693660303950309753e-02
9.466036222875118256e-03
-7.769358158111572266e-02
8.025344461202621460e-03
1.371938269585371017e-02
-1.091998303309082985e-03
-1.014361456036567688e-01
-5.307413265109062195e-02
-9.053660184144973755e-02
-1.097541525959968567e-01
-1.487356983125209808e-02
-2.559247659519314766e-03
-5.939346551895141602e-02
-5.581371486186981201e-02
-6.785364449024200439e-02
5.266763269901275635e-02
3.420088812708854675e-02
4.918182268738746643e-03
-2.723654173314571381e-02
1.372982934117317200e-02
-9.847043082118034363e-03
3.578536584973335266e-02
2.002865448594093323e-02
-6.243366375565528870e-02
1.991102471947669983e-02
2.659821510314941406e-02
1.837678253650665283e-02
3.679750114679336548e-02
-6.989718228578567505e-02
2.967537939548492432e-02
-1.097749397158622742e-01
-3.722105175256729126e-02
-3.281996119767427444e-03
4.062382504343986511e-03
2.793200686573982239e-02
-6.201975047588348389e-02
1.063940394669771194e-02
-4.188748821616172791e-02
-8.927670121192932129e-02
5.611315369606018066e-02
-1.528982166200876236e-02
-4.184511303901672363e-02
-4.324907436966896057e-02
4.105535522103309631e-02
-4.405354708433151245e-02
-5.510111805051565170e-04
6.200926005840301514e-02
-1.725955121219158173e-02
-3.464206308126449585e-02
2.139893546700477600e-02
4.853528924286365509e-03
2.016550861299037933e-02
-8.609805256128311157e-03
2.993135340511798859e-02
-1.177605614066123962e-02
-2.683527022600173950e-02
9.973227977752685547e-03
-1.929488591849803925e-02
-3.990688547492027283e-02
-1.895685307681560516e-02
-4.185204952955245972e-02
-9.280101209878921509e-02
-1.236033905297517776e-02
-4.132082313299179077e-02
3.339258953928947449e-02
1.275196298956871033e-02
3.392229229211807251e-02
5.132013559341430664e-02
-6.034284085035324097e-02
-5.564172565937042236e-02
7.765772286802530289e-03
-8.899562060832977295e-02
-9.295046329498291016e-02
4.308000952005386353e-02
-1.103478111326694489e-02
3.035898879170417786e-02
-2.401572838425636292e-02
-7.756032049655914307e-02
-4.493948817253112793e-02
6.916052848100662231e-02
3.213639184832572937e-02
-5.382587760686874390e-02
-1.885553123429417610e-03
2.129872515797615051e-02
1.851753890514373779e-02
2.226897701621055603e-02
-8.881162106990814209e-02
-6.977753341197967529e-02
-1.364154275506734848e-02
-1.090332772582769394e-02
2.099936828017234802e-02
-1.607132554054260254e-01
-3.872332721948623657e-02
4.756027460098266602e-02
-1.062296926975250244e-01
5.059597268700599670e-02
-1.161729767918586731e-01
6.232209503650665283e-02
-2.996258996427059174e-02
-5.229306593537330627e-02
-7.805603742599487305e-02
3.679173812270164490e-02
-1.135371159762144089e-02
1.746860519051551819e-02
-4.965753853321075439e-02
5.256305914372205734e-03
9.185186773538589478e-02
-7.975945621728897095e-02
-6.231318786740303040e-02
5.015456117689609528e-04
-4.016852937638759613e-03
1.848844403866678476e-04
8.189439773559570312e-02
9.296685457229614258e-03
-4.537702351808547974e-02
-4.580705612897872925e-02
-6.115298718214035034e-02
-7.080529630184173584e-02
5.678892135620117188e-03
6.912449840456247330e-03
4.361405596137046814e-02
1.567897386848926544e-02
2.520079910755157471e-02
4.414130235090851784e-04
-2.619626559317111969e-02
-1.962161436676979065e-02
-6.416398100554943085e-03
8.066368103027343750e-02
-5.417474359273910522e-02
-6.133525818586349487e-02
-2.559982426464557648e-02
4.953859839588403702e-03
7.117584347724914551e-02
7.514169812202453613e-02
-2.851148508489131927e-02
5.018128547817468643e-03
-1.450684070587158203e-01
6.028619036078453064e-02
-4.711886495351791382e-02
-5.657098069787025452e-02
1.842287182807922363e-02
4.475563473533838987e-04
-8.412133157253265381e-02
-1.093906238675117493e-01
2.907047793269157410e-02
1.428502518683671951e-02
1.860580034554004669e-02
3.955628722906112671e-02
5.229605827480554581e-03
-6.292316317558288574e-02
2.376586012542247772e-02
4.409551993012428284e-02
2.466163598001003265e-02
-3.865113109350204468e-02
5.712195485830307007e-02
-4.823735356330871582e-02
-1.473633106797933578e-02
-5.829687044024467468e-02
2.123023569583892822e-02
-5.070673301815986633e-02
3.466605767607688904e-02
2.382422052323818207e-02
-1.944004930555820465e-02
6.120477989315986633e-02
-1.184857636690139771e-01
3.222626075148582458e-02
-9.164733812212944031e-03
-6.773313879966735840e-02
-2.168802917003631592e-02
-1.989239640533924103e-02
-3.076275810599327087e-02
-4.922445118427276611e-02
4.088072478771209717e-02
-4.252446815371513367e-02
-1.907604187726974487e-01
-3.050541132688522339e-02
1.612116396427154541e-02
3.440744802355766296e-02
-4.808580130338668823e-02
-1.083691641688346863e-01
-1.487135142087936401e-01
-1.253786683082580566e-01
-9.450460225343704224e-02
-9.916000068187713623e-03
1.992475427687168121e-02
3.264992311596870422e-02
-2.496511151548475027e-04
-4.087234288454055786e-02
-2.532909996807575226e-02
-5.495129153132438660e-02
-6.838425528258085251e-03
-5.576396733522415161e-02
-8.710276335477828979e-02
-2.437678724527359009e-02
4.577170684933662415e-02
-6.384378764778375626e-03
2.808714285492897034e-02
-1.450160983949899673e-02
