-6.531611084938049316e-02
-1.453690230846405029e-01
-9.353832900524139404e-02
-9.779603220522403717e-03
-5.339933186769485474e-02
-6.510245054960250854e-02
-7.739730179309844971e-02
-3.185883164405822754e-02
-6.998991221189498901e-02
-7.540061604231595993e-03
4.065163806080818176e-02
1.307428777217864990e-01
-5.685613676905632019e-02
-5.109708290547132492e-03
2.265369705855846405e-02
4.108230769634246826e-02
3.843419253826141357e-02
6.514844298362731934e-02
-1.107119619846343994e-01
2.881795354187488556e-02
8.050545305013656616e-02
-5.090504884719848633e-03
3.882365301251411438e-03
-3.791011497378349304e-02
7.993219792842864990e-02
6.907087750732898712e-03
-1.216863002628087997e-02
-3.456927090883255005e-02
7.072556763887405396e-02
2.802517823874950409e-02
1.826139912009239197e-02
8.800242841243743896e-02
-2.907418832182884216e-02
8.291572332382202148e-02
7.829775661230087280e-02
1.000257302075624466e-02
9.578040242195129395e-02
1.708034612238407135e-02
6.043601408600807190e-02
-6.938673090189695358e-03
-1.047798171639442444e-01
-9.808605909347534180e-02
-5.032666027545928955e-02
-1.241176053881645203e-01
-7.937106490135192871e-02
-3.469885140657424927e-02
3.208211436867713928e-02
-2.806912176311016083e-03
4.890191927552223206e-02
-3.855526074767112732e-02
-3.413599357008934021e-02
5.666319653391838074e-02
9.523859620094299316e-02
-4.251163825392723083e-02
1.345295608043670654e-01
7.778857648372650146e-02
-5.622352287173271179e-02
-2.756367623805999756e-02
-5.683290306478738785e-03
2.119731716811656952e-02
2.162366360425949097e-02
-4.255074262619018555e-02
-1.679274290800094604e-01
3.598090261220932007e-02
2.075362578034400940e-02
-1.542176702059805393e-03
6.245000287890434265e-02
2.255774103105068207e-03
-1.014190465211868286e-01
-1.343489438295364380e-01
-1.104209274053573608e-01
-1.241963133215904236e-01
8.146283216774463654e-03
-5.647909268736839294e-02
-2.065118961036205292e-02
2.290094562340527773e-04
-3.294801339507102966e-02
7.050535827875137329e-02
-1.883497461676597595e-04
-3.539571538567543030e-02
-6.449899822473526001e-02
1.358602344989776611e-01
3.657747060060501099e-02
4.555016383528709412e-02
8.835083805024623871e-03
1.018711458891630173e-02
-1.205273345112800598e-01
-5.841986089944839478e-02
6.872657686471939087e-03
-1.554168313741683960e-01
-1.292511634528636932e-02
-4.290358722209930420e-02
6.803486496210098267e-02
2.148708514869213104e-02
-3.499688580632209778e-02
-3.778881952166557312e-02
6.514644622802734375e-02
7.208261638879776001e-02
-7.782518863677978516e-02
-8.724452927708625793e-03
-7.910175621509552002e-02
2.238663844764232635e-02
7.504404522478580475e-03
-1.001393124461174011e-01
-3.483088314533233643e-02
2.785693481564521790e-02
-4.425093159079551697e-02
-5.840156972408294678e-02
3.655830025672912598e-02
9.639603085815906525e-03
-5.914975423365831375e-03
4.293908178806304932e-02
-2.438527718186378479e-02
-7.967561483383178711e-02
-4.230719059705734253e-02
-6.261886656284332275e-02
2.263557910919189453e-02
2.085673622786998749e-02
3.293942660093307495e-02
-2.813547849655151367e-03
2.333798212930560112e-03
3.396582556888461113e-03
5.581501871347427368e-02
-2.374460734426975250e-02
4.344258923083543777e-03
-6.297505646944046021e-02
8.596108108758926392e-02
5.514610558748245239e-02
7.235729694366455078e-02
7.578657567501068115e-02
-5.996384192258119583e-03
4.783726856112480164e-02
1.077009737491607666e-01
-5.295301601290702820e-02
-1.125943511724472046e-01
1.141330897808074951e-01
5.823017284274101257e-02
7.395302504301071167e-02
5.641712248325347900e-02
9.473090060055255890e-03
-4.835228901356458664e-03
1.875709742307662964e-02
4.607885330915451050e-02
-1.244538798928260803e-01
5.169494450092315674e-02
5.084111541509628296e-02
1.085593085736036301e-02
7.633643690496683121e-03
9.526181221008300781e-02
-2.002210915088653564e-02
1.111733615398406982e-01
-4.322713613510131836e-02
-8.572989702224731445e-02
6.038571521639823914e-02
-2.122805453836917877e-02
-6.486285477876663208e-02
1.286310493014752865e-03
-1.240232400596141815e-02
-6.538046058267354965e-03
-1.798878796398639679e-02
-9.783549606800079346e-02
-1.474768761545419693e-02
-1.976519636809825897e-02
-5.768563598394393921e-02
3.792892768979072571e-02
-7.681880891323089600e-02
-1.216933354735374451e-01
3.612229228019714355e-02
-1.470265537500381470e-01
-1.001383364200592041e-01
-2.898734249174594879e-02
-9.447090327739715576e-02
-5.379999801516532898e-02
-1.376987062394618988e-02
5.324182659387588501e-02
2.101694419980049133e-02
-7.453318219631910324e-03
-8.690539747476577759e-03
1.676679588854312897e-02
-2.729235216975212097e-02
-4.280420392751693726e-02
-5.423165857791900635e-02
3.852435946464538574e-02
-6.793584674596786499e-02
-3.727742657065391541e-02
2.830697968602180481e-02
1.137712374329566956e-01
8.424223214387893677e-02
2.613799273967742920e-02
-1.165760904550552368e-01
-7.079218979924917221e-03
-3.360718116164207458e-02
5.442700162529945374e-02
1.131525496020913124e-03
5.713844299316406250e-02
1.062377095222473145e-01
6.012340635061264038e-02
4.877755045890808105e-02
3.166545182466506958e-02
-4.092901945114135742e-02
2.429668605327606201e-02
-4.072994366288185120e-02
-2.572932513430714607e-03
5.779837071895599365e-02
5.674898251891136169e-02
8.828140050172805786e-02
-2.199465036392211914e-02
-7.521775364875793457e-02
-4.139313474297523499e-03
9.507349878549575806e-02
-1.083055362105369568e-01
-2.864489145576953888e-02
1.066755801439285278e-01
-1.059809979051351547e-02
-9.788515977561473846e-03
5.213977396488189697e-02
5.103690782561898232e-04
7.008265703916549683e-02
-7.595390826463699341e-02
6.157717853784561157e-02
-3.391020745038986206e-02
2.984260953962802887e-02
5.861742794513702393e-02
8.062820136547088623e-02
-8.226414769887924194e-02
3.244104236364364624e-02
2.855169400572776794e-02
7.257927954196929932e-02
-6.679729092866182327e-03
1.073419228196144104e-01
7.559576630592346191e-02
-4.854571074247360229e-02
1.004635691642761230e-01
2.852445840835571289e-02
-9.801731258630752563e-02
-8.765965700149536133e-02
2.175790816545486450e-02
-7.833497226238250732e-02
2.144736424088478088e-02
-5.067084357142448425e-02
-1.387824676930904388e-02
8.958414196968078613e-03
2.859336137771606445e-02
7.802005857229232788e-02
-2.966126799583435059e-02
-4.955145344138145447e-02
2.539708279073238373e-02
-1.814952865242958069e-02
-6.544296443462371826e-02
2.212139591574668884e-02
2.802090346813201904e-02
-1.039038151502609253e-01
1.236167363822460175e-02
6.264915689826011658e-03
4.318525269627571106e-02
-1.723192185163497925e-01
-8.461468666791915894e-02
2.138067223131656647e-02
-5.794563796371221542e-03
9.750653803348541260e-02
1.323722153902053833e-01
1.128363795578479767e-02
5.888551846146583557e-02
-2.525019645690917969e-02
3.307720646262168884e-02
-1.274017989635467529e-01
1.635373756289482117e-02
-7.697653770446777344e-02
2.973392605781555176e-02
-6.598664075136184692e-02
-8.597617596387863159e-02
4.377311468124389648e-02
9.457798302173614502e-02
4.385168198496103287e-03
-1.316893752664327621e-02
6.311276555061340332e-02
6.122210621833801270e-02
1.830201782286167145e-02
-5.700953677296638489e-02
-1.381905078887939453e-01
-3.854433819651603699e-02
3.569267690181732178e-02
-3.397792205214500427e-02
5.136908218264579773e-02
4.603556916117668152e-02
1.472416799515485764e-02
9.188226610422134399e-02
1.369206700474023819e-02
2.930931514129042625e-03
-4.934876784682273865e-02
3.162425011396408081e-02
-1.106071770191192627e-01
-3.072788566350936890e-02
-5.219844728708267212e-02
1.635112240910530090e-02
3.517287224531173706e-02
6.972445547580718994e-02
1.966007240116596222e-02
-6.011134758591651917e-02
-1.174182966351509094e-01
-6.873975973576307297e-03
-4.676399007439613342e-02
-4.262917488813400269e-02
8.390113711357116699e-02
9.063805191544815898e-05
-9.147276729345321655e-02
7.745215296745300293e-02
1.027104556560516357e-01
8.335890248417854309e-03
4.315363615751266479e-02
6.710420548915863037e-02
-2.515041455626487732e-02
7.467058300971984863e-02
6.490953732281923294e-03
-8.527451008558273315e-02
5.829590186476707458e-02
-5.576385185122489929e-02
6.503143906593322754e-02
-7.246447261422872543e-03
-7.324678450822830200e-02
7.514387369155883789e-02
8.534915000200271606e-02
-6.109078228473663330e-02
-7.703720126301050186e-03
1.035440936684608459e-01
3.007135586813092232e-03
-5.296110361814498901e-02
-1.125596836209297180e-02
-3.615022078156471252e-02
2.549828588962554932e-02
-9.017255157232284546e-02
-2.591852098703384399e-02
6.731679290533065796e-02
9.657289832830429077e-02
-2.411139197647571564e-02
5.865296721458435059e-02
1.045550629496574402e-01
8.586713112890720367e-03
-1.556102372705936432e-02
1.624124683439731598e-02
6.782212760299444199e-03
-1.543750464916229248e-01
-5.212923511862754822e-02
-1.739702373743057251e-02
-7.932720333337783813e-02
-4.271899815648794174e-03
-8.548416197299957275e-02
-6.499323248863220215e-02
-6.989561766386032104e-02
3.424504771828651428e-02
-4.121568799018859863e-02
-9.263536334037780762e-02
-2.767421118915081024e-02
-6.641363352537155151e-02
-5.374698713421821594e-02
-5.351251363754272461e-02
-9.424290806055068970e-02
-1.033921912312507629e-01
8.405269123613834381e-03
-1.420590095221996307e-02
8.964363485574722290e-02
-2.972201630473136902e-02
1.990542933344841003e-02
-2.130407840013504028e-02
-8.206111937761306763e-02
-5.558126047253608704e-02
-5.147128552198410034e-02
-1.286443918943405151e-01
-1.667484045028686523e-01
-7.704623043537139893e-02
-8.600256592035293579e-02
-1.221739873290061951e-01
2.487096376717090607e-02
-1.352586150169372559e-01
-3.303936123847961426e-02
-1.280439049005508423e-01
-3.305024653673171997e-02
-1.231080740690231323e-01
5.852365866303443909e-03
4.960763081908226013e-02
4.625444486737251282e-02
1.008882224559783936e-01
5.939380824565887451e-02
-5.241369083523750305e-02
5.929692462086677551e-02
-7.170853018760681152e-02
-6.046447902917861938e-02
3.421610966324806213e-02
-6.076437979936599731e-02
-2.304113237187266350e-03
-6.011954694986343384e-02
4.639026895165443420e-02
-1.214937120676040649e-01
3.693884983658790588e-02
-5.310134589672088623e-02
-7.614438980817794800e-02
4.527935758233070374e-02
1.077778451144695282e-02
-9.378723800182342529e-02
-1.244907546788454056e-02
5.559678748250007629e-02
7.998491823673248291e-02
-8.909070165827870369e-04
7.332842797040939331e-02
2.709429338574409485e-02
-6.637854129076004028e-02
-6.972048897296190262e-03
-9.228672832250595093e-02
7.279788702726364136e-02
-1.986614428460597992e-02
1.876804232597351074e-02
-4.110259935259819031e-03
7.244451437145471573e-03
-4.708533361554145813e-02
3.624984994530677795e-02
-4.677899926900863647e-02
1.673268526792526245e-02
-3.574266284704208374e-02
-1.083090901374816895e-01
-2.631816267967224121e-02
-1.677937991917133331e-02
-1.032195165753364563e-01
-1.976563781499862671e-02
3.107166662812232971e-02
-5.293989926576614380e-02
-1.232857350260019302e-02
-1.348967403173446655e-01
-1.048762202262878418e-01
-5.067956820130348206e-02
-1.408839076757431030e-01
-6.838101893663406372e-03
-1.717080771923065186e-01
1.202972158789634705e-01
1.867237314581871033e-02
-2.864866703748703003e-02
8.582903444766998291e-02
-6.817361712455749512e-02
8.656501024961471558e-02
1.339693740010261536e-02
-7.501661777496337891e-02
-1.479857116937637329e-01
-6.965218577533960342e-03
-1.892596669495105743e-02
3.913247212767601013e-02
-2.241978794336318970e-02
-1.712048426270484924e-02
-8.802910149097442627e-02
-1.197965741157531738e-01
-9.434902667999267578e-02
-3.265462443232536316e-02
4.792040213942527771e-03
-7.397438585758209229e-02
-4.326432198286056519e-02
6.293515115976333618e-02
2.176027558743953705e-02
3.149246051907539368e-02
-5.949652567505836487e-02
1.079053059220314026e-01
1.377231478691101074e-01
-8.869718760251998901e-02
-9.347313642501831055e-02
-9.232973679900169373e-03
-2.317406982183456421e-02
7.017742376774549484e-03
1.295416355133056641e-01
-1.271026022732257843e-02
-5.497047677636146545e-02
6.353309005498886108e-02
1.074167266488075256e-01
9.781463444232940674e-02
-3.386530652642250061e-02
1.611553691327571869e-02
4.909437894821166992e-02
-7.097683846950531006e-02
-1.272941567003726959e-02
-5.877526476979255676e-02
-5.330774560570716858e-02
9.952993132174015045e-03
-1.319072674959897995e-02
-5.405563488602638245e-02
-8.125473745167255402e-03
-6.690672785043716431e-02
4.221710935235023499e-02
8.177823573350906372e-02
5.424869060516357422e-02
-1.640758216381072998e-01
3.751303628087043762e-02
5.566459521651268005e-02
1.907275244593620300e-02
9.789920598268508911e-02
-4.195784777402877808e-02
3.651067987084388733e-02
7.509940862655639648e-02
2.219395246356725693e-03
5.218465253710746765e-02
-3.948983550071716309e-02
6.542123109102249146e-02
-6.213210150599479675e-02
2.690060809254646301e-02
1.303710937500000000e-01
2.351305633783340454e-02
3.969685360789299011e-02
1.251438260078430176e-01
1.259481906890869141e-01
9.127428382635116577e-02
-2.222566865384578705e-02
9.288112074136734009e-02
3.438860643655061722e-03
-7.608395814895629883e-02
2.149814553558826447e-02
2.698780409991741180e-02
-1.608209758996963501e-01
-9.291028976440429688e-02
-5.014840885996818542e-02
1.036366075277328491e-01
-3.815805539488792419e-02
-1.350060850381851196e-02
-1.333707664161920547e-02
3.002761676907539368e-02
2.667910419404506683e-02
8.229797333478927612e-02
-1.534515339881181717e-02
1.161980107426643372e-01
-3.527507185935974121e-02
-2.849325770512223244e-03
2.758118556812405586e-03
-6.438162922859191895e-02
-7.023201789706945419e-03
7.953821867704391479e-02
-6.763068586587905884e-02
-1.399018019437789917e-01
6.490898132324218750e-02
-5.094066634774208069e-02
5.925786867737770081e-02
-4.992645233869552612e-02
9.891544468700885773e-04
4.514026269316673279e-02
-6.062106695026159286e-03
-5.215290561318397522e-02
-3.965521231293678284e-02
-3.233080264180898666e-03
-4.907405748963356018e-02
2.386432699859142303e-02
8.762701600790023804e-02
7.338796555995941162e-02
-2.209910564124584198e-02
2.861436270177364349e-02
2.154042571783065796e-02
1.047907918691635132e-01
-5.908440798521041870e-02
4.660447686910629272e-02
-1.228598505258560181e-02
-8.117041736841201782e-02
-6.953387707471847534e-02
-1.240286082029342651e-01
-7.130899280309677124e-02
-5.322122573852539062e-02
-1.400110721588134766e-01
4.030446708202362061e-02
9.569476544857025146e-02
4.152279719710350037e-02
6.558808684349060059e-02
5.644045770168304443e-03
-5.374722555279731750e-02
7.341364771127700806e-02
4.231201484799385071e-02
1.341571193188428879e-02
-3.301928192377090454e-02
-6.333377212285995483e-02
-1.226659566164016724e-01
9.328340739011764526e-02
-2.624764479696750641e-02
-7.698548026382923126e-03
1.180583983659744263e-01
2.346816286444664001e-02
-8.539544790983200073e-02
-1.096067354083061218e-01
-1.635113954544067383e-01
-1.118712872266769409e-01
-5.917501077055931091e-02
-1.052371114492416382e-01
-1.192421615123748779e-01
-1.118678003549575806e-01
-6.602995842695236206e-02
-5.569727718830108643e-02
-1.529623866081237793e-01
-3.896170109510421753e-02
-3.844605013728141785e-02
-3.277342393994331360e-02
-9.840910881757736206e-02
3.020993433892726898e-02
2.330042421817779541e-02
-1.186546534299850464e-01
1.652386155910789967e-03
-8.025001734495162964e-02
-5.462996289134025574e-02
-5.359420180320739746e-02
4.426674544811248779e-02
-6.235341727733612061e-02
2.551170624792575836e-02
3.357117623090744019e-02
2.252942323684692383e-02
7.289419323205947876e-02
-5.542789772152900696e-02
2.903420291841030121e-02
4.612236842513084412e-02
7.820747047662734985e-02
-4.352147132158279419e-02
3.978786244988441467e-02
-1.026151236146688461e-02
1.156487464904785156e-01
1.596975838765501976e-03
-7.298704981803894043e-02
6.615588068962097168e-02
-7.073415815830230713e-02
7.572844624519348145e-02
9.789837524294853210e-03
-1.692801415920257568e-01
-4.995250701904296875e-02
5.971037968993186951e-02
-8.231838047504425049e-02
-3.838846087455749512e-02
-5.044070631265640259e-02
3.890807926654815674e-02
4.696440324187278748e-02
3.155719488859176636e-02
-8.861401118338108063e-03
1.101227253675460815e-01
2.211196348071098328e-03
5.503436177968978882e-02
-5.413816124200820923e-02
3.635067492723464966e-03
-9.541139006614685059e-02
3.822244703769683838e-02
-3.407933400012552738e-04
-1.436200439929962158e-01
5.057847499847412109e-02
-2.284447662532329559e-02
-1.689435541629791260e-01
-1.940715871751308441e-02
-4.162471741437911987e-02
-1.076947152614593506e-01
-3.367470949888229370e-02
-1.661212742328643799e-01
-1.438488513231277466e-01
-7.226494699716567993e-02
-1.500459164381027222e-01
-1.485692113637924194e-01
2.687949873507022858e-02
8.650097064673900604e-03
5.879059806466102600e-02
1.304953941144049168e-03
5.306979268789291382e-02
1.973452791571617126e-02
-4.725901409983634949e-02
-3.051240369677543640e-02
8.588409423828125000e-02
4.024372622370719910e-02
-8.547614514827728271e-02
-2.774029225111007690e-02
9.344650059938430786e-02
-9.258513897657394409e-02
-1.494305431842803955e-01
-2.742567472159862518e-02
-4.179362580180168152e-02
-1.685694903135299683e-01
-1.825532875955104828e-03
3.434867411851882935e-02
1.012165546417236328e-01
9.929869323968887329e-02
-2.121475338935852051e-02
6.481273472309112549e-02
3.875722177326679230e-03
1.045007072389125824e-02
1.536402292549610138e-02
-7.239326089620590210e-02
-9.282805770635604858e-02
-4.943682625889778137e-02
-1.540837138891220093e-01
-1.514806225895881653e-02
-5.193219054490327835e-03
-2.293132245540618896e-02
-9.769415855407714844e-02
-2.675471641123294830e-02
-2.372870966792106628e-02
8.082959800958633423e-03
2.409738488495349884e-02
-6.229829415678977966e-02
-4.485796019434928894e-02
-8.566740900278091431e-02
4.675199463963508606e-02
-3.854000568389892578e-02
-3.593698516488075256e-02
-2.949112653732299805e-02
-2.259518951177597046e-02
-1.563986986875534058e-01
-8.017344772815704346e-02
-9.100362658500671387e-03
-5.045636370778083801e-02
2.271535992622375488e-02
-3.602408990263938904e-02
-6.302876025438308716e-02
-1.781780389137566090e-03
4.198882356286048889e-02
1.046117618680000305e-01
-1.847516000270843506e-02
-5.327884107828140259e-02
7.356311380863189697e-02
8.703109622001647949e-02
2.724635973572731018e-02
-5.025445669889450073e-02
9.235806763172149658e-02
-9.968930482864379883e-02
5.560993030667304993e-02
3.398785367608070374e-02
-8.584293536841869354e-03
-6.109704077243804932e-02
-9.823154658079147339e-03
-5.060737952589988708e-02
-7.758533209562301636e-02
-5.324344965629279613e-04
-4.103239998221397400e-02
8.881057798862457275e-02
3.532873094081878662e-02
2.895753458142280579e-02
7.945422828197479248e-02
4.239082336425781250e-02
-3.236386924982070923e-02
6.279505044221878052e-02
-2.357665263116359711e-02
-3.216684609651565552e-02
9.359454736113548279e-03
8.988327533006668091e-02
-1.126055419445037842e-01
-1.432478725910186768e-01
-2.223985502496361732e-03
1.609098538756370544e-02
-9.074732661247253418e-02
-1.215434893965721130e-01
-5.360977724194526672e-02
-2.646403573453426361e-02
4.854574799537658691e-02
-9.226154536008834839e-02
-2.483994513750076294e-02
9.346592240035533905e-03
-6.129191815853118896e-02
-1.842802464962005615e-01
-1.025321334600448608e-02
1.347647514194250107e-02
5.984062701463699341e-02
2.954436931759119034e-03
-1.148666143417358398e-01
-3.793848911300301552e-03
-5.882675945758819580e-02
-3.627597540616989136e-02
-6.128572672605514526e-02
-2.548191696405410767e-03
-4.757764562964439392e-02
-4.845036938786506653e-02
4.439510405063629150e-02
2.707268111407756805e-02
7.999959588050842285e-02
-3.440941125154495239e-02
4.208617657423019409e-02
-5.838988348841667175e-02
-6.070642918348312378e-02
7.063122093677520752e-02
1.664398470893502235e-03
6.147708371281623840e-02
-4.934136290103197098e-03
7.150591164827346802e-02
1.331088598817586899e-02
5.084744468331336975e-02
-9.105613827705383301e-02
-9.263378381729125977e-02
3.240364044904708862e-02
1.058621853590011597e-01
6.582557410001754761e-02
-4.352530837059020996e-02
3.800568357110023499e-02
8.888985216617584229e-02
3.012341074645519257e-02
4.198996722698211670e-02
-7.848501950502395630e-02
-3.971653059124946594e-02
-6.937597412616014481e-03
8.675945922732353210e-03
-8.367352187633514404e-02
-2.315954491496086121e-02
-7.825427502393722534e-02
2.684082835912704468e-02
-1.133348122239112854e-01
-5.380430072546005249e-02
9.545549750328063965e-02
1.258291155099868774e-01
-3.433998674154281616e-02
5.480678007006645203e-02
1.050233393907546997e-01
4.590890184044837952e-02
6.866213679313659668e-02
-3.703407198190689087e-02
-8.440476655960083008e-02
-1.105837076902389526e-01
-2.846811339259147644e-02
-9.250950068235397339e-02
-5.437338724732398987e-02
-6.735498458147048950e-02
-6.301248073577880859e-02
-9.482888132333755493e-02
-1.010992750525474548e-01
-3.403311967849731445e-02
6.482669711112976074e-02
2.290977723896503448e-02
-2.725793980062007904e-02
6.490528583526611328e-02
8.279223740100860596e-02
6.670156121253967285e-02
1.055509075522422791e-01
6.857514381408691406e-03
8.396266400814056396e-02
5.321335420012474060e-02
-6.183437071740627289e-04
7.144519686698913574e-02
6.262172013521194458e-02
4.675373807549476624e-02
7.203815132379531860e-02
9.708279371261596680e-02
7.848827540874481201e-02
-5.593973398208618164e-02
-1.292571872472763062e-01
-1.279763281345367432e-01
-1.673267930746078491e-01
-1.147407144308090210e-01
6.520274281501770020e-02
-5.644286796450614929e-02
-4.303260892629623413e-02
1.094091217964887619e-02
-3.571137413382530212e-02
-2.938766556326299906e-04
-1.267192661762237549e-01
6.397596001625061035e-02
-1.613811254501342773e-01
-8.770561777055263519e-03
-7.372865080833435059e-02
-1.413460522890090942e-01
-1.820549368858337402e-01
3.623006865382194519e-02
9.989343583583831787e-02
1.235190331935882568e-01
8.493724465370178223e-02
-1.322299428284168243e-02
-1.602998562157154083e-02
5.885308980941772461e-02
-1.957545615732669830e-02
5.865930113941431046e-03
-1.060764268040657043e-01
-1.378513965755701065e-02
-1.157837808132171631e-01
-9.581676125526428223e-02
6.722603575326502323e-04
-4.041022062301635742e-02
-1.608042232692241669e-02
-6.076752394437789917e-02
-1.307834684848785400e-01
-9.375226497650146484e-02
2.368636615574359894e-02
-1.417126785963773727e-02
-9.952767938375473022e-02
5.297747999429702759e-02
-3.472798690199851990e-02
5.750639364123344421e-02
-8.142901211977005005e-02
-7.530186325311660767e-02
-7.314122468233108521e-02
3.128714486956596375e-02
3.657910972833633423e-02
7.920863106846809387e-03
5.174759402871131897e-02
-3.810561448335647583e-02
-4.681966826319694519e-02
-6.421398371458053589e-02
4.530695453286170959e-02
-3.363786265254020691e-02
7.132320851087570190e-02
6.131114065647125244e-02
6.412156671285629272e-02
-4.701763764023780823e-02
4.785233736038208008e-02
-1.956125022843480110e-03
3.200624510645866394e-02
1.277545001357793808e-02
4.305390268564224243e-02
-5.404751747846603394e-02
2.759719965979456902e-03
5.861572548747062683e-02
7.432897109538316727e-03
-6.603843718767166138e-02
-4.587688669562339783e-02
6.760663539171218872e-02
-9.386351704597473145e-02
2.917905338108539581e-02
2.829696610569953918e-02
-9.291432052850723267e-02
-3.316668048501014709e-02
-2.134311944246292114e-02
1.636836677789688110e-02
-5.507986247539520264e-02
5.044683441519737244e-02
-8.601999282836914062e-02
-4.214657098054885864e-02
-2.474352950230240822e-03
-6.368943303823471069e-02
2.893969602882862091e-02
-6.157718226313591003e-02
4.228504374623298645e-02
-5.060931667685508728e-02
-7.915610820055007935e-02
-2.377559803426265717e-02
-1.065715868026018143e-02
-1.257333066314458847e-02
4.701911285519599915e-02
2.738921158015727997e-02
-2.382639097049832344e-03
-7.193046808242797852e-02
9.474864229559898376e-03
5.213759839534759521e-02
-1.544008776545524597e-02
-8.678530156612396240e-02
-1.218944415450096130e-02
-5.096862092614173889e-02
4.537852853536605835e-02
4.562941938638687134e-02
-1.170759089291095734e-03
4.251676052808761597e-02
-8.379098773002624512e-02
-3.183789178729057312e-02
6.519264727830886841e-02
-6.849726662039756775e-03
-7.252504676580429077e-02
4.901807382702827454e-02
-7.929467409849166870e-02
-3.336099535226821899e-02
-3.147205710411071777e-02
3.343904763460159302e-02
-5.822392180562019348e-03
-8.221382647752761841e-02
-9.424321353435516357e-02
4.848317429423332214e-02
6.194306910037994385e-02
5.454100668430328369e-02
-4.173423349857330322e-02
3.160686418414115906e-02
1.748191379010677338e-02
4.008162394165992737e-02
-8.097398281097412109e-02
2.934611029922962189e-02
-9.052393585443496704e-02
1.060396153479814529e-02
-6.451947242021560669e-02
1.292569749057292938e-02
-3.354237601161003113e-02
-6.010016426444053650e-02
-9.487001597881317139e-02
-1.982305757701396942e-02
-2.503757551312446594e-02
6.723948568105697632e-02
4.287924617528915405e-02
4.150099307298660278e-02
-3.759099170565605164e-02
-2.006785944104194641e-02
5.714242532849311829e-02
-4.155167192220687866e-02
-1.056051775813102722e-01
-2.008284628391265869e-02
-2.512470073997974396e-02
-6.851746141910552979e-02
2.638574689626693726e-02
-5.587670579552650452e-02
-3.360040113329887390e-02
-4.598934575915336609e-02
7.155227009207010269e-03
2.948785573244094849e-02
-2.803261764347553253e-02
-8.158627897500991821e-02
3.145722206681966782e-03
6.788262724876403809e-02
-2.577104791998863220e-02
6.392554193735122681e-02
-5.801863595843315125e-02
-9.626498073339462280e-02
-4.852469428442418575e-04
-6.976279616355895996e-02
6.966274976730346680e-02
4.640039056539535522e-02
-4.369909688830375671e-02
-9.973271936178207397e-02
4.711132869124412537e-02
-1.249233353883028030e-02
4.363082349300384521e-03
7.730097044259309769e-03
3.671538084745407104e-02
-4.632784426212310791e-02
-5.294226109981536865e-02
-9.826402179896831512e-03
-6.846999377012252808e-02
4.117148055229336023e-04
-5.807837843894958496e-02
3.669614344835281372e-02
-1.808028668165206909e-02
2.230402640998363495e-02
-1.830981299281120300e-02
-1.959206536412239075e-02
-4.334848374128341675e-02
9.782386012375354767e-03
-9.241878241300582886e-02
-6.108299363404512405e-03
-8.348039537668228149e-02
-5.559454858303070068e-02
3.810798749327659607e-02
3.633650019764900208e-02
5.957090109586715698e-02
2.687202952802181244e-02
-9.827988594770431519e-02
6.062477827072143555e-02
-5.655222013592720032e-02
-6.577758491039276123e-02
-1.736034452915191650e-02
-4.438249766826629639e-02
-8.086550980806350708e-02
5.243219807744026184e-02
5.531904846429824829e-02
-6.899556517601013184e-02
1.043976051732897758e-03
-9.709374606609344482e-02
-3.320124000310897827e-02
5.744646117091178894e-02
3.040524432435631752e-03
4.594385623931884766e-02
3.428045660257339478e-03
-3.266644850373268127e-02
7.884099148213863373e-03
-5.716229206882417202e-04
2.297979407012462616e-02
-2.707500383257865906e-02
6.356318481266498566e-03
6.161325797438621521e-02
1.410284917801618576e-02
5.557925254106521606e-02
5.204978585243225098e-02
5.566157773137092590e-02
1.660603098571300507e-02
-3.349309042096138000e-02
4.093730822205543518e-02
8.128525689244270325e-03
-2.065172418951988220e-02
4.985156655311584473e-02
-3.989517688751220703e-02
3.755273669958114624e-02
-1.491795200854539871e-02
-7.928642630577087402e-02
-1.212675310671329498e-02
-8.798355609178543091e-02
5.492408201098442078e-02
-7.478549145162105560e-03
-1.612171530723571777e-02
-5.617536976933479309e-02
4.781619086861610413e-02
2.400474622845649719e-02
3.760235151275992393e-03
-1.953468099236488342e-02
-3.363421559333801270e-02
1.145234098657965660e-03
5.214343219995498657e-02
-2.341366000473499298e-02
7.238231599330902100e-02
-7.018094509840011597e-02
2.889408916234970093e-02
-5.483940616250038147e-02
-8.024906367063522339e-02
4.147008061408996582e-02
-8.261013776063919067e-02
5.129976198077201843e-02
-8.131994307041168213e-02
8.295989036560058594e-02
5.988235771656036377e-02
-8.831942826509475708e-02
-2.920052595436573029e-02
2.325770258903503418e-02
4.359376151114702225e-03
6.858950853347778320e-02
-2.067788876593112946e-02
2.838624082505702972e-02
7.300666999071836472e-03
-3.100772760808467865e-02
1.587088592350482941e-02
6.335832178592681885e-02
-2.861994318664073944e-02
-8.643255382776260376e-02
-7.237334549427032471e-02
-8.958172798156738281e-02
-2.257777936756610870e-02
1.112121436744928360e-02
3.906893730163574219e-02
4.974332824349403381e-02
3.128973022103309631e-02
6.560005247592926025e-02
3.397770226001739502e-02
-6.970055401325225830e-02
-7.091758400201797485e-02
-1.338105555623769760e-02
-4.040004219859838486e-03
-3.218936175107955933e-02
4.522054269909858704e-02
-2.827328629791736603e-02
-5.306537449359893799e-02
-6.101638078689575195e-02
-5.198431760072708130e-02
-2.350694313645362854e-02
-1.963925920426845551e-02
5.856814607977867126e-02
2.188999392092227936e-02
-6.984408944845199585e-02
-3.645234275609254837e-03
4.468223825097084045e-02
4.544936120510101318e-02
-3.012138232588768005e-02
-7.765837945044040680e-03
-2.870766445994377136e-02
4.368576034903526306e-02
3.624996542930603027e-02
-9.786225855350494385e-02
4.615581780672073364e-02
-7.274074852466583252e-02
-1.022439822554588318e-01
6.574868410825729370e-02
9.551555849611759186e-03
3.022755309939384460e-02
1.082156132906675339e-02
5.480319261550903320e-02
4.408282786607742310e-02
-9.133457392454147339e-02
-8.646234124898910522e-02
-7.164870947599411011e-02
-6.223351880908012390e-02
-5.945175886154174805e-02
-4.157083109021186829e-02
5.640888214111328125e-02
-2.417768910527229309e-02
-3.661249577999114990e-02
-3.901146352291107178e-02
-5.236066877841949463e-02
-3.390676528215408325e-02
-2.100147306919097900e-03
-2.790683135390281677e-02
-1.189457476139068604e-01
-6.998417526483535767e-02
5.335020273923873901e-02
-9.309088438749313354e-02
2.755606779828667641e-03
1.330230198800563812e-02
-7.103664427995681763e-02
-2.531994134187698364e-02
-2.802866883575916290e-02
-1.608786918222904205e-02
4.778447374701499939e-02
2.296386100351810455e-02
-6.014837324619293213e-02
1.359083969146013260e-02
-7.753710448741912842e-02
-1.129681840538978577e-01
-3.241028403863310814e-03
-3.968634456396102905e-02
6.095788255333900452e-02
-1.055768784135580063e-02
-8.662119507789611816e-02
3.938889596611261368e-03
7.168963551521301270e-02
-1.482800841331481934e-01
-1.234040856361389160e-01
1.208753660321235657e-01
1.234833970665931702e-01
1.061004251241683960e-01
-1.674747094511985779e-02
-3.698837012052536011e-03
3.041668049991130829e-02
-1.197846531867980957e-01
-1.260393708944320679e-01
3.906233981251716614e-02
2.725259168073534966e-03
4.461903497576713562e-02
-5.613818764686584473e-02
-1.158121228218078613e-01
3.489853441715240479e-02
8.506362140178680420e-02
-1.370337605476379395e-01
-8.795069158077239990e-02
-2.968453057110309601e-02
-3.146226983517408371e-03
9.049823135137557983e-02
-2.246852032840251923e-02
-5.077888071537017822e-02
-5.631345137953758240e-02
-1.290181744843721390e-02
-3.865102771669626236e-03
-2.825790271162986755e-02
2.702299878001213074e-02
-7.977444678544998169e-02
-6.520677357912063599e-02
8.376820915145799518e-05
-6.560639292001724243e-02
-9.749815799295902252e-03
5.449156090617179871e-02
-1.458160132169723511e-01
5.248516798019409180e-02
1.267825961112976074e-01
-4.427807405591011047e-02
-9.374334663152694702e-02
-1.122146472334861755e-01
5.297413840889930725e-02
-6.457321345806121826e-02
4.045111313462257385e-02
1.174247544258832932e-02
3.799786418676376343e-02
-1.895216666162014008e-02
-3.079158812761306763e-02
1.642752252519130707e-02
2.574421698227524757e-03
-2.295795641839504242e-02
3.617262118496000767e-04
8.922792039811611176e-03
-2.825972065329551697e-02
-1.129945367574691772e-01
-3.622455522418022156e-02
-8.352572098374366760e-03
1.474243775010108948e-02
6.919652223587036133e-02
-6.603290885686874390e-02
-1.609099097549915314e-03
6.886073946952819824e-02
-1.418808102607727051e-01
-7.846593856811523438e-03
7.993524521589279175e-02
-4.515917599201202393e-02
-2.855628542602062225e-02
1.295621395111083984e-01
-5.894902162253856659e-03
2.795021235942840576e-02
-5.215089768171310425e-03
-1.865815930068492889e-02
-1.386337354779243469e-02
1.840398274362087250e-02
4.960155487060546875e-02
-3.208791464567184448e-02
1.035405229777097702e-02
-2.370283752679824829e-02
-4.451323300600051880e-02
-6.486918777227401733e-02
3.062607720494270325e-02
-6.957104057073593140e-02
7.913815788924694061e-03
1.008371189236640930e-01
3.950086236000061035e-02
5.668950825929641724e-02
-4.316762462258338928e-02
7.068289071321487427e-02
1.563339978456497192e-01
-6.091209128499031067e-02
-4.938198998570442200e-02
7.128398865461349487e-04
-2.877895906567573547e-02
7.909795641899108887e-02
-6.753732264041900635e-02
-5.391014274209737778e-03
2.295107394456863403e-02
2.847669273614883423e-02
-5.270375311374664307e-02
7.071680855005979538e-03
9.006847441196441650e-02
1.607124507427215576e-02
-2.101088128983974457e-02
1.436117738485336304e-01
-8.821627497673034668e-02
-3.530614823102951050e-02
1.161489635705947876e-01
-1.788967549800872803e-01
1.123887579888105392e-02
-3.358972072601318359e-02
-3.955628350377082825e-02
2.400542236864566803e-02
-2.660031430423259735e-02
-1.356092542409896851e-01
7.786288857460021973e-02
-1.051872503012418747e-02
-1.454060804098844528e-02
-7.065556943416595459e-02
4.590988159179687500e-02
6.923798471689224243e-02
1.222231164574623108e-01
9.720376878976821899e-02
1.177423354238271713e-02
-2.239145524799823761e-02
1.186534911394119263e-01
-1.032450869679450989e-01
-3.436665236949920654e-02
-2.495788410305976868e-02
-1.093381717801094055e-01
-2.730487659573554993e-02
-3.427850827574729919e-02
-2.331784740090370178e-02
4.544971510767936707e-02
1.113528609275817871e-01
-6.834481656551361084e-02
1.637804508209228516e-02
1.238298565149307251e-01
9.015239030122756958e-02
1.982591599225997925e-01
7.843637466430664062e-02
6.132796406745910645e-02
1.486499458551406860e-01
1.536033898591995239e-01
1.322903949767351151e-02
6.831166893243789673e-02
7.495106756687164307e-02
7.048536837100982666e-02
1.564817875623703003e-01
6.642362475395202637e-02
-7.659879326820373535e-02
4.723427072167396545e-02
5.299564450979232788e-02
3.419600054621696472e-02
1.200031861662864685e-02
8.036345988512039185e-02
2.025005221366882324e-02
1.531391032040119171e-02
-8.152499794960021973e-03
-1.292721461504697800e-02
-1.583388820290565491e-02
-5.297369789332151413e-03
-5.285307019948959351e-02
-1.078938320279121399e-01
8.681719191372394562e-03
2.757127769291400909e-02
3.081532195210456848e-02
6.742034107446670532e-02
9.354083240032196045e-02
-4.649232700467109680e-02
6.885050982236862183e-02
2.298466861248016357e-02
-1.624018400907516479e-01
-3.661694005131721497e-02
4.895882681012153625e-02
8.483161032199859619e-02
3.099440596997737885e-02
6.307531893253326416e-02
2.823843434453010559e-02
7.469526678323745728e-02
-1.177151948213577271e-01
-6.635258346796035767e-02
-7.627780735492706299e-02
1.591470986604690552e-01
1.178949698805809021e-01
7.244477421045303345e-02
8.060279488563537598e-02
5.466094613075256348e-02
-1.534708682447671890e-02
-3.996277227997779846e-02
5.240691080689430237e-02
4.025904834270477295e-02
-2.153327688574790955e-02
8.841960132122039795e-02
1.009287610650062561e-01
-3.590325638651847839e-02
-7.183141075074672699e-03
-1.794788986444473267e-02
-9.456259757280349731e-02
-5.220365151762962341e-02
-3.913557901978492737e-02
3.779207170009613037e-02
3.326812013983726501e-02
-6.368677318096160889e-02
2.763884887099266052e-02
-2.468267828226089478e-02
-6.185549870133399963e-02
-3.821239992976188660e-02
1.857643947005271912e-02
-4.727996885776519775e-02
8.631722629070281982e-02
1.008614003658294678e-01
3.079113550484180450e-02
6.611055880784988403e-02
-1.718914136290550232e-03
5.809658020734786987e-02
-9.749026596546173096e-02
-3.142983838915824890e-02
2.494470030069351196e-02
-2.680612169206142426e-02
8.977314829826354980e-02
1.317775696516036987e-01
3.608822822570800781e-02
-5.313149839639663696e-02
5.028075352311134338e-02
-1.608039736747741699e-01
-2.117294073104858398e-02
-5.414972826838493347e-02
1.056926622986793518e-01
5.972106754779815674e-02
-5.332926660776138306e-02
2.231074310839176178e-02
6.223103031516075134e-02
1.122721005231142044e-02
4.842482507228851318e-02
8.925361186265945435e-02
-1.226333454251289368e-01
-1.514323893934488297e-02
-6.263244897127151489e-02
-8.202077448368072510e-02
-1.706938073039054871e-02
-3.743559494614601135e-02
-4.975485801696777344e-02
-6.156885251402854919e-02
2.575678750872612000e-02
-3.165576979517936707e-02
2.378663793206214905e-02
6.451176851987838745e-02
1.044842079281806946e-01
5.821589007973670959e-02
9.651446342468261719e-02
2.456520125269889832e-02
-6.492852419614791870e-02
-1.273511499166488647e-01
3.589360415935516357e-02
3.338691964745521545e-02
4.022035747766494751e-02
3.513573855161666870e-02
-1.977434568107128143e-02
-6.116890348494052887e-03
-1.009027957916259766e-01
-2.316899038851261139e-02
-1.080822572112083435e-01
-2.336370944976806641e-02
-1.501550376415252686e-01
-1.253104060888290405e-01
-1.143975704908370972e-01
-1.223742589354515076e-01
-1.568350568413734436e-02
-1.502499580383300781e-01
-1.154824271798133850e-01
-1.419771313667297363e-01
-1.783755272626876831e-01
-5.838221684098243713e-02
-4.791906103491783142e-02
4.056456312537193298e-02
7.225521840155124664e-03
-1.406139433383941650e-01
-3.694152459502220154e-02
6.637909915298223495e-03
-1.029773578047752380e-01
-2.074742689728736877e-03
-4.601271823048591614e-02
-7.258111983537673950e-02
-3.580162674188613892e-02
4.095163661986589432e-03
7.307678461074829102e-02
7.365807145833969116e-02
-3.893058747053146362e-02
3.698607906699180603e-02
2.712090685963630676e-02
7.503998279571533203e-02
1.105892434716224670e-01
7.647280395030975342e-02
1.065467968583106995e-01
6.513872649520635605e-04
9.727391414344310760e-03
-2.633035928010940552e-02
5.082957819104194641e-02
5.811914429068565369e-02
-7.677103579044342041e-02
1.552027650177478790e-03
-1.088478490710258484e-01
5.669658072292804718e-03
-8.066269755363464355e-02
-6.148624047636985779e-02
8.070220798254013062e-02
-7.229696959257125854e-02
-5.935303494334220886e-02
3.046759404242038727e-02
6.126457452774047852e-02
8.878576010465621948e-02
1.910090679302811623e-03
-4.347231984138488770e-02
8.764365315437316895e-02
-6.315220892429351807e-02
4.761421680450439453e-02
4.330794513225555420e-02
-9.452001750469207764e-02
-1.346056014299392700e-01
-1.047292873263359070e-01
-6.761983782052993774e-02
-8.519499003887176514e-02
1.999820023775100708e-02
-2.826565876603126526e-02
6.161201745271682739e-02
-1.978984661400318146e-02
-1.234088242053985596e-01
-1.115869432687759399e-01
-2.195784263312816620e-02
-3.181079402565956116e-02
-1.631386280059814453e-01
-1.696526855230331421e-01
-1.324744373559951782e-01
-8.438748121261596680e-02
-2.880759723484516144e-02
4.530004039406776428e-02
9.422656148672103882e-02
5.225394666194915771e-02
8.099195361137390137e-02
1.760552264750003815e-02
8.543933928012847900e-02
-5.136852338910102844e-02
5.143172666430473328e-02
4.181923810392618179e-03
-7.945551723241806030e-02
-5.879676342010498047e-02
-1.019433140754699707e-01
-1.493507903069257736e-02
-1.243568863719701767e-02
3.020511567592620850e-02
-6.821809709072113037e-02
-5.665807425975799561e-02
5.812080204486846924e-02
-1.781927235424518585e-02
6.856754422187805176e-02
5.275472532957792282e-03
4.045129287987947464e-03
1.538066938519477844e-02
1.326187700033187866e-01
-3.718834370374679565e-03
-1.591836474835872650e-02
9.611219167709350586e-02
1.524044480174779892e-02
-4.077655728906393051e-03
2.613025903701782227e-02
-3.843503445386886597e-02
-4.416977986693382263e-02
-2.242269925773143768e-02
-4.328184574842453003e-02
7.080855220556259155e-02
2.171592600643634796e-02
6.014050543308258057e-02
3.908878564834594727e-02
-4.777981713414192200e-02
-5.255936458706855774e-02
-5.003909021615982056e-02
5.542124807834625244e-02
6.654966622591018677e-02
-8.023967593908309937e-02
-3.788279136642813683e-03
-9.819649159908294678e-02
-4.392180219292640686e-02
-8.761310577392578125e-02
-5.537153780460357666e-02
-3.335558623075485229e-02
-1.296604424715042114e-01
3.202588856220245361e-02
-4.033642262220382690e-02
-1.110341399908065796e-01
8.932988345623016357e-02
6.956996396183967590e-03
-3.937885537743568420e-02
8.142770826816558838e-02
-2.646865695714950562e-02
8.721010386943817139e-02
-5.959989875555038452e-02
-4.131395369768142700e-03
1.718610674142837524e-01
2.929293178021907806e-02
-1.121321395039558411e-01
-8.312358707189559937e-02
2.687545027583837509e-03
-6.234951317310333252e-03
2.848489955067634583e-02
-6.968628615140914917e-02
-4.523533955216407776e-02
-2.984873764216899872e-02
7.145386771298944950e-04
2.830076776444911957e-02
-3.046168386936187744e-02
2.982958033680915833e-02
7.513194531202316284e-02
-5.963533651083707809e-03
-4.425641521811485291e-02
-9.318294003605842590e-03
4.548998549580574036e-02
-7.968204095959663391e-03
-3.846486285328865051e-02
-1.271487623453140259e-01
-8.685600012540817261e-02
-8.440458029508590698e-02
-1.060143765062093735e-02
-2.862715162336826324e-02
-4.453299939632415771e-02
1.957128010690212250e-02
8.210456371307373047e-02
-4.156969487667083740e-02
1.131192035973072052e-02
4.872413724660873413e-02
9.054297208786010742e-02
-3.989326301962137222e-03
1.268157809972763062e-01
-6.607418414205312729e-03
7.647673040628433228e-02
-7.836183905601501465e-02
6.413026899099349976e-02
-9.775912016630172729e-02
-9.602521359920501709e-02
6.322854012250900269e-02
-1.463240385055541992e-02
1.162100657820701599e-01
7.234667241573333740e-02
7.518202811479568481e-02
-3.668537363409996033e-02
4.904066026210784912e-02
-3.857709839940071106e-02
4.276509210467338562e-02
6.531299650669097900e-02
3.688268736004829407e-02
-6.405814737081527710e-02
-5.451430380344390869e-02
1.004122104495763779e-02
6.341873109340667725e-02
-9.239437431097030640e-02
-2.895935671404004097e-03
2.140055224299430847e-02
7.750733196735382080e-02
-5.158781073987483978e-03
-1.779916509985923767e-02
-1.251039505004882812e-01
-6.871796399354934692e-02
1.314836293458938599e-01
2.469467371702194214e-02
7.947859913110733032e-02
2.700321190059185028e-02
-2.531749941408634186e-02
7.392316311597824097e-02
3.815570846199989319e-02
-3.467366099357604980e-02
2.234804630279541016e-02
6.599003076553344727e-02
9.011232294142246246e-03
-9.133771806955337524e-02
1.327538024634122849e-02
-6.279086228460073471e-03
-6.744188815355300903e-02
2.607379667460918427e-02
1.246386114507913589e-02
-1.104046925902366638e-01
1.043775156140327454e-01
-3.487418964505195618e-02
4.372904449701309204e-02
7.292535156011581421e-02
1.484596543014049530e-02
7.413458079099655151e-02
3.662734106183052063e-02
-1.325437217019498348e-03
1.677991151809692383e-01
3.544965758919715881e-03
-8.534083515405654907e-02
-1.259098201990127563e-01
5.962175875902175903e-02
2.419012039899826050e-02
-5.150019377470016479e-02
-4.893625620752573013e-03
-2.058879286050796509e-02
-1.264804154634475708e-01
5.385592579841613770e-02
9.294559061527252197e-02
7.594300061464309692e-02
8.706617355346679688e-02
6.305261701345443726e-02
9.986759722232818604e-02
-5.194725841283798218e-02
-6.541419029235839844e-02
4.585584998130798340e-02
1.022186502814292908e-01
1.220944058150053024e-02
1.017983406782150269e-01
5.958812776952981949e-03
6.056436896324157715e-02
5.651530250906944275e-02
6.362504791468381882e-03
-4.156151041388511658e-02
5.414377152919769287e-02
-4.289923235774040222e-02
-6.758246570825576782e-03
-1.854767501354217529e-01
-9.866699576377868652e-02
-9.845664352178573608e-02
-2.229293584823608398e-01
-9.871938824653625488e-02
-1.433123946189880371e-01
-1.976258009672164917e-01
-1.284209489822387695e-01
-4.873523488640785217e-02
-1.216340884566307068e-01
-8.940124884247779846e-03
-4.057455062866210938e-02
-8.202428370714187622e-02
-7.637427002191543579e-02
-8.579367771744728088e-03
-7.777243107557296753e-02
-3.078287839889526367e-02
2.436716295778751373e-02
9.644014388322830200e-02
7.905904948711395264e-02
2.777371089905500412e-03
1.309354454278945923e-01
-1.621364057064056396e-02
-4.413584247231483459e-02
6.665378808975219727e-02
1.313044596463441849e-02
-2.077741548418998718e-03
-6.998741999268531799e-03
5.142334103584289551e-02
-2.002429030835628510e-02
-1.204090341925621033e-01
-4.259156063199043274e-02
-5.602617561817169189e-02
-9.700846672058105469e-02
-1.494512110948562622e-01
6.134539470076560974e-02
-2.880335785448551178e-02
-1.795130074024200439e-01
-4.802962765097618103e-02
-4.067960754036903381e-02
-1.723246835172176361e-02
-4.592391848564147949e-02
4.567816480994224548e-02
-6.011229474097490311e-03
1.056111603975296021e-01
2.933188341557979584e-03
-3.003055974841117859e-02
3.379380330443382263e-02
-5.143605917692184448e-02
1.808000029996037483e-03
7.246270775794982910e-03
5.331215262413024902e-02
-2.815031819045543671e-02
1.150950863957405090e-01
-5.953307449817657471e-02
5.935135856270790100e-02
1.045756340026855469e-01
6.516381353139877319e-02
2.210490964353084564e-02
8.916291408240795135e-03
-2.980282902717590332e-02
1.076090037822723389e-01
-3.711900487542152405e-02
2.727902308106422424e-02
7.188995182514190674e-02
5.277581512928009033e-02
-7.851516455411911011e-02
9.215164929628372192e-02
9.976337663829326630e-03
4.469195008277893066e-02
-8.302943408489227295e-02
-5.795340985059738159e-02
-5.194669589400291443e-02
-3.619458526372909546e-02
-1.297534629702568054e-02
-5.265207216143608093e-02
-2.341123996302485466e-03
8.079158514738082886e-02
6.932464987039566040e-02
8.600536733865737915e-02
5.394934490323066711e-02
7.526739034801721573e-03
7.355429977178573608e-02
-4.863614588975906372e-02
3.399149700999259949e-02
-4.115170612931251526e-02
-5.756520107388496399e-02
-1.489402819424867630e-02
-9.294914081692695618e-03
-1.138957142829895020e-01
5.017110705375671387e-02
-9.342711418867111206e-02
-3.803598880767822266e-02
-9.030303359031677246e-02
-9.366532415151596069e-02
-1.250267960131168365e-02
-5.111273750662803650e-02
-1.100750491023063660e-01
-1.121556088328361511e-01
1.040745899081230164e-02
-8.290515840053558350e-02
-1.588663309812545776e-01
-1.829409971833229065e-02
-1.941126137971878052e-01
-1.040408685803413391e-01
-6.877429783344268799e-02
4.168848693370819092e-02
-8.591727353632450104e-03
2.408391609787940979e-02
9.405212104320526123e-02
-3.884851932525634766e-02
2.228638343513011932e-02
1.195468381047248840e-02
6.372731924057006836e-02
-5.864788591861724854e-02
-4.417575895786285400e-03
9.304398670792579651e-03
6.895387917757034302e-02
-1.132226139307022095e-01
-3.978779166936874390e-02
-5.774175003170967102e-02
-9.596667438745498657e-02
-9.438577294349670410e-02
2.402790077030658722e-02
1.093415096402168274e-01
-2.996125258505344391e-03
4.898712504655122757e-04
5.386408045887947083e-02
1.245376560837030411e-02
-1.211494952440261841e-02
6.770185381174087524e-02
-5.089403688907623291e-02
-5.702628567814826965e-02
-5.756503343582153320e-02
6.402852386236190796e-02
1.099995672702789307e-01
-8.019533753395080566e-02
1.051283031702041626e-01
7.070655375719070435e-02
5.917627713643014431e-04
-1.659857854247093201e-02
-8.920791000127792358e-02
6.717177480459213257e-02
-3.201166167855262756e-02
2.170353196561336517e-02
-5.023845285177230835e-02
-5.248790979385375977e-02
-3.083116188645362854e-02
7.425109297037124634e-02
-4.258900880813598633e-02
4.046735912561416626e-02
-1.431660205125808716e-01
-5.455883964896202087e-02
3.244194015860557556e-02
-1.984088569879531860e-01
-1.396690011024475098e-01
3.658989071846008301e-02
-7.764428853988647461e-02
7.467667758464813232e-02
7.032994925975799561e-02
8.068087697029113770e-02
-5.474191531538963318e-02
-7.435297966003417969e-02
2.772038988769054413e-02
-3.013845533132553101e-02
-5.942956358194351196e-02
7.095021754503250122e-02
1.462816447019577026e-02
2.094172406941652298e-03
-5.191061645746231079e-02
-1.348176151514053345e-01
-8.505507372319698334e-03
-2.709174342453479767e-02
-9.025967866182327271e-02
5.859642475843429565e-02
-3.845902532339096069e-02
-1.020674332976341248e-01
-1.266294345259666443e-02
-6.069478113204240799e-03
5.654567480087280273e-02
-4.617488756775856018e-02
7.980050519108772278e-03
-2.550051733851432800e-02
-7.463948428630828857e-02
-2.126312069594860077e-02
-3.792158141732215881e-02
-2.308896183967590332e-02
2.952445484697818756e-02
-1.931197196245193481e-02
9.746296331286430359e-03
6.155920401215553284e-02
1.608300581574440002e-02
-6.941913068294525146e-02
-9.573234617710113525e-02
5.186913069337606430e-03
8.151969313621520996e-02
-9.728327393531799316e-02
1.587338186800479889e-02
-7.560809701681137085e-02
3.474433347582817078e-02
-1.034768223762512207e-01
2.922409586608409882e-02
-3.690271824598312378e-02
2.046543546020984650e-02
8.073957264423370361e-02
-7.766229100525379181e-03
1.979921385645866394e-02
-6.801309436559677124e-02
-8.495796471834182739e-03
3.524106740951538086e-02
2.262378856539726257e-02
5.408596992492675781e-02
-9.714188985526561737e-03
1.005889549851417542e-01
1.406797170639038086e-01
3.866306692361831665e-02
-4.523225128650665283e-02
4.143974930047988892e-02
-1.117025967687368393e-02
4.719991981983184814e-02
3.566799685359001160e-02
-3.324993699789047241e-02
-6.678493320941925049e-02
1.797511428594589233e-02
1.043310537934303284e-01
3.358357772231101990e-02
-2.195282140746712685e-03
5.651699029840528965e-05
-1.012544333934783936e-02
5.354223772883415222e-02
-1.159773487597703934e-02
-3.587616235017776489e-02
1.179526150226593018e-01
-1.146099716424942017e-02
-2.769565023481845856e-02
1.037659049034118652e-01
1.028727367520332336e-02
-3.571073291823267937e-03
1.150428205728530884e-01
-2.317554131150245667e-02
-7.718404382467269897e-02
-8.727555721998214722e-02
1.115040406584739685e-01
-1.771972700953483582e-02
6.290132552385330200e-02
1.178219467401504517e-01
2.816786756739020348e-03
-4.490208625793457031e-02
1.259569972753524780e-01
7.227180898189544678e-02
-4.407989792525768280e-03
-4.454760812222957611e-03
-7.325562089681625366e-02
9.709414094686508179e-02
1.115310471504926682e-02
9.561540558934211731e-03
-4.793328046798706055e-02
-2.015091851353645325e-02
-9.481572359800338745e-02
-4.548997431993484497e-02
1.375509202480316162e-01
4.989456385374069214e-02
1.452820096164941788e-02
1.220250576734542847e-01
-6.424574553966522217e-02
6.384293735027313232e-02
4.750519990921020508e-02
7.499371655285358429e-03
-6.628159899264574051e-03
2.019456215202808380e-02
6.975398957729339600e-02
1.796804741024971008e-02
8.637791126966476440e-02
2.989974804222583771e-02
1.002860218286514282e-01
-4.686371237039566040e-02
-3.219326585531234741e-02
-1.670642197132110596e-02
-7.003167271614074707e-02
2.545788185670971870e-03
5.792911723256111145e-02
-6.963131576776504517e-02
1.227358635514974594e-02
-3.988925367593765259e-02
-7.254552096128463745e-02
1.111071370542049408e-02
-2.316312491893768311e-02
-4.131893627345561981e-03
-9.603906422853469849e-02
-1.164641529321670532e-01
7.118494808673858643e-02
-1.805814099498093128e-03
-5.741773638874292374e-03
-5.290981009602546692e-02
2.357514202594757080e-02
-5.734996870160102844e-02
-1.730940490961074829e-01
-8.175337314605712891e-02
-6.170305609703063965e-02
-1.086057424545288086e-01
5.817775800824165344e-02
-5.873014684766530991e-03
-8.016512542963027954e-02
1.750183850526809692e-02
5.948374792933464050e-02
5.611421540379524231e-02
-6.692456454038619995e-02
1.242399066686630249e-01
1.144203590229153633e-03
-9.519761800765991211e-02
8.217302709817886353e-02
-1.744280196726322174e-02
-6.547506432980298996e-03
8.164671808481216431e-02
5.639472231268882751e-02
7.340837270021438599e-02
5.749806761741638184e-02
-1.853743754327297211e-02
5.169872194528579712e-02
5.361525807529687881e-03
3.791487589478492737e-02
-2.338859811425209045e-02
-1.505109220743179321e-01
-3.472379222512245178e-02
4.336281865835189819e-02
-8.873281627893447876e-02
3.434092923998832703e-02
2.052441611886024475e-02
-5.796799436211585999e-03
1.234135497361421585e-02
7.993764430284500122e-02
-4.655699245631694794e-03
-7.070017047226428986e-03
4.166203364729881287e-02
4.266230389475822449e-02
-1.094687655568122864e-01
-3.414811939001083374e-02
-5.350865051150321960e-02
-2.669727988541126251e-02
-4.699214547872543335e-02
-1.665595546364784241e-02
-1.067496277391910553e-02
7.245107740163803101e-02
-4.741281643509864807e-02
-8.484874665737152100e-02
6.511699408292770386e-02
2.413637004792690277e-02
1.322793494910001755e-02
-9.289463609457015991e-02
1.088465377688407898e-01
5.319098755717277527e-02
-6.025873869657516479e-02
-5.145138502120971680e-02
-1.527230441570281982e-02
-1.277822186239063740e-03
-5.735430121421813965e-02
-3.979321569204330444e-02
-2.826017152983695269e-04
-1.164144128561019897e-01
-1.358819380402565002e-02
4.716802015900611877e-02
-1.209976077079772949e-01
2.470219507813453674e-03
-2.751308120787143707e-02
-8.162808418273925781e-02
9.956368803977966309e-02
-5.733568593859672546e-02
-2.048590220510959625e-02
1.976988650858402252e-02
7.741029560565948486e-02
2.777426876127719879e-02
5.289001017808914185e-02
-3.630777820944786072e-02
-7.304532825946807861e-02
-1.461889687925577164e-02
-1.525448355823755264e-02
-1.562973409891128540e-01
-1.075048372149467468e-01
-9.294328838586807251e-02
-2.990623377263545990e-02
-1.133874710649251938e-02
-1.067005321383476257e-01
7.572242617607116699e-02
-2.919416129589080811e-02
-1.222601458430290222e-01
-1.274130940437316895e-01
-3.583997860550880432e-02
-1.353112757205963135e-01
-5.295816808938980103e-02
-1.422757282853126526e-02
-1.318433880805969238e-01
-2.049225755035877228e-02
-1.431679446250200272e-02
2.567098243162035942e-03
1.501620374619960785e-02
8.609472960233688354e-02
1.123050153255462646e-01
-2.653615549206733704e-02
2.633853256702423096e-02
4.147657379508018494e-02
-7.773841731250286102e-03
-8.676985651254653931e-02
-6.680254638195037842e-02
-5.348133295774459839e-02
-7.501418143510818481e-02
8.886102586984634399e-03
1.296188402920961380e-02
-6.494729220867156982e-02
-1.912586390972137451e-02
3.540547192096710205e-02
-2.797305770218372345e-02
2.537727169692516327e-02
1.868600398302078247e-02
3.551807999610900879e-02
3.251431882381439209e-02
1.253069471567869186e-02
7.913886755704879761e-02
3.411880228668451309e-03
-6.541987508535385132e-02
6.454227864742279053e-02
4.200678318738937378e-02
-1.698367893695831299e-01
5.121767520904541016e-02
5.331562831997871399e-02
-7.942543178796768188e-02
-1.037954390048980713e-01
2.160007879137992859e-02
2.724050544202327728e-02
-5.113710835576057434e-02
1.705996110104024410e-03
-3.847520798444747925e-02
5.808298941701650620e-03
-7.110505551099777222e-02
1.335093751549720764e-02
-1.238512694835662842e-01
6.339885294437408447e-02
3.557847812771797180e-02
-1.998155005276203156e-02
-6.138746812939643860e-02
-1.093803048133850098e-01
-5.719188973307609558e-02
-7.480112463235855103e-02
6.108630821108818054e-02
2.578666247427463531e-02
-6.546631455421447754e-02
1.800380088388919830e-02
1.053676661103963852e-02
7.280549500137567520e-03
5.680532380938529968e-02
-6.431243568658828735e-02
-3.076062165200710297e-02
-7.266343384981155396e-02
7.922873646020889282e-02
-3.664910420775413513e-02
-4.190841224044561386e-03
-7.131921499967575073e-02
-5.438674706965684891e-03
-1.100493222475051880e-01
-9.850749373435974121e-02
-1.122686341404914856e-01
5.138583481311798096e-03
-1.015022844076156616e-01
-3.736583143472671509e-02
-8.332370221614837646e-02
-7.719030231237411499e-02
-3.497068583965301514e-02
1.051015332341194153e-01
-3.486593812704086304e-02
7.155011594295501709e-02
7.088004797697067261e-02
1.058317068964242935e-02
3.113309293985366821e-02
-9.062871336936950684e-02
-6.203513592481613159e-02
1.020152494311332703e-02
-1.429583877325057983e-01
-4.994162917137145996e-02
-1.170706935226917267e-02
1.289164647459983826e-04
-5.360199138522148132e-03
-9.728335589170455933e-02
-2.762540243566036224e-02
-1.054618414491415024e-02
-2.361742313951253891e-03
2.451393753290176392e-03
2.758062630891799927e-02
-3.477026708424091339e-03
-3.495800867676734924e-02
-2.013349533081054688e-02
4.333488643169403076e-02
3.760308958590030670e-03
3.416705131530761719e-02
-3.110714955255389214e-03
-9.026121348142623901e-02
-4.040732607245445251e-02
5.032663419842720032e-02
-5.405597016215324402e-02
3.423553332686424255e-02
-2.305199950933456421e-02
-5.351924523711204529e-02
7.408967614173889160e-02
5.383533984422683716e-02
6.160310655832290649e-02
8.851370215415954590e-02
3.089187480509281158e-02
-1.776788942515850067e-02
-6.321284174919128418e-02
-5.056342110037803650e-02
-7.601908594369888306e-02
-5.898089334368705750e-02
-9.307435899972915649e-02
2.217181585729122162e-02
7.837659865617752075e-02
-3.398014977574348450e-02
-1.664512977004051208e-02
-5.799971520900726318e-02
2.314676763489842415e-03
2.820882946252822876e-02
-1.927344128489494324e-02
-7.569557428359985352e-02
9.606408327817916870e-02
9.160377085208892822e-03
3.794560581445693970e-02
3.978702798485755920e-02
-7.993802428245544434e-02
8.392512798309326172e-03
-2.442167140543460846e-02
2.201470732688903809e-02
3.966042399406433105e-02
5.519984662532806396e-02
-5.822784081101417542e-02
9.162126481533050537e-02
4.451162368059158325e-02
-5.579388514161109924e-02
8.970158174633979797e-03
6.583126634359359741e-02
4.903710633516311646e-02
9.251524507999420166e-02
-1.718925125896930695e-02
-3.805369138717651367e-02
7.000301778316497803e-02
-1.717512309551239014e-02
8.081160485744476318e-02
-2.422424731776118279e-03
3.214556723833084106e-02
8.890971541404724121e-03
-8.563284575939178467e-02
3.942862898111343384e-02
4.778303578495979309e-02
-1.788589544594287872e-02
3.604659345000982285e-03
-1.610088162124156952e-02
5.807000771164894104e-02
3.963763639330863953e-02
4.770816862583160400e-02
7.963565737009048462e-02
-3.553794324398040771e-02
7.908027619123458862e-02
-1.797310076653957367e-02
-5.174400657415390015e-02
-2.622610656544566154e-03
-2.179910195991396904e-03
-1.060103625059127808e-01
-5.835293978452682495e-02
2.924202010035514832e-03
7.783620804548263550e-02
-1.644637994468212128e-02
1.007334664463996887e-01
1.587128825485706329e-02
-2.208352647721767426e-02
1.716482266783714294e-02
2.665630169212818146e-02
-5.826517473906278610e-03
-8.870222419500350952e-02
5.622895061969757080e-02
-3.600411117076873779e-02
-3.288282454013824463e-02
8.318026363849639893e-02
1.329740788787603378e-02
-5.971309170126914978e-02
5.920363217592239380e-02
-4.546431452035903931e-02
8.563977479934692383e-02
-1.185501590371131897e-01
-1.273645460605621338e-01
3.250885382294654846e-02
1.688335090875625610e-02
-1.254812628030776978e-01
-1.209117323160171509e-01
2.203940227627754211e-02
5.042009428143501282e-02
-1.086999028921127319e-01
9.150178730487823486e-02
-5.818293429911136627e-03
6.978582590818405151e-02
-2.104909857735037804e-03
-7.404251955449581146e-03
-4.593465104699134827e-02
3.526300890371203423e-03
3.008081391453742981e-02
7.564046233892440796e-02
2.149714343249797821e-02
-4.243258386850357056e-03
4.883252456784248352e-02
-9.875082224607467651e-02
-1.211822312325239182e-02
-7.815436273813247681e-02
-6.372669339179992676e-02
7.985875755548477173e-02
5.904841702431440353e-03
5.363796278834342957e-02
7.123489677906036377e-02
3.533805906772613525e-02
4.356268048286437988e-02
4.930355399847030640e-02
-2.245907671749591827e-02
1.508104614913463593e-02
4.240291938185691833e-02
1.504773795604705811e-01
2.881624735891819000e-02
2.268711104989051819e-02
-1.037898883223533630e-01
-9.503857791423797607e-02
-2.362486161291599274e-02
-7.899258285760879517e-02
-6.908331066370010376e-03
6.337347626686096191e-02
-3.848518803715705872e-02
-2.309324033558368683e-02
-1.091757565736770630e-01
-4.616161435842514038e-02
-4.510506987571716309e-02
-4.106285050511360168e-02
-8.290828019380569458e-02
4.848211631178855896e-02
6.717984378337860107e-02
9.559275209903717041e-02
-9.608438611030578613e-02
-1.718403100967407227e-01
-5.610850639641284943e-03
-3.645277395844459534e-02
-1.198024973273277283e-01
-4.668047279119491577e-02
3.675381187349557877e-03
1.223336681723594666e-01
5.640171468257904053e-02
-8.571986854076385498e-02
-9.649828821420669556e-02
-9.898901730775833130e-02
-6.582050770521163940e-02
8.288972824811935425e-02
4.902756586670875549e-02
6.131568923592567444e-02
7.412332296371459961e-02
5.924109369516372681e-02
-9.025110304355621338e-02
-1.206023767590522766e-01
-1.899662078358232975e-03
-3.932672366499900818e-02
7.525955140590667725e-02
-2.905007265508174896e-02
4.101723060011863708e-02
1.841207593679428101e-01
4.908367991447448730e-02
-1.742772012948989868e-01
-6.188202649354934692e-02
2.423792146146297455e-03
-5.504686757922172546e-02
-3.493084106594324112e-03
5.437312275171279907e-02
-1.944638788700103760e-02
7.752391975373029709e-03
1.198840141296386719e-01
6.672451645135879517e-02
-5.522137135267257690e-02
7.200518995523452759e-02
4.996903613209724426e-02
3.626200929284095764e-02
1.248940899968147278e-01
2.949144504964351654e-02
-1.861607469618320465e-02
6.457519251853227615e-03
-4.678459092974662781e-02
-4.079796746373176575e-02
-3.078639507293701172e-02
1.473334431648254395e-01
6.974333524703979492e-02
9.288458526134490967e-02
1.633262336254119873e-01
1.580362468957901001e-01
1.813490539789199829e-01
-1.097579002380371094e-01
6.629482377320528030e-03
-4.298009350895881653e-02
1.332295238971710205e-01
4.784825071692466736e-02
-2.214394509792327881e-02
1.650375425815582275e-01
1.701973676681518555e-01
1.061752513051033020e-01
-3.135370090603828430e-02
-1.430988907814025879e-01
-8.336438983678817749e-02
5.878327041864395142e-02
-5.941687524318695068e-02
-8.687764406204223633e-02
1.100589632987976074e-01
4.186151549220085144e-02
8.168184012174606323e-02
7.217195630073547363e-02
3.143608197569847107e-02
3.016701713204383850e-02
1.217929571866989136e-01
9.298653900623321533e-02
7.232803106307983398e-02
1.254268884658813477e-01
1.204546466469764709e-01
1.192712783813476562e-01
8.612098544836044312e-02
-9.011320024728775024e-02
4.046921059489250183e-02
7.670556008815765381e-02
1.087304130196571350e-01
-3.422250598669052124e-02
8.500912226736545563e-03
9.342966973781585693e-02
7.829482853412628174e-02
-8.876309730112552643e-03
-5.693709943443536758e-03
9.374438226222991943e-02
1.312620937824249268e-01
3.677602857351303101e-02
7.280553877353668213e-02
-1.345716300420463085e-03
1.753419190645217896e-01
1.731184422969818115e-01
-1.438074707984924316e-01
-1.260667443275451660e-01
-1.136590242385864258e-01
5.924148112535476685e-02
5.006503313779830933e-02
7.943440973758697510e-02
1.345359534025192261e-01
1.210613325238227844e-01
8.135903626680374146e-02
-1.066545844078063965e-01
-7.565727829933166504e-02
8.388060331344604492e-02
-4.084571450948715210e-02
6.769314408302307129e-02
9.147135168313980103e-02
2.728655189275741577e-02
5.803682282567024231e-02
-2.731688786298036575e-03
-7.419280707836151123e-02
-1.836716830730438232e-01
-2.567788399755954742e-02
-5.216090381145477295e-02
2.014029026031494141e-02
-8.055073767900466919e-02
5.970593914389610291e-02
1.700363755226135254e-01
5.654763057827949524e-02
-8.501983433961868286e-02
-1.704389415681362152e-02
3.197058290243148804e-02
-3.766412660479545593e-02
-5.916609987616539001e-02
-4.098639637231826782e-02
-1.095572835765779018e-03
9.483077377080917358e-02
7.615876849740743637e-03
-8.375726640224456787e-02
7.052580825984477997e-03
3.256141394376754761e-02
-6.927285343408584595e-02
-7.733597606420516968e-02
2.983657456934452057e-02
-1.544245146214962006e-02
-7.830869406461715698e-02
-1.426746547222137451e-01
-6.362707912921905518e-02
-9.045743942260742188e-02
-4.348963499069213867e-02
-1.117235720157623291e-01
-5.704742297530174255e-02
-2.092281170189380646e-02
-1.168137714266777039e-01
9.385173209011554718e-03
-3.366753458976745605e-02
1.927320845425128937e-02
-1.100236177444458008e-01
-1.182216107845306396e-01
-3.233147785067558289e-02
-3.771572932600975037e-02
3.224891051650047302e-02
9.537894278764724731e-02
1.601317971944808960e-01
2.484166622161865234e-02
-1.086838990449905396e-01
-4.567031562328338623e-02
-7.822281122207641602e-02
7.906936109066009521e-02
-2.377430722117424011e-02
-2.831461280584335327e-02
5.584118887782096863e-02
1.571502834558486938e-01
6.703698635101318359e-02
-4.187105223536491394e-02
-1.663120836019515991e-01
-1.289926022291183472e-01
6.190330255776643753e-03
8.923050947487354279e-03
-8.973702043294906616e-02
-5.931984633207321167e-02
6.022658571600914001e-02
8.071949332952499390e-02
-1.163789555430412292e-01
1.869873516261577606e-02
1.702514663338661194e-02
-1.424879729747772217e-01
-9.782167524099349976e-02
-5.585831403732299805e-02
-4.704788327217102051e-02
-8.136986196041107178e-02
-1.776794902980327606e-02
-1.156368106603622437e-01
-6.925617903470993042e-02
-4.717331007122993469e-02
3.717432916164398193e-02
6.565233319997787476e-02
5.375848710536956787e-02
4.343679547309875488e-02
1.118994206190109253e-01
8.066989481449127197e-02
4.034111648797988892e-02
-3.653137711808085442e-03
-6.697923690080642700e-02
-1.894478499889373779e-02
-8.202435076236724854e-02
-1.743104681372642517e-02
-1.874658018350601196e-01
-1.110780537128448486e-01
6.607056595385074615e-03
1.272078861802583560e-05
-1.717986166477203369e-01
-1.567159406840801239e-02
-4.038797318935394287e-02
1.847242005169391632e-02
-9.983110427856445312e-02
-6.566433701664209366e-03
7.291120290756225586e-02
1.550642699003219604e-01
-1.832114532589912415e-02
-7.648839056491851807e-02
-9.844930469989776611e-02
1.689743623137474060e-02
2.916535013355314732e-04
-4.953186586499214172e-02
1.031939536333084106e-01
1.227823793888092041e-01
1.038300544023513794e-01
-3.709581121802330017e-02
3.945852071046829224e-02
-2.001326717436313629e-02
-7.452287524938583374e-02
-8.030660450458526611e-02
4.168087150901556015e-03
-4.225229844450950623e-02
-1.841747760772705078e-01
-3.840081393718719482e-03
3.974604979157447815e-02
1.911557652056217194e-02
3.712125355377793312e-03
8.144026994705200195e-02
-1.067417301237583160e-02
3.035479225218296051e-02
9.426721930503845215e-02
7.038357853889465332e-02
9.128952771425247192e-02
-2.147442474961280823e-02
-1.169591918587684631e-01
-1.025824695825576782e-01
-1.175484582781791687e-01
-4.673423990607261658e-02
-7.439685519784688950e-03
2.177219605073332787e-03
1.076374575495719910e-02
9.714588522911071777e-02
-3.283701662439852953e-04
-1.140035390853881836e-01
-9.671404957771301270e-02
9.627813100814819336e-02
9.373829234391450882e-04
-6.610710173845291138e-02
-1.353643983602523804e-01
-1.106565911322832108e-02
4.558707028627395630e-02
9.966445714235305786e-02
-6.134582310914993286e-02
-2.599570341408252716e-02
-1.955306157469749451e-02
-2.307604253292083740e-02
-9.818503260612487793e-02
-8.042392879724502563e-02
-5.509023740887641907e-02
-9.455595910549163818e-02
6.181858479976654053e-02
-1.682741753756999969e-02
-9.302245825529098511e-02
-2.260703407227993011e-02
1.113905310630798340e-01
-8.129096776247024536e-02
7.532218843698501587e-02
6.828290969133377075e-02
-2.186754718422889709e-02
7.856798917055130005e-02
-7.086705416440963745e-02
-3.516601398587226868e-02
-4.098505154252052307e-02
-5.728078261017799377e-02
-5.340749397873878479e-02
6.778283510357141495e-03
-5.553422495722770691e-02
-8.008636534214019775e-03
-8.454713225364685059e-02
8.493296802043914795e-03
1.067835316061973572e-01
-9.345816075801849365e-02
1.047467254102230072e-02
1.716479659080505371e-02
1.871935650706291199e-02
3.081020200625061989e-03
3.334037214517593384e-02
-5.368013307452201843e-02
9.844709932804107666e-02
1.690941900014877319e-01
-6.847191601991653442e-02
1.015786603093147278e-01
2.591970376670360565e-03
-4.176692664623260498e-02
2.389560267329216003e-02
2.556896209716796875e-02
-1.172334998846054077e-01
-1.333587765693664551e-01
7.954807579517364502e-02
-4.048227891325950623e-02
-6.071846932172775269e-02
8.973355591297149658e-02
-3.814198821783065796e-02
2.843436412513256073e-02
-1.835402101278305054e-02
7.698449492454528809e-02
7.677167654037475586e-02
1.308263093233108521e-01
3.487399220466613770e-02
1.441287994384765625e-01
2.635231241583824158e-02
6.717281788587570190e-02
1.659515649080276489e-01
8.813782595098018646e-03
4.988282918930053711e-02
3.052437305450439453e-02
3.584200516343116760e-02
-4.487838223576545715e-02
-1.001839898526668549e-02
3.344406932592391968e-02
6.003737077116966248e-02
2.538117207586765289e-02
-8.346372842788696289e-02
3.144743666052818298e-02
-6.756385415792465210e-02
-6.609483063220977783e-02
4.724928736686706543e-02
7.985065132379531860e-02
-6.237573176622390747e-02
-3.993554972112178802e-03
6.187012419104576111e-02
5.792064219713211060e-02
-8.641406893730163574e-02
1.347223818302154541e-01
7.335864007472991943e-02
3.172095748595893383e-04
7.678883848711848259e-04
1.197482272982597351e-01
-2.800208143889904022e-02
1.267385631799697876e-01
2.195731550455093384e-02
4.922294523566961288e-03
3.713990002870559692e-02
-8.120527490973472595e-03
-1.013855487108230591e-01
9.422758594155311584e-03
1.080885902047157288e-01
-7.711817324161529541e-02
3.717532753944396973e-02
8.692824281752109528e-03
2.127283066511154175e-02
-1.703211851418018341e-02
-1.126215010881423950e-01
-1.503237709403038025e-02
9.220890700817108154e-02
-6.350475549697875977e-02
-2.951437421143054962e-02
-3.683415800333023071e-02
-3.637346252799034119e-02
-4.353336989879608154e-02
1.024127937853336334e-02
3.677498921751976013e-02
-7.948337495326995850e-02
1.513952948153018951e-02
1.139420419931411743e-01
-2.299520373344421387e-02
7.427207194268703461e-03
6.048095226287841797e-02
-2.998907305300235748e-02
8.981487154960632324e-02
-4.454819485545158386e-02
5.088968575000762939e-02
3.802232071757316589e-02
-2.039263956248760223e-02
1.532137673348188400e-02
1.293254941701889038e-01
-3.231322765350341797e-02
-1.300280392169952393e-01
-5.852675437927246094e-02
1.013022065162658691e-01
-1.765857450664043427e-02
2.311187982559204102e-02
1.026224866509437561e-01
2.931258175522089005e-03
3.341217339038848877e-02
7.107210904359817505e-02
-2.378778532147407532e-02
4.921359568834304810e-02
2.124040126800537109e-01
1.043851599097251892e-01
1.215844154357910156e-01
2.876749634742736816e-02
6.373199820518493652e-02
1.401946693658828735e-01
9.073435515165328979e-02
-9.834534674882888794e-02
1.930116489529609680e-02
6.482968479394912720e-02
-4.773200675845146179e-02
-1.551435980945825577e-02
8.503437787294387817e-02
-1.276377029716968536e-02
2.643957547843456268e-02
6.798176467418670654e-02
-8.697684109210968018e-02
1.237080097198486328e-01
1.838355362415313721e-01
6.738650053739547729e-02
5.382975563406944275e-02
1.760686933994293213e-01
8.918748795986175537e-02
6.581589579582214355e-02
1.875140890479087830e-02
-7.533447444438934326e-02
-5.354591459035873413e-02
2.468732884153723717e-03
-1.043332740664482117e-01
4.539820551872253418e-02
-5.390062462538480759e-03
-4.671205952763557434e-02
1.889290288090705872e-02
-8.856240659952163696e-02
-1.930840909481048584e-01
-8.295506238937377930e-02
1.064537465572357178e-01
-1.099202930927276611e-01
-7.122238725423812866e-02
1.071780025959014893e-01
5.610056221485137939e-02
3.309360146522521973e-02
2.273991005495190620e-03
-8.989432454109191895e-02
-1.254477202892303467e-01
-1.909417845308780670e-02
5.350503697991371155e-02
-9.050616621971130371e-02
2.511326596140861511e-02
-7.200153917074203491e-02
7.253631018102169037e-03
4.136643558740615845e-02
3.983780741691589355e-02
-1.162104308605194092e-01
-6.528041511774063110e-02
1.200664881616830826e-02
6.343024969100952148e-02
-1.612728461623191833e-02
-7.066112011671066284e-02
9.827487915754318237e-02
-4.194398969411849976e-02
-3.435477986931800842e-02
3.828515065833926201e-03
9.417866915464401245e-02
-1.232382431626319885e-01
2.000348642468452454e-02
1.179951876401901245e-01
-5.904854834079742432e-02
5.611108243465423584e-02
5.645420774817466736e-02
-1.150469761341810226e-02
-9.018865972757339478e-02
1.218363083899021149e-02
5.178634822368621826e-02
5.925369914621114731e-03
1.008743718266487122e-01
-2.383059123530983925e-03
-9.885470569133758545e-02
-2.435351535677909851e-02
-6.164214015007019043e-02
-5.173207074403762817e-02
3.891902789473533630e-02
3.189770504832267761e-02
-6.773207336664199829e-02
8.978323638439178467e-02
6.535418331623077393e-02
9.519105404615402222e-02
6.004433706402778625e-02
6.394820660352706909e-02
1.904981955885887146e-02
-1.073492392897605896e-01
-1.951565779745578766e-02
1.381031051278114319e-02
7.237220555543899536e-02
4.769852384924888611e-02
-1.843766868114471436e-02
6.606896221637725830e-02
-2.003148011863231659e-02
-4.668767005205154419e-02
1.360313966870307922e-02
-3.209305228665471077e-03
2.159533463418483734e-02
1.588639616966247559e-02
1.537909545004367828e-02
7.303782552480697632e-02
2.973338589072227478e-02
-1.427530050277709961e-01
-2.672809641808271408e-03
5.357857793569564819e-02
-9.602316468954086304e-02
3.830537945032119751e-02
1.090941578149795532e-01
-3.101861290633678436e-02
3.801891952753067017e-02
-2.077909745275974274e-02
6.364575773477554321e-02
2.491707541048526764e-02
-2.971675805747509003e-02
-1.835039258003234863e-02
-2.181965485215187073e-02
-4.045457765460014343e-02
-2.768321707844734192e-02
4.406240582466125488e-02
-8.424552530050277710e-02
-4.163214005529880524e-03
1.179551035165786743e-01
1.714029908180236816e-01
7.473801076412200928e-02
5.586284026503562927e-02
7.951575517654418945e-02
6.471368670463562012e-02
9.764603525400161743e-02
-4.565888550132513046e-03
-1.405246704816818237e-01
-3.785075247287750244e-02
7.987581193447113037e-02
-8.967966586351394653e-02
-9.736566245555877686e-02
3.363304212689399719e-02
-3.868043050169944763e-02
-2.732435427606105804e-02
7.060030102729797363e-02
1.152428090572357178e-01
9.563132375478744507e-02
-4.118932038545608521e-02
5.606609210371971130e-02
6.962238997220993042e-02
-8.420939557254314423e-03
1.989026740193367004e-02
6.039711833000183105e-02
-2.608043141663074493e-02
-7.974598556756973267e-03
8.935584127902984619e-02
4.820745438337326050e-02
2.575739286839962006e-02
3.560191765427589417e-02
-7.516515441238880157e-03
-5.497438833117485046e-02
-2.633801661431789398e-03
-2.047093212604522705e-02
-9.146399050951004028e-02
-1.997132785618305206e-02
-3.758243098855018616e-02
-3.376563265919685364e-02
-7.917663082480430603e-03
-2.830037102103233337e-02
-4.769998195115476847e-04
3.428152576088905334e-02
1.492512132972478867e-02
4.186147358268499374e-03
7.658641785383224487e-02
-8.459027111530303955e-02
6.755554676055908203e-02
6.691488623619079590e-02
-8.197046816349029541e-02
-2.764033526182174683e-02
6.107948254793882370e-03
6.045791506767272949e-02
3.828828036785125732e-02
-1.509297057054936886e-03
-5.694630369544029236e-02
-9.336885809898376465e-02
5.628470703959465027e-02
-1.079662069678306580e-01
1.614348962903022766e-02
-6.367234140634536743e-02
-1.173797100782394409e-01
2.586501650512218475e-02
5.935937631875276566e-03
-5.420440062880516052e-02
1.213826760649681091e-01
-8.883190155029296875e-02
-2.949480712413787842e-02
1.026185378432273865e-01
8.060935139656066895e-02
-7.333520799875259399e-02
-2.866678684949874878e-02
2.726486697793006897e-02
-1.181704550981521606e-01
-1.694357395172119141e-02
7.798639684915542603e-02
-6.031360477209091187e-02
-4.444872960448265076e-02
7.567437738180160522e-02
-9.980007261037826538e-02
6.011383980512619019e-02
5.612803623080253601e-02
-1.476284395903348923e-02
-4.421517718583345413e-03
-9.281089156866073608e-02
-5.114564299583435059e-02
5.986470729112625122e-03
-5.010576173663139343e-02
-7.025878131389617920e-02
-7.448863238096237183e-02
-4.105133563280105591e-02
-3.572771698236465454e-02
6.366690248250961304e-02
1.794427819550037384e-02
3.014673711732029915e-03
-1.409782283008098602e-02
-9.276959300041198730e-02
2.466517873108386993e-02
-9.156879037618637085e-02
5.085753649473190308e-02
2.487302385270595551e-02
1.328599732369184494e-02
6.198937445878982544e-02
-1.073404029011726379e-01
-1.093151047825813293e-01
1.987577788531780243e-02
-1.258070915937423706e-01
1.849674992263317108e-02
-6.374667584896087646e-02
3.596650063991546631e-02
1.277037151157855988e-02
-1.107723042368888855e-01
-5.387673527002334595e-02
3.499682992696762085e-02
9.925681166350841522e-03
-1.293709501624107361e-02
5.191602930426597595e-02
6.605095416307449341e-02
3.053824044764041901e-02
-6.106500700116157532e-02
2.796784788370132446e-02
-6.190047785639762878e-02
6.475579459220170975e-03
3.273138310760259628e-03
-8.889809995889663696e-02
-2.684116177260875702e-02
5.130776390433311462e-02
2.967422641813755035e-02
2.537876181304454803e-02
-7.232396397739648819e-03
1.253874041140079498e-02
3.595051169395446777e-02
-7.374880462884902954e-02
6.259832531213760376e-02
2.919861488044261932e-02
-5.260286852717399597e-02
-3.048947453498840332e-02
2.322573959827423096e-02
4.533675091806799173e-04
-8.097264915704727173e-02
7.674989104270935059e-02
-8.215495944023132324e-02
5.590370856225490570e-03
-5.882470309734344482e-02
2.734402427449822426e-03
-1.001371890306472778e-01
-9.073821455240249634e-02
5.312692746520042419e-02
3.639776725322008133e-03
7.465119124390184879e-04
-3.314499929547309875e-02
-7.206581532955169678e-02
-3.053055144846439362e-02
2.553406357765197754e-02
4.332213476300239563e-02
3.037006221711635590e-02
2.987087331712245941e-02
2.697749296203255653e-03
-4.070743545889854431e-02
-2.151077846065163612e-03
-6.719388067722320557e-02
-3.031778614968061447e-03
8.432492613792419434e-02
-4.011514037847518921e-02
9.590910375118255615e-02
-2.013389393687248230e-02
-4.303210973739624023e-02
2.592214196920394897e-02
-8.704948425292968750e-02
4.213807359337806702e-02
-7.601842284202575684e-02
-3.472445160150527954e-02
-1.114049628376960754e-01
3.652755171060562134e-02
5.330562591552734375e-02
2.461136691272258759e-02
-1.025000140070915222e-01
5.907339602708816528e-02
-1.584916561841964722e-02
1.434857398271560669e-02
3.230597078800201416e-02
-4.322626441717147827e-02
1.196405217051506042e-01
-8.952933549880981445e-02
5.360859632492065430e-02
2.721201255917549133e-02
-3.522906079888343811e-02
-1.012977361679077148e-01
1.710154488682746887e-02
-7.038939278572797775e-03
-1.658808067440986633e-02
-5.246294662356376648e-03
-5.495246872305870056e-02
-3.934906050562858582e-02
-9.420741349458694458e-03
1.205750741064548492e-02
-3.632867475971579552e-03
1.170376129448413849e-02
-1.363333165645599365e-01
-6.825451552867889404e-02
-6.376428791554644704e-05
-1.198917347937822342e-02
2.612261660397052765e-02
9.400363266468048096e-02
-1.361505780369043350e-02
-6.963220238685607910e-02
-5.288294702768325806e-02
1.762936264276504517e-02
-1.415245234966278076e-01
3.348001465201377869e-02
-5.175013095140457153e-02
-7.099053356796503067e-03
3.894667699933052063e-02
-6.754603236913681030e-03
-8.949143439531326294e-02
1.535500679165124893e-02
5.393621511757373810e-03
-8.044681698083877563e-02
3.711128607392311096e-02
-7.771192491054534912e-02
-6.000445038080215454e-02
-4.473529383540153503e-02
-6.580860912799835205e-02
-9.623390436172485352e-02
-4.979563504457473755e-02
-4.879397898912429810e-02
-1.028884574770927429e-02
-4.165641590952873230e-02
-7.989092171192169189e-02
-7.197270635515451431e-03
-7.863821834325790405e-02
4.838333278894424438e-02
-4.330665990710258484e-02
-1.936657913029193878e-02
-1.409024698659777641e-03
-1.170379891991615295e-01
-4.506951197981834412e-02
7.157581299543380737e-02
-6.772150099277496338e-02
-4.718958586454391479e-02
4.481596499681472778e-02
2.698984369635581970e-02
1.671750843524932861e-02
1.086906436830759048e-02
-6.217108294367790222e-02
-3.253949061036109924e-02
-7.110208272933959961e-02
5.240486189723014832e-02
-6.289975345134735107e-02
-7.807376980781555176e-02
1.001986209303140640e-02
-3.961418569087982178e-02
-6.839628517627716064e-02
-8.936912566423416138e-02
4.265547171235084534e-02
-5.841660127043724060e-02
-1.192621812224388123e-01
4.029132798314094543e-02
8.519092947244644165e-02
7.282193005084991455e-02
9.279635734856128693e-03
7.149936258792877197e-02
-5.204803496599197388e-02
2.048498019576072693e-02
-1.228489074856042862e-02
-3.661435469985008240e-02
3.936620056629180908e-02
-3.371103107929229736e-02
4.507998004555702209e-02
2.111604250967502594e-02
-3.464115411043167114e-02
-1.175615042448043823e-01
2.343804948031902313e-02
-3.400849923491477966e-02
1.095460448414087296e-02
4.066470637917518616e-02
1.953109283931553364e-03
2.259338833391666412e-02
-5.319921299815177917e-02
5.538457259535789490e-02
-6.376937776803970337e-02
6.589517742395401001e-02
6.504762172698974609e-02
1.450022310018539429e-02
-2.596972882747650146e-02
7.138442993164062500e-02
-8.972003310918807983e-02
2.684229426085948944e-02
3.958664089441299438e-02
-3.547309711575508118e-02
-6.490838527679443359e-02
3.848182037472724915e-02
2.406525798141956329e-02
4.554704204201698303e-02
-3.569064429029822350e-03
2.875120146200060844e-03
3.872941713780164719e-03
-1.928089372813701630e-02
-6.890550255775451660e-02
-3.753459826111793518e-02
2.431026101112365723e-02
-1.002138331532478333e-01
-5.816589109599590302e-04
-4.913192614912986755e-02
-5.449300259351730347e-02
1.965435594320297241e-02
-7.138831913471221924e-02
-1.270819008350372314e-01
-2.028457075357437134e-02
6.126845628023147583e-02
-5.976646766066551208e-02
-1.029587239027023315e-01
8.862747251987457275e-02
3.650994598865509033e-02
-2.682015113532543182e-02
7.374913245439529419e-02
1.901806704699993134e-02
-6.076652929186820984e-02
-5.874148011207580566e-02
-4.264848772436380386e-03
-1.163294836878776550e-01
-1.401801314204931259e-02
1.239410601556301117e-02
7.769674807786941528e-02
1.145762577652931213e-01
2.285880967974662781e-02
1.698477938771247864e-02
3.956254199147224426e-02
-8.062978088855743408e-02
-6.974027305841445923e-02
4.438603669404983521e-02
1.855163462460041046e-02
3.374015539884567261e-02
-1.966314949095249176e-02
3.936435282230377197e-02
-1.056815846823155880e-03
1.332656294107437134e-01
2.139758877456188202e-02
8.403272181749343872e-02
1.275918334722518921e-01
1.074395105242729187e-01
1.413606554269790649e-01
-1.044494938105344772e-02
-6.032792478799819946e-02
1.282257884740829468e-01
-1.307528093457221985e-02
-3.036668524146080017e-02
2.938699908554553986e-02
-1.820996776223182678e-02
2.182634361088275909e-02
-1.576686352491378784e-01
2.237048931419849396e-02
-8.539226651191711426e-02
-1.110300719738006592e-01
-1.248553842306137085e-01
-3.195335716009140015e-02
-1.215235292911529541e-01
-2.627218142151832581e-02
-1.755391806364059448e-02
7.319388538599014282e-02
8.822397887706756592e-02
-8.752184361219406128e-02
1.287400573492050171e-01
8.402068167924880981e-02
-1.141715981066226959e-02
1.016616895794868469e-01
3.684471920132637024e-02
2.417354471981525421e-02
1.747836172580718994e-02
-3.931509703397750854e-02
-1.284871548414230347e-01
-2.046232402790337801e-04
-1.469096541404724121e-01
-1.645633950829505920e-02
-3.970554471015930176e-02
-8.363858610391616821e-02
-1.779299974441528320e-01
-9.756230749189853668e-03
1.300565991550683975e-02
-4.109904170036315918e-02
-6.225127726793289185e-02
-1.574357748031616211e-01
-9.736765176057815552e-02
-1.053055450320243835e-01
-4.400133714079856873e-02
3.760290518403053284e-02
1.267145574092864990e-01
4.032664000988006592e-02
6.482052057981491089e-02
-8.589091710746288300e-03
1.000919844955205917e-02
-5.537147074937820435e-02
9.160034358501434326e-03
1.724552661180496216e-01
9.822735935449600220e-02
-1.221136897802352905e-01
-1.488216221332550049e-02
-4.068323224782943726e-02
-7.837924361228942871e-02
-7.431543618440628052e-02
-5.434333533048629761e-02
-1.231990978121757507e-01
3.166710585355758667e-02
-3.020455688238143921e-02
1.384253203868865967e-01
-4.432258382439613342e-02
1.774652116000652313e-02
8.920746296644210815e-02
6.105330586433410645e-02
3.879155963659286499e-02
-7.529453723691403866e-04
6.053573265671730042e-02
-4.286831710487604141e-03
-6.934776902198791504e-02
1.382478512823581696e-02
-4.297313746064901352e-03
-6.550548225641250610e-02
3.886396810412406921e-02
3.209790587425231934e-02
-7.660228013992309570e-02
6.961447745561599731e-02
4.927543923258781433e-02
-8.145230263471603394e-02
-8.942422457039356232e-03
-1.561290025711059570e-01
-6.644503213465213776e-03
6.334763485938310623e-03
-4.942906275391578674e-02
-9.697094792500138283e-04
-7.263507694005966187e-02
4.081872850656509399e-02
-4.067870602011680603e-02
-7.860788702964782715e-02
-6.300294399261474609e-02
-1.341057717800140381e-01
1.604362204670906067e-02
-1.037282273173332214e-01
-1.194155067205429077e-01
-1.188310012221336365e-01
-2.265976741909980774e-02
-3.000929206609725952e-02
3.931838274002075195e-02
2.432683715596795082e-03
-2.461544796824455261e-02
-6.458079814910888672e-02
-1.939212158322334290e-02
1.370850950479507446e-02
2.187633700668811798e-02
-1.518529746681451797e-02
-1.071046367287635803e-01
3.169755265116691589e-02
-7.094736397266387939e-02
-1.418390423059463501e-01
-5.935807898640632629e-02
-3.873371705412864685e-02
-3.026431612670421600e-02
-1.143956631422042847e-01
-8.844286948442459106e-02
9.845974296331405640e-02
9.892214834690093994e-02
-3.291593119502067566e-02
9.770361334085464478e-02
6.709103286266326904e-02
-4.572034627199172974e-02
-2.620874904096126556e-03
9.976340085268020630e-02
2.138414420187473297e-03
5.648178048431873322e-03
-5.945068970322608948e-02
-8.347639441490173340e-02
-3.771250694990158081e-02
-1.228539198637008667e-01
-4.268557578325271606e-02
-7.966591417789459229e-02
-7.081507891416549683e-02
-1.033860668540000916e-01
-1.190065294504165649e-01
-6.379097700119018555e-02
-1.181894838809967041e-01
3.712789388373494148e-03
-6.149622797966003418e-02
-6.466162204742431641e-02
-3.368284925818443298e-02
3.207321837544441223e-02
-1.422238796949386597e-01
-1.616545021533966064e-01
7.203149050474166870e-02
8.679449558258056641e-03
-2.111229812726378441e-03
4.198470711708068848e-02
3.717908263206481934e-02
-2.221680246293544769e-02
-4.978441074490547180e-02
-6.943760812282562256e-02
4.382425546646118164e-02
1.271841973066329956e-01
-7.944472879171371460e-02
1.133536249399185181e-01
8.836271613836288452e-02
4.996290802955627441e-02
7.292167097330093384e-02
7.609933614730834961e-02
7.280657999217510223e-03
1.471492741256952286e-02
7.574942708015441895e-02
1.090757083147764206e-02
-5.759875103831291199e-02
5.285058170557022095e-02
2.719996869564056396e-02
-1.818569377064704895e-02
1.575675010681152344e-01
8.266443014144897461e-02
-8.306493982672691345e-03
4.704880341887474060e-02
-3.156397119164466858e-02
4.838307574391365051e-02
6.305560469627380371e-02
-4.439985379576683044e-02
7.518510520458221436e-02
7.637644559144973755e-02
-3.323173522949218750e-02
-6.065252050757408142e-02
6.020646914839744568e-02
1.738970167934894562e-02
-3.040936402976512909e-02
-5.649118125438690186e-02
-1.601999811828136444e-02
-5.432361364364624023e-02
-1.962020061910152435e-02
4.306469857692718506e-02
1.284249871969223022e-01
1.857119053602218628e-02
-2.650636248290538788e-02
1.274621188640594482e-01
-1.549904514104127884e-02
3.033620864152908325e-02
7.236236240714788437e-03
1.142192780971527100e-01
-4.035449773073196411e-02
1.641914481297135353e-03
6.392498314380645752e-02
-2.137498743832111359e-02
1.027774903923273087e-02
2.183014713227748871e-02
5.361826345324516296e-02
2.120034769177436829e-02
2.886912599205970764e-02
-3.574337810277938843e-02
8.743710815906524658e-02
1.093912497162818909e-01
-2.431701868772506714e-02
4.709897935390472412e-02
1.015594527125358582e-01
-6.444717198610305786e-02
5.846712738275527954e-02
2.721901424229145050e-02
-3.241627942770719528e-03
1.262263804674148560e-01
-2.238292619585990906e-02
-1.084866281598806381e-02
1.169627457857131958e-01
5.782374367117881775e-02
-7.255379110574722290e-02
-1.749119535088539124e-02
-3.754431009292602539e-02
1.852095127105712891e-02
-8.652481436729431152e-02
-6.812515109777450562e-02
-1.408373564481735229e-01
-1.678912155330181122e-02
1.941357855685055256e-03
-6.769689917564392090e-02
-1.311100274324417114e-01
-1.116698831319808960e-01
-8.585647679865360260e-03
-8.717399090528488159e-02
4.621767252683639526e-02
-1.172805875539779663e-01
-1.463681012392044067e-01
-1.506733894348144531e-02
6.971822120249271393e-03
-1.469106674194335938e-01
-1.479866206645965576e-01
-8.600154519081115723e-02
8.013759553432464600e-02
5.697120726108551025e-02
-8.298825472593307495e-02
-6.141235586255788803e-03
-4.608498513698577881e-02
-3.451471775770187378e-02
1.250199377536773682e-01
1.233757287263870239e-01
2.780812233686447144e-02
-1.652959920465946198e-02
7.069624215364456177e-02
-6.782392412424087524e-02
-8.678393065929412842e-02
6.549658626317977905e-02
4.619701951742172241e-02
-9.667474031448364258e-02
-4.056047648191452026e-02
2.738448977470397949e-02
6.068295985460281372e-02
1.978941261768341064e-02
-6.505200266838073730e-02
3.723751381039619446e-02
-5.230498686432838440e-02
-4.460108280181884766e-02
-3.361081704497337341e-03
-3.351185843348503113e-02
4.102022573351860046e-02
-1.297545526176691055e-02
-3.878569602966308594e-02
-3.895344957709312439e-02
3.430645214393734932e-03
1.439104229211807251e-02
-5.530964210629463196e-02
-9.298146702349185944e-03
-4.121579974889755249e-02
1.662149280309677124e-02
4.766670614480972290e-02
-1.752786454744637012e-03
6.719545274972915649e-02
4.271089658141136169e-02
-5.729429051280021667e-02
-1.890295743942260742e-02
-5.101671814918518066e-02
1.767089217901229858e-02
-1.202538702636957169e-02
2.580878511071205139e-02
-5.582241341471672058e-02
-4.381007701158523560e-02
-2.806382812559604645e-02
-4.562642052769660950e-02
-5.109149962663650513e-02
3.011960163712501526e-02
7.274290919303894043e-02
-1.471290178596973419e-02
7.688292115926742554e-02
-1.153373718261718750e-02
-8.339413255453109741e-02
7.255874574184417725e-02
4.341895505785942078e-02
7.523305714130401611e-02
3.823793679475784302e-02
-3.869250044226646423e-02
1.786010339856147766e-02
4.801171645522117615e-02
2.217265032231807709e-02
-5.524577200412750244e-02
-5.325652658939361572e-02
-6.672014296054840088e-02
-5.760508403182029724e-02
-1.847158186137676239e-02
-2.502984553575515747e-02
-6.791981309652328491e-02
6.889561563730239868e-02
1.178498566150665283e-02
-4.677316546440124512e-02
-6.401704996824264526e-02
-3.984359651803970337e-02
-3.386483713984489441e-02
2.718312479555606842e-02
3.564518317580223083e-02
-4.926093295216560364e-02
7.376033067703247070e-02
-4.444359987974166870e-02
7.041884213685989380e-02
3.604224324226379395e-02
-6.121601164340972900e-02
-2.708672173321247101e-02
-6.606277078390121460e-02
6.788159161806106567e-02
4.235521331429481506e-02
5.390973296016454697e-03
-5.875555798411369324e-02
8.854150772094726562e-03
-2.737450599670410156e-02
6.363506615161895752e-02
-3.610587865114212036e-02
-5.050925165414810181e-02
5.331066995859146118e-02
7.565406151115894318e-03
-8.193244040012359619e-02
7.446028292179107666e-02
-3.851050138473510742e-02
5.432512261904776096e-04
-3.222062485292553902e-03
-8.648600429296493530e-02
1.506977155804634094e-02
6.295461207628250122e-02
6.631915271282196045e-02
2.219023648649454117e-03
-5.259972997009754181e-03
6.941213458776473999e-02
-5.958094727247953415e-03
-8.451925218105316162e-02
-4.069898277521133423e-02
-7.539065927267074585e-02
1.785836368799209595e-02
2.932798117399215698e-02
-6.294684857130050659e-02
-5.180200934410095215e-02
-3.011643886566162109e-02
5.479023605585098267e-02
1.374140381813049316e-02
-1.863727229647338390e-03
-1.431394740939140320e-02
-9.187847375869750977e-02
1.539524272084236145e-02
-1.366195827722549438e-02
-1.136654987931251526e-03
5.061950162053108215e-02
-9.975973516702651978e-03
5.413072928786277771e-02
4.783136025071144104e-02
2.998043969273567200e-02
8.528982289135456085e-03
4.081375896930694580e-03
1.321144518442451954e-03
7.546523213386535645e-02
5.505466088652610779e-02
-1.483653299510478973e-02
7.772406935691833496e-02
-5.021245777606964111e-02
-2.320122532546520233e-02
-8.346983045339584351e-02
-6.328020989894866943e-02
-5.752043053507804871e-02
-4.358099773526191711e-02
-8.012476563453674316e-02
-7.848899811506271362e-02
-3.843725472688674927e-02
4.705485329031944275e-02
-7.324448227882385254e-02
-2.611168473958969116e-02
-4.115862026810646057e-02
-4.685723781585693359e-02
6.765176355838775635e-02
-2.427394129335880280e-02
-1.964268833398818970e-02
-1.133764442056417465e-02
3.469845280051231384e-02
7.155438512563705444e-02
-7.926420122385025024e-02
-7.548847049474716187e-02
-7.314257323741912842e-02
-2.388269267976284027e-02
1.991744711995124817e-02
-4.161478951573371887e-02
-7.086102850735187531e-03
7.877563685178756714e-02
4.957262054085731506e-02
-8.194268494844436646e-02
3.127763047814369202e-02
5.363134294748306274e-02
7.568404078483581543e-02
-3.219857066869735718e-02
4.183692485094070435e-02
-2.706978097558021545e-02
6.585665792226791382e-02
-1.963577978312969208e-02
-1.397875230759382248e-02
-3.564451762940734625e-04
-5.754467099905014038e-02
2.445060526952147484e-04
2.983837202191352844e-02
7.841583341360092163e-02
-7.556184381246566772e-02
-7.354521006345748901e-02
-1.722691208124160767e-02
4.025385528802871704e-02
3.230747580528259277e-02
5.043171346187591553e-03
7.260059565305709839e-02
8.210424333810806274e-02
-5.072393268346786499e-02
-4.320822656154632568e-02
1.270413119345903397e-02
-8.255857974290847778e-02
3.333581238985061646e-02
1.357198040932416916e-02
-4.865173995494842529e-02
-7.926592230796813965e-02
4.403503611683845520e-02
-6.993263214826583862e-02
2.944286167621612549e-02
3.784726932644844055e-02
6.106135994195938110e-02
-6.727996468544006348e-02
-2.823854237794876099e-02
-1.718838512897491455e-02
3.878523781895637512e-02
-2.991819009184837341e-02
4.846248775720596313e-02
2.901184558868408203e-02
7.802081108093261719e-02
-5.203043296933174133e-02
-2.032292820513248444e-02
-7.350321859121322632e-02
-3.873128443956375122e-02
3.325886093080043793e-03
-6.663960963487625122e-02
-7.022045552730560303e-02
-6.244665756821632385e-02
3.572272509336471558e-02
5.681045725941658020e-02
-1.288671325892210007e-02
4.888013005256652832e-02
-4.068174213171005249e-02
-4.969280213117599487e-02
2.906579151749610901e-02
7.051619142293930054e-02
-4.127440974116325378e-02
-4.293756093829870224e-03
2.329209446907043457e-02
-7.515134662389755249e-02
-2.230267412960529327e-02
-5.181149765849113464e-02
2.522709406912326813e-02
-6.687004119157791138e-02
6.174189969897270203e-03
-5.792473629117012024e-02
-6.411188095808029175e-02
-3.991166502237319946e-02
5.782767664641141891e-03
-4.276630654931068420e-02
-5.391024798154830933e-02
1.455080113373696804e-03
7.678560912609100342e-02
3.902005776762962341e-02
5.357170850038528442e-02
3.302437067031860352e-02
-5.843406543135643005e-03
-4.734246060252189636e-02
-7.075644284486770630e-02
-5.256333202123641968e-02
-6.915496289730072021e-02
6.878231465816497803e-02
-4.232674837112426758e-02
-6.797669082880020142e-02
5.324435606598854065e-02
-8.122072368860244751e-02
1.826364733278751373e-02
3.389941528439521790e-02
-8.707819879055023193e-02
-4.176394268870353699e-02
-3.284242004156112671e-02
7.604993879795074463e-02
3.496060380712151527e-03
-6.394159048795700073e-02
8.394904434680938721e-03
3.711774945259094238e-02
6.859102100133895874e-02
5.605837702751159668e-02
-7.026182115077972412e-02
1.553096529096364975e-02
5.056813731789588928e-02
7.337984442710876465e-02
-7.223235815763473511e-02
1.190732512623071671e-02
1.005753036588430405e-02
-7.965322583913803101e-02
-4.131178185343742371e-02
-8.365275338292121887e-03
-7.710865139961242676e-02
2.093339711427688599e-02
-8.931089192628860474e-02
5.801054090261459351e-02
-1.948146149516105652e-02
4.278539493680000305e-02
-6.474041193723678589e-02
-7.254569325596094131e-03
-6.568121910095214844e-02
-7.925835251808166504e-02
-4.674972593784332275e-02
2.623402513563632965e-02
6.835916638374328613e-02
-7.105130702257156372e-02
-6.122338771820068359e-02
-4.259255528450012207e-02
2.680976875126361847e-02
6.291581690311431885e-02
4.747335612773895264e-02
-5.276759155094623566e-03
4.127266258001327515e-02
-5.805055424571037292e-02
3.969309478998184204e-02
4.581262171268463135e-02
2.289323508739471436e-02
4.977593570947647095e-02
-1.603591069579124451e-02
1.380279287695884705e-02
1.653857901692390442e-02
1.739455945789813995e-02
5.946903675794601440e-02
4.409636929631233215e-02
3.634740039706230164e-02
-5.240257084369659424e-02
-2.364326827228069305e-02
2.849834412336349487e-02
-1.973511837422847748e-02
-7.370601594448089600e-02
-3.188774362206459045e-02
9.428702294826507568e-03
-7.200996577739715576e-02
-7.851119339466094971e-02
6.692414637655019760e-03
2.965876832604408264e-02
-2.401141216978430748e-03
-6.975221633911132812e-02
1.651657745242118835e-02
2.490956336259841919e-03
-3.862068057060241699e-02
-7.674784213304519653e-02
7.430148124694824219e-02
9.519800543785095215e-02
3.729694336652755737e-02
-3.873529285192489624e-02
-7.825905084609985352e-02
-1.665635220706462860e-02
2.822150290012359619e-02
5.718241631984710693e-02
5.743435397744178772e-02
7.018363475799560547e-02
8.506995439529418945e-02
-5.258551612496376038e-02
-3.048692643642425537e-02
7.433158159255981445e-02
-1.884086243808269501e-02
-6.087620928883552551e-02
2.341603673994541168e-02
-9.263326972723007202e-02
4.641745239496231079e-02
-1.068197488784790039e-01
-4.191800206899642944e-02
-5.905566737055778503e-02
-6.077238917350769043e-02
-8.525358140468597412e-02
3.482762956991791725e-03
1.439660321921110153e-02
-1.951847784221172333e-02
6.010376289486885071e-02
3.620775416493415833e-02
-1.353195756673812866e-01
-5.343398451805114746e-02
1.046632975339889526e-01
-3.480478003621101379e-02
4.881712794303894043e-02
2.108892984688282013e-02
-7.003965228796005249e-02
9.626410901546478271e-02
1.310630701482295990e-02
-5.819042678922414780e-03
-4.682167619466781616e-02
5.204662308096885681e-02
-7.682763040065765381e-02
1.170745193958282471e-01
2.580637298524379730e-02
5.461042001843452454e-02
2.434102818369865417e-02
5.003009736537933350e-02
-4.131078347563743591e-02
-8.204814791679382324e-02
-1.496695075184106827e-02
-6.008251148159615695e-05
-4.510360956192016602e-02
-5.504963174462318420e-02
9.703340381383895874e-02
4.705423489212989807e-02
2.421126142144203186e-02
-1.000661626458168030e-01
3.789474070072174072e-02
-3.396963328123092651e-02
-2.053144574165344238e-02
-3.805069252848625183e-02
1.128837913274765015e-01
5.757209286093711853e-02
8.411914459429681301e-04
-4.355534538626670837e-02
-9.798912331461906433e-03
-1.031798347830772400e-01
-8.295882493257522583e-02
-7.047089189291000366e-02
1.126766018569469452e-02
7.321320474147796631e-02
-1.410434371791779995e-03
1.929066330194473267e-02
1.219171937555074692e-02
3.409090265631675720e-02
7.992044091224670410e-03
-7.643209397792816162e-02
1.326685696840286255e-01
-1.785191707313060760e-02
9.445983916521072388e-02
-2.093175984919071198e-02
7.313607726246118546e-03
5.305256322026252747e-02
1.573119498789310455e-02
-6.108532473444938660e-02
1.551286783069372177e-02
-2.121697738766670227e-02
-1.079338230192661285e-02
6.109830737113952637e-02
-3.362397104501724243e-02
-3.817048273049294949e-04
-2.554232999682426453e-02
-6.570921838283538818e-02
-3.895919770002365112e-02
5.270927771925926208e-02
-4.994322732090950012e-02
4.442872479557991028e-02
1.223925501108169556e-01
-5.535715445876121521e-02
8.685529232025146484e-02
-7.928272709250450134e-03
-1.833931170403957367e-02
-9.233277291059494019e-02
1.132662873715162277e-02
8.248317986726760864e-03
6.632632017135620117e-02
9.514953941106796265e-02
-6.342911720275878906e-02
1.126897707581520081e-01
-2.354358322918415070e-02
-2.778180874884128571e-02
5.640464276075363159e-02
1.098445057868957520e-01
-1.913505606353282928e-03
-1.995649747550487518e-02
-1.497919321991503239e-03
9.311098605394363403e-03
1.538580954074859619e-01
1.030559986829757690e-01
2.140710875391960144e-02
-1.152358651161193848e-01
1.982410065829753876e-02
-3.997714444994926453e-02
1.655179634690284729e-02
5.787071213126182556e-02
-5.451933294534683228e-02
3.609247505664825439e-02
5.522345751523971558e-02
-1.354512274265289307e-01
-1.058835908770561218e-01
9.639625996351242065e-02
-5.454569682478904724e-02
7.782109826803207397e-02
1.171851679682731628e-01
1.847532019019126892e-02
3.031146246939897537e-03
4.198833927512168884e-02
-1.306969672441482544e-01
-6.821099668741226196e-02
8.665288239717483521e-02
-8.908913470804691315e-03
-5.545119941234588623e-02
1.605889759957790375e-02
4.735726863145828247e-03
3.487035259604454041e-02
-1.403116285800933838e-01
-1.378910392522811890e-01
-1.069588586688041687e-01
