[[[[-0.20411134  0.18599285  0.07673365]
   [-0.1407742   0.1039182   0.10864697]
   [-0.17974643 -0.11910071  0.07060324]]]


 [[[-0.0311554  -0.1545875   0.07459231]
   [-0.02747396 -0.14220715  0.03462714]
   [ 0.16849773 -0.16319382 -0.12418458]]]


 [[[-0.19279267 -0.20467184 -0.10898691]
   [ 0.01315946 -0.06452817  0.14113012]
   [ 0.0010388   0.1911885   0.18551858]]]


 [[[-0.13800278  0.02821861  0.08272056]
   [ 0.13496228  0.12194989  0.07154407]
   [ 0.23458643  0.2671607   0.10648659]]]


 [[[ 0.02944501  0.16722652  0.1468838 ]
   [-0.04399022  0.04037565 -0.08937399]
   [-0.21900089  0.06634182 -0.0294208 ]]]


 [[[ 0.05597019  0.13744894  0.11545774]
   [ 0.04209771  0.057423   -0.07613107]
   [ 0.1813857   0.17564857 -0.09978625]]]


 [[[-0.003774   -0.14229879 -0.14426853]
   [-0.12418849 -0.0941227  -0.00675743]
   [-0.04693327 -0.14012754 -0.13932692]]]


 [[[-0.1206596   0.02545546 -0.09951282]
   [-0.12495656  0.02403045 -0.01717034]
   [-0.06669331  0.15751417 -0.01754254]]]


 [[[-0.02573062  0.08958492  0.07286677]
   [-0.11236873  0.1182053   0.23102055]
   [ 0.17017259  0.14563651  0.16819367]]]


 [[[ 0.02612278 -0.11771956 -0.10444985]
   [-0.01819447 -0.1501649  -0.02994793]
   [-0.0917328   0.0113736  -0.09827649]]]


 [[[ 0.22985318  0.20545812 -0.10867177]
   [ 0.03653036  0.07740711 -0.11792183]
   [ 0.16473773  0.04663775  0.02242556]]]


 [[[-0.00283611  0.03713455  0.09304874]
   [-0.01134305 -0.06410123  0.13807862]
   [ 0.04387714  0.00750607  0.1335452 ]]]


 [[[ 0.12469459  0.16374059  0.19745006]
   [-0.09014181 -0.15629782  0.00673895]
   [-0.01653136 -0.2321201  -0.13719104]]]


 [[[-0.02775559  0.02654031 -0.05163999]
   [ 0.10637647  0.12826091  0.13414061]
   [ 0.16008107  0.02283782 -0.04367643]]]


 [[[ 0.20700654  0.08589082  0.14308526]
   [ 0.20798443  0.17538731  0.1698996 ]
   [ 0.22646336  0.1131363   0.04837683]]]


 [[[-0.01284411  0.09033283 -0.08796554]
   [-0.13613199 -0.11287501  0.09492212]
   [-0.08341664  0.16605145  0.0815442 ]]]


 [[[-0.03820083 -0.12452102  0.10587493]
   [-0.11280388 -0.08982081  0.10605498]
   [ 0.02225439  0.05248026  0.02076306]]]


 [[[ 0.02082696  0.06282731  0.14696763]
   [ 0.10560406  0.07659644  0.15376543]
   [-0.05015268  0.19759718  0.06640568]]]


 [[[ 0.01965565 -0.08654408  0.06523255]
   [ 0.13411061  0.14748341  0.06111448]
   [ 0.2025449  -0.02578589  0.18269472]]]


 [[[-0.22732083 -0.16168584 -0.04648026]
   [-0.0978239   0.08989731 -0.05154537]
   [ 0.02864963  0.22106683  0.11585937]]]


 [[[-0.14368078 -0.08546001 -0.15904273]
   [ 0.04820026  0.04314872 -0.0105004 ]
   [ 0.11349667  0.16399015  0.12638985]]]


 [[[ 0.12796187  0.02474287  0.10268216]
   [ 0.1823842   0.11456209 -0.11887731]
   [ 0.07371759 -0.16686048 -0.21771246]]]


 [[[ 0.16785137  0.2067332  -0.08762517]
   [ 0.14326602 -0.00567749  0.01534536]
   [ 0.07387681  0.07342777  0.00504974]]]


 [[[-0.15840726 -0.11666209  0.1656849 ]
   [-0.09652825  0.13271366  0.12201099]
   [-0.15585376  0.10520313  0.2121637 ]]]


 [[[ 0.21496573 -0.09784447  0.00182425]
   [-0.05218637 -0.02124842  0.05697046]
   [ 0.06608453 -0.09207328 -0.23863384]]]


 [[[ 0.04385468  0.21533173  0.03926407]
   [ 0.06668629  0.20812777  0.12811878]
   [ 0.15768608  0.21418072 -0.02132822]]]


 [[[ 0.13031238 -0.05823368 -0.13390727]
   [ 0.2086693   0.17606936 -0.06427978]
   [ 0.17644402  0.10159937  0.00426276]]]


 [[[ 0.0335137   0.01265283  0.15869871]
   [-0.02555974 -0.12264033 -0.09372732]
   [ 0.12409318 -0.10221587 -0.04785395]]]


 [[[ 0.03164516 -0.10379059  0.12126689]
   [-0.03267054 -0.21914639  0.12909089]
   [ 0.15585339 -0.18928862  0.01421314]]]


 [[[ 0.13717134  0.09310056  0.00284256]
   [ 0.07514777  0.0520139  -0.1667919 ]
   [ 0.11167017 -0.05943845 -0.13513613]]]


 [[[-0.01481424 -0.04639933 -0.15929289]
   [ 0.01568143  0.02677769 -0.04440868]
   [ 0.21144037  0.03169743 -0.12663372]]]


 [[[-0.14577883  0.00746918 -0.02763894]
   [-0.00355949 -0.19762315  0.04144156]
   [ 0.18664579 -0.0587368  -0.15869159]]]]