[[[[-0.04238337 -0.08103251  0.19473438  0.00939139  0.06827004
     0.07666198  0.10669369 -0.08491146  0.17193829  0.19066313
    -0.02680825  0.08864564  0.20009263  0.01659455 -0.06326749
     0.20648918  0.18953487  0.07028791  0.00147702 -0.17055038
    -0.0062309   0.0946409   0.20824707  0.09664603 -0.10337916
    -0.10620654 -0.07793017 -0.05962877  0.17672579  0.13428858
    -0.07460973  0.22368576]]

  [[-0.00987698  0.07170545  0.00963584  0.08114211 -0.11592875
     0.06647261  0.10446416 -0.1022893  -0.00818449  0.14054456
    -0.00555956  0.21606593  0.14858083  0.0640057   0.08651347
    -0.01181004 -0.12265836  0.15078358 -0.06099341 -0.07832947
     0.20253849 -0.02085106 -0.22511844 -0.02943153 -0.0713817
    -0.11256392 -0.18217911 -0.14678949  0.08025467  0.15941836
    -0.09582248  0.05262845]]

  [[-0.1078122   0.03927596 -0.1073356  -0.05768512 -0.05798288
     0.17167354  0.00747827 -0.18969654  0.19929652 -0.02741694
     0.2292249   0.23108311 -0.05030631  0.04738452 -0.01718172
     0.04257096 -0.09525721  0.09233923 -0.00504886  0.06996567
     0.25370795  0.0510894  -0.1074625   0.07049905  0.21668783
     0.02593855  0.03259312 -0.14001976  0.09663531  0.0638037
    -0.07499567  0.09609561]]]


 [[[-0.07511425  0.10741142 -0.22057568  0.20133601 -0.05173689
     0.17377433 -0.02221013 -0.00559704  0.02222447  0.17514017
    -0.11766133 -0.03609781  0.07471727 -0.04800327  0.08348237
    -0.03232069  0.12817422  0.08804768  0.21570015 -0.21085115
     0.07283729  0.07922     0.10330559  0.19176045 -0.05185639
    -0.14303681 -0.0455697  -0.10675899 -0.06102014  0.0889896
     0.10627939  0.12517434]]

  [[ 0.06209854  0.23122224 -0.0471977   0.17619942  0.00176431
     0.10494519  0.00322288  0.04926457  0.13648298 -0.12184484
    -0.03441742  0.18120804 -0.0756659   0.2125728   0.11107942
    -0.11884235 -0.13448183  0.2504027   0.17857833 -0.1184003
     0.15684277  0.13644768 -0.11677273  0.19006805  0.09045171
     0.06675304 -0.09438526  0.03439681  0.10443163  0.08412994
     0.03793368 -0.01544264]]

  [[ 0.01072807  0.14294742  0.02076283  0.21044089  0.05787956
     0.13410117 -0.03190117 -0.14748916  0.04071912 -0.09527634
     0.21606629  0.15610386  0.0462271   0.1874059   0.04801027
     0.07821342  0.00309507  0.2388697   0.05673877  0.2475896
     0.1250252   0.16479768  0.12463293  0.23183541 -0.14940041
     0.11125705  0.15663143  0.01730743 -0.0538355   0.16729338
     0.12025979  0.14720228]]]


 [[[-0.11793399  0.0780704  -0.14953889  0.13469999 -0.16534714
    -0.02803438  0.10282119  0.13314265 -0.1440375   0.02810912
     0.12571144  0.09204406 -0.14300422  0.07502445  0.20393743
    -0.18011683  0.1025781   0.15922186  0.2229694  -0.10990805
    -0.10809364  0.00200401 -0.10958519  0.18173996 -0.03591328
    -0.14249167 -0.06766409 -0.11477994 -0.2644682  -0.03667383
    -0.12287991  0.07984468]]

  [[-0.01554259  0.2889452   0.02245275  0.12664267  0.1128622
    -0.17458168 -0.1680149   0.20454404 -0.20406039 -0.12304296
     0.21765114 -0.06253616 -0.1206909   0.02468163  0.16874631
    -0.08982779 -0.08603954  0.00137839  0.18190375 -0.04787237
     0.11380369 -0.10383561 -0.06690549  0.17918602 -0.06474103
    -0.05737346  0.05407763  0.06173745 -0.18310437  0.08786497
    -0.03466614 -0.0416247 ]]

  [[-0.04937256  0.23405851  0.20574357  0.25676367  0.15900768
    -0.15419601 -0.18077977  0.07344186 -0.19631651 -0.26639813
     0.12666595 -0.09664198 -0.27804932  0.02913763  0.06418552
    -0.08117286 -0.05687474  0.18751624 -0.04602023  0.14728199
     0.0317064   0.13189344  0.14255185  0.1098369  -0.08214117
     0.03162119  0.15352638 -0.04088183  0.04578676  0.10613693
     0.20875308  0.00889292]]]]